{"learner":{"attributes":{},"feature_names":["weather_temperature_2m","weather_relative_humidity_2m","weather_shortwave_radiation","weather_precipitation","weather_windspeed_10m","weather_dewpoint_2m","weather_cloudcover","weather_apparent_temperature","hour","day_of_week","day_of_year","month","is_weekend","is_sunday","year_index","sin_hour","cos_hour","sin_month","cos_month","sin_day_year","cos_day_year","is_peak_season","lag_1h","lag_24h","lag_168h","lag_48h","lag_336h","rolling_mean_24h","rolling_std_24h","rolling_mean_168h","rolling_std_168h","rolling_mean_6h_from_target","rolling_max_24h_from_target","ewm_24h_from_target","temp_x_peak","solar_x_peak","temp_x_hour_sin","lag_momentum_1_24","lag_momentum_24_168","weather_balance","temp_x_humidity","rain_flag","precip_x_peak","cloud_x_temp","cdd_24","hdd_18","apparent_minus_temp","rad_x_temp","hot_flag","hot_hour_interaction"],"feature_types":["float","float","float","float","float","float","float","float","int","int","int","int","int","int","int","float","float","float","float","float","float","int","float","float","float","float","float","float","float","float","float","float","float","float","float","float","float","float","float","float","float","int","float","float","float","float","float","float","int","int"],"gradient_booster":{"model":{"cats":{"enc":[],"feature_segments":[],"sorted_idx":[]},"gbtree_model_param":{"num_parallel_tree":"1","num_trees":"120"},"iteration_indptr":[0,1,2,3,4,5,6,7,8,9,10,11,12,13,14,15,16,17,18,19,20,21,22,23,24,25,26,27,28,29,30,31,32,33,34,35,36,37,38,39,40,41,42,43,44,45,46,47,48,49,50,51,52,53,54,55,56,57,58,59,60,61,62,63,64,65,66,67,68,69,70,71,72,73,74,75,76,77,78,79,80,81,82,83,84,85,86,87,88,89,90,91,92,93,94,95,96,97,98,99,100,101,102,103,104,105,106,107,108,109,110,111,112,113,114,115,116,117,118,119,120],"tree_info":[0,0,0,0,0,0,0,0,0,0,0,0,0,0,0,0,0,0,0,0,0,0,0,0,0,0,0,0,0,0,0,0,0,0,0,0,0,0,0,0,0,0,0,0,0,0,0,0,0,0,0,0,0,0,0,0,0,0,0,0,0,0,0,0,0,0,0,0,0,0,0,0,0,0,0,0,0,0,0,0,0,0,0,0,0,0,0,0,0,0,0,0,0,0,0,0,0,0,0,0,0,0,0,0,0,0,0,0,0,0,0,0,0,0,0,0,0,0,0,0],"trees":[{"base_weights":[8.2927116E-5,-2.9287794E-1,3.1762753E-2,-4.1267508E-1,-2.250985E-1,1.2832135E-2,1.1166229E-1,-5.2985376E-1,-3.7892503E-1,-2.6398885E-1,-1.7514282E-1,-4.6216096E-3,3.370944E-2,8.210796E-2,1.4434518E-1,-5.8344567E-1,-1.1649084E-1,-1.0219527E-1,-3.5105678E-1,-2.92349E-1,-2.4117987E-1,2.5811853E-4,-1.7942588E-1,-7.740137E-2,1.1118557E-3,2.4956917E-2,5.4539498E-2,6.2317036E-2,9.751068E-2,1.2304204E-1,1.697676E-1,-1.3889489E-1,-1.77693E-1,-8.843391E-2,-7.762847E-2,-6.639854E-2,-7.506671E-2,-6.2567696E-2,-5.545761E-2,-4.8000548E-2,-3.8092762E-2,-2.92241E-2,-9.274606E-3,-1.9986036E-3,3.4640988E-3,3.6583408E-3,8.58097E-3,1.0965142E-2,1.7277991E-2,1.6682878E-2,1.8821387E-3,2.6737928E-2,1.5412309E-2,2.1188209E-2,3.2805838E-2,3.4039505E-2,4.5027666E-2],"categories":[],"categories_nodes":[],"categories_segments":[],"categories_sizes":[],"default_left":[0,0,0,0,0,0,0,0,0,0,0,0,0,0,0,0,0,0,0,0,0,0,0,0,0,0,0,0,0,0,0,0,0,0,0,0,0,0,0,0,0,0,0,0,0,0,0,0,0,0,0,0,0,0,0,0,0],"id":0,"left_children":[1,3,5,7,9,11,13,15,17,19,21,23,25,27,29,31,-1,-1,33,35,37,-1,39,41,43,45,47,49,51,53,55,-1,-1,-1,-1,-1,-1,-1,-1,-1,-1,-1,-1,-1,-1,-1,-1,-1,-1,-1,-1,-1,-1,-1,-1,-1,-1],"loss_changes":[1.9201748E3,1.6387744E2,2.823987E2,2.8723267E1,2.5024658E1,5.5001656E1,3.4536438E1,4.6065674E0,5.8916626E0,4.645508E0,4.261368E0,3.430576E1,1.2529808E1,5.721466E0,9.183807E0,1.7081299E0,0E0,0E0,1.0130615E0,9.0908813E-1,8.085022E-1,0E0,2.1496582E0,9.926659E0,9.189597E0,4.876997E0,3.1781769E0,2.5722256E0,4.2198563E0,3.635025E0,3.3085175E0,0E0,0E0,0E0,0E0,0E0,0E0,0E0,0E0,0E0,0E0,0E0,0E0,0E0,0E0,0E0,0E0,0E0,0E0,0E0,0E0,0E0,0E0,0E0,0E0,0E0,0E0],"parents":[2147483647,0,0,1,1,2,2,3,3,4,4,5,5,6,6,7,7,8,8,9,9,10,10,11,11,12,12,13,13,14,14,15,15,18,18,19,19,20,20,22,22,23,23,24,24,25,25,26,26,27,27,28,28,29,29,30,30],"right_children":[2,4,6,8,10,12,14,16,18,20,22,24,26,28,30,32,-1,-1,34,36,38,-1,40,42,44,46,48,50,52,54,56,-1,-1,-1,-1,-1,-1,-1,-1,-1,-1,-1,-1,-1,-1,-1,-1,-1,-1,-1,-1,-1,-1,-1,-1,-1,-1],"split_conditions":[1.7263E4,1.436971E4,2.1384E4,1.255019E4,1.601933E4,1.9937E4,2.185805E4,1.198159E4,1.34878E4,1.51815E4,-3.321E3,1.82265E4,2.071344E4,2.179859E4,2.2906E4,6.7406946E-1,-1.1649084E-1,-1.0219527E-1,9.659258E-1,-2.3698E2,1.560984E4,2.5811853E-4,1.674693E4,1.814894E4,2.0041E4,2.0209E4,1.9015338E4,2.2018166E4,1.8E1,6.036E2,5.13E2,-1.3889489E-1,-1.77693E-1,-8.843391E-2,-7.762847E-2,-6.639854E-2,-7.506671E-2,-6.2567696E-2,-5.545761E-2,-4.8000548E-2,-3.8092762E-2,-2.92241E-2,-9.274606E-3,-1.9986036E-3,3.4640988E-3,3.6583408E-3,8.58097E-3,1.0965142E-2,1.7277991E-2,1.6682878E-2,1.8821387E-3,2.6737928E-2,1.5412309E-2,2.1188209E-2,3.2805838E-2,3.4039505E-2,4.5027666E-2],"split_indices":[22,22,22,22,22,25,25,22,22,22,37,22,24,22,22,19,0,0,15,37,25,0,25,25,22,22,27,31,8,2,2,0,0,0,0,0,0,0,0,0,0,0,0,0,0,0,0,0,0,0,0,0,0,0,0,0,0],"split_type":[0,0,0,0,0,0,0,0,0,0,0,0,0,0,0,0,0,0,0,0,0,0,0,0,0,0,0,0,0,0,0,0,0,0,0,0,0,0,0,0,0,0,0,0,0,0,0,0,0,0,0,0,0,0,0,0,0],"sum_hessian":[2.06893E5,2.0189E4,1.86704E5,7.294E3,1.2895E4,1.50942E5,3.5762E4,1.629E3,5.665E3,7.249E3,5.646E3,8.2212E4,6.873E4,1.8781E4,1.6981E4,8.2E2,8.09E2,2.397E3,3.268E3,3.228E3,4.021E3,1.34E2,5.512E3,6.003E3,7.6209E4,4.8396E4,2.0334E4,8.221E3,1.056E4,9.241E3,7.74E3,7.35E2,8.5E1,2.549E3,7.19E2,1.267E3,1.961E3,2.073E3,1.948E3,3.279E3,2.233E3,2.919E3,3.084E3,4.4524E4,3.1685E4,2.4206E4,2.419E4,1.2583E4,7.751E3,7.441E3,7.8E2,7.92E3,2.64E3,2.1E3,7.141E3,2.4E3,5.34E3],"tree_param":{"num_deleted":"0","num_feature":"50","num_nodes":"57","size_leaf_vector":"1"}},{"base_weights":[-3.251229E-4,-2.2111797E-1,2.3634672E-2,-3.0473295E-1,-1.6549714E-1,7.512877E-3,7.7119604E-2,-3.800961E-1,-2.7250063E-1,-1.9120134E-1,-1.2705575E-1,-4.641448E-3,2.3394875E-2,5.2968096E-2,1.0502834E-1,-4.4146115E-1,-8.534156E-2,-7.304252E-2,-6.2094163E-2,-2.1093176E-1,-4.2982537E-2,-1.307495E-1,-1.4003107E-3,-4.8209317E-2,8.7169954E-4,1.6590482E-2,3.6977816E-2,6.856216E-2,3.876069E-2,9.462695E-2,1.4805737E-1,-1.1675901E-1,-9.5961235E-2,-4.712017E-2,-5.543674E-2,-2.827433E-2,-3.5621658E-2,-6.7307567E-3,-2.5276175E-2,-8.3081657E-4,4.568984E-3,1.0854534E-3,5.333507E-3,6.958013E-3,1.2631334E-2,1.8451326E-2,1.0062187E-2,1.066077E-2,4.9374934E-4,1.5910326E-2,2.6018346E-2,3.033329E-2,3.9140794E-2],"categories":[],"categories_nodes":[],"categories_segments":[],"categories_sizes":[],"default_left":[0,0,0,0,0,0,0,0,0,0,0,0,0,0,0,0,0,0,0,0,0,0,0,0,0,0,0,0,0,0,0,0,0,0,0,0,0,0,0,0,0,0,0,0,0,0,0,0,0,0,0,0,0],"id":1,"left_children":[1,3,5,7,9,11,13,15,17,19,21,23,25,27,29,31,-1,-1,-1,33,-1,35,-1,37,39,41,43,45,47,49,51,-1,-1,-1,-1,-1,-1,-1,-1,-1,-1,-1,-1,-1,-1,-1,-1,-1,-1,-1,-1,-1,-1],"loss_changes":[1.093904E3,9.411151E1,1.6084686E2,1.9576294E1,1.1997864E1,2.7668663E1,2.9118073E1,4.660034E0,2.7232666E0,2.2608643E0,2.18396E0,1.950314E1,5.7426987E0,5.1300507E0,8.961578E0,1.3238983E0,0E0,0E0,0E0,8.963928E-1,0E0,1.0504379E0,0E0,1.0388527E1,5.4546742E0,2.5998678E0,2.5920544E0,2.0323868E0,2.1027527E0,5.5121E0,1.08741E0,0E0,0E0,0E0,0E0,0E0,0E0,0E0,0E0,0E0,0E0,0E0,0E0,0E0,0E0,0E0,0E0,0E0,0E0,0E0,0E0,0E0,0E0],"parents":[2147483647,0,0,1,1,2,2,3,3,4,4,5,5,6,6,7,7,8,8,9,9,10,10,11,11,12,12,13,13,14,14,15,15,19,19,21,21,23,23,24,24,25,25,26,26,27,27,28,28,29,29,30,30],"right_children":[2,4,6,8,10,12,14,16,18,20,22,24,26,28,30,32,-1,-1,-1,34,-1,36,-1,38,40,42,44,46,48,50,52,-1,-1,-1,-1,-1,-1,-1,-1,-1,-1,-1,-1,-1,-1,-1,-1,-1,-1,-1,-1,-1,-1],"split_conditions":[1.7263E4,1.460598E4,2.117901E4,1.2916E4,1.618172E4,1.9937E4,2.2115E4,1.198159E4,1.372168E4,1.535704E4,2.041519E4,1.84822E4,2.0849E4,4.45E2,2.3225E4,1.2355496E4,-8.534156E-2,-7.304252E-2,-6.2094163E-2,2.5881904E-1,-4.2982537E-2,-1.8369701E-16,-1.4003107E-3,-2.5881904E-1,1.9991E4,1.9692E4,1.9113904E4,-5E-1,1.8E1,3.658E2,3.782E1,-1.1675901E-1,-9.5961235E-2,-4.712017E-2,-5.543674E-2,-2.827433E-2,-3.5621658E-2,-6.7307567E-3,-2.5276175E-2,-8.3081657E-4,4.568984E-3,1.0854534E-3,5.333507E-3,6.958013E-3,1.2631334E-2,1.8451326E-2,1.0062187E-2,1.066077E-2,4.9374934E-4,1.5910326E-2,2.6018346E-2,3.033329E-2,3.9140794E-2],"split_indices":[22,22,22,22,22,25,22,22,22,22,25,22,25,37,26,27,0,0,0,16,0,16,0,16,24,22,27,16,49,2,34,0,0,0,0,0,0,0,0,0,0,0,0,0,0,0,0,0,0,0,0,0,0],"split_type":[0,0,0,0,0,0,0,0,0,0,0,0,0,0,0,0,0,0,0,0,0,0,0,0,0,0,0,0,0,0,0,0,0,0,0,0,0,0,0,0,0,0,0,0,0,0,0,0,0,0,0,0,0],"sum_hessian":[2.0678E5,2.0242E4,1.86538E5,8.085E3,1.2157E4,1.43334E5,4.3204E4,2.42E3,5.665E3,7.284E3,4.873E3,8.1196E4,6.2138E4,2.3162E4,2.0042E4,8.27E2,1.593E3,2.437E3,3.228E3,3.246E3,4.038E3,4.729E3,1.44E2,9.12E3,7.2076E4,4.14E4,2.0738E4,1.1041E4,1.2121E4,1.6142E4,3.9E3,4.85E2,3.42E2,1.456E3,1.79E3,2.297E3,2.432E3,6.618E3,2.502E3,5.8134E4,1.3942E4,1.2337E4,2.9063E4,1.3033E4,7.705E3,8.88E3,2.161E3,1.0741E4,1.38E3,4.501E3,1.1641E4,1.26E3,2.64E3],"tree_param":{"num_deleted":"0","num_feature":"50","num_nodes":"53","size_leaf_vector":"1"}},{"base_weights":[1.8520335E-4,-1.6336003E-1,1.855128E-2,-2.2465453E-1,-1.1846416E-1,9.148303E-3,7.112158E-2,-2.8740284E-1,-2.0154792E-1,-1.3856651E-1,-8.7937646E-2,1.0781996E-3,2.5573742E-2,6.1941788E-2,1.0176961E-1,-3.3465844E-1,-6.4465605E-2,-2.2100642E-1,-4.469644E-2,-1.2262993E-1,-3.6820214E-2,-2.3803905E-2,-5.320141E-2,-4.398928E-2,2.9158408E-3,-1.01390244E-4,3.0557375E-2,4.299176E-2,7.552475E-2,2.3415009E-2,3.38634E-2,-8.065071E-2,-1.5503281E-1,-4.9985617E-2,-5.7855964E-2,-3.4241576E-2,-2.5522828E-2,-1.955345E-3,-1.9805567E-2,-1.4549973E-2,-3.8940988E-3,2.2344983E-3,-2.4352176E-3,2.1896963E-3,8.671129E-3,9.769418E-3,1.7573327E-2,1.5670959E-2,2.2299843E-2],"categories":[],"categories_nodes":[],"categories_segments":[],"categories_sizes":[],"default_left":[0,0,0,0,0,0,0,0,0,0,0,0,0,0,0,0,0,0,0,0,0,0,0,0,0,0,0,0,0,0,0,0,0,0,0,0,0,0,0,0,0,0,0,0,0,0,0,0,0],"id":2,"left_children":[1,3,5,7,9,11,13,15,17,19,21,23,25,27,29,31,-1,33,-1,35,-1,-1,37,39,41,-1,43,45,47,-1,-1,-1,-1,-1,-1,-1,-1,-1,-1,-1,-1,-1,-1,-1,-1,-1,-1,-1,-1],"loss_changes":[6.2496234E2,5.7790894E1,9.2465935E1,1.2839874E1,7.4339447E0,2.103349E1,7.981018E0,2.7071533E0,2.406433E0,1.3411713E0,1.5276833E0,8.812034E0,6.7704124E0,5.6199493E0,1.4818878E0,1.2519302E0,0E0,7.971039E-1,0E0,9.6435165E-1,0E0,0E0,1.2538855E0,1.7984877E0,8.141118E0,0E0,4.5618744E0,8.2118416E-1,2.2748184E0,0E0,0E0,0E0,0E0,0E0,0E0,0E0,0E0,0E0,0E0,0E0,0E0,0E0,0E0,0E0,0E0,0E0,0E0,0E0,0E0],"parents":[2147483647,0,0,1,1,2,2,3,3,4,4,5,5,6,6,7,7,8,8,9,9,10,10,11,11,12,12,13,13,14,14,15,15,17,17,19,19,22,22,23,23,24,24,26,26,27,27,28,28],"right_children":[2,4,6,8,10,12,14,16,18,20,22,24,26,28,30,32,-1,34,-1,36,-1,-1,38,40,42,-1,44,46,48,-1,-1,-1,-1,-1,-1,-1,-1,-1,-1,-1,-1,-1,-1,-1,-1,-1,-1,-1,-1],"split_conditions":[1.74263E4,1.4802E4,2.1636E4,1.2916E4,1.635455E4,2.0492E4,2.3302E4,1.198159E4,1.395242E4,-1.8369701E-16,1.809926E4,1.9252E4,-8.660254E-1,1.9949584E4,2.4172E4,2.58E0,-6.4465605E-2,5E-1,-4.469644E-2,9.157018E0,-3.6820214E-2,-2.3803905E-2,-7.6E-1,9.157018E0,-5E-1,-1.01390244E-4,-9.659258E-1,1.031E1,-8.660254E-1,2.3415009E-2,3.38634E-2,-8.065071E-2,-1.5503281E-1,-4.9985617E-2,-5.7855964E-2,-3.4241576E-2,-2.5522828E-2,-1.955345E-3,-1.9805567E-2,-1.4549973E-2,-3.8940988E-3,2.2344983E-3,-2.4352176E-3,2.1896963E-3,8.671129E-3,9.769418E-3,1.7573327E-2,1.5670959E-2,2.2299843E-2],"split_indices":[22,22,22,22,22,22,22,22,22,16,26,32,15,47,26,42,0,16,0,36,0,0,46,36,16,0,16,36,16,0,0,0,0,0,0,0,0,0,0,0,0,0,0,0,0,0,0,0,0],"split_type":[0,0,0,0,0,0,0,0,0,0,0,0,0,0,0,0,0,0,0,0,0,0,0,0,0,0,0,0,0,0,0,0,0,0,0,0,0,0,0,0,0,0,0,0,0,0,0,0,0],"sum_hessian":[2.08064E5,2.1006E4,1.87058E5,8.88E3,1.2126E4,1.58677E5,2.8381E4,2.388E3,6.492E3,7.31E3,4.816E3,1.06401E5,5.2276E4,2.1841E4,6.54E3,8.12E2,1.576E3,3.225E3,3.267E3,3.084E3,4.226E3,3.811E3,1.005E3,4.168E3,1.02233E5,8.412E3,4.3864E4,9.12E3,1.2721E4,5.58E3,9.6E2,7.98E2,1.4E1,1.508E3,1.717E3,1.605E3,1.479E3,3.81E2,6.24E2,2.695E3,1.473E3,6.8965E4,3.3268E4,7.98E3,3.5884E4,8.22E3,9E2,7.261E3,5.46E3],"tree_param":{"num_deleted":"0","num_feature":"50","num_nodes":"49","size_leaf_vector":"1"}},{"base_weights":[-1.2228522E-4,-1.3211203E-1,1.3007778E-2,-1.8378706E-1,-1.0441809E-1,1.3923579E-8,4.2938646E-2,-2.3116583E-1,-1.6778205E-1,-1.2266481E-1,-8.0697745E-2,-4.765572E-2,2.403773E-3,3.3072796E-2,6.298484E-2,-2.8656852E-1,-5.35913E-2,-4.4359736E-2,-3.725355E-2,-3.3302154E-2,-2.729113E-2,-2.0134978E-2,1.06067825E-2,-1.7258855E-2,-2.1813262E-2,-2.7199285E-3,1.429309E-2,3.7419528E-2,1.51789915E-2,5.237157E-2,7.9373494E-2,-1.7024997E-1,-6.504219E-2,-2.496277E-3,-1.5405443E-2,-1.1896762E-3,3.4976942E-3,3.9900057E-3,-1.2930528E-3,7.7043283E-3,1.176772E-2,1.1993804E-3,9.445204E-3,7.630381E-3,1.3665873E-2,2.0768316E-2,1.2296026E-2],"categories":[],"categories_nodes":[],"categories_segments":[],"categories_sizes":[],"default_left":[0,0,0,0,0,0,0,0,0,0,0,0,0,0,0,0,0,0,0,0,0,0,0,0,0,0,0,0,0,0,0,0,0,0,0,0,0,0,0,0,0,0,0,0,0,0,0],"id":3,"left_children":[1,3,5,7,9,11,13,15,17,19,21,23,25,27,29,31,-1,-1,-1,-1,-1,-1,-1,-1,33,35,37,39,41,43,45,-1,-1,-1,-1,-1,-1,-1,-1,-1,-1,-1,-1,-1,-1,-1,-1],"loss_changes":[3.5815958E2,2.6747314E1,7.318213E1,4.922653E0,5.2636566E0,1.5009437E1,1.1260399E1,1.1083527E0,9.985504E-1,1.0188751E0,9.381256E-1,3.6958838E0,7.5985217E0,2.9679222E0,3.2640457E0,2.511795E0,0E0,0E0,0E0,0E0,0E0,0E0,0E0,0E0,1.4050722E0,3.1572833E0,1.4559875E0,1.9463387E0,1.7913104E0,8.1453896E-1,1.1475983E0,0E0,0E0,0E0,0E0,0E0,0E0,0E0,0E0,0E0,0E0,0E0,0E0,0E0,0E0,0E0,0E0],"parents":[2147483647,0,0,1,1,2,2,3,3,4,4,5,5,6,6,7,7,8,8,9,9,10,10,11,11,12,12,13,13,14,14,15,15,24,24,25,25,26,26,27,27,28,28,29,29,30,30],"right_children":[2,4,6,8,10,12,14,16,18,20,22,24,26,28,30,32,-1,-1,-1,-1,-1,-1,-1,-1,34,36,38,40,42,44,46,-1,-1,-1,-1,-1,-1,-1,-1,-1,-1,-1,-1,-1,-1,-1,-1],"split_conditions":[1.689E4,1.41616E4,2.078217E4,1.255019E4,1.578462E4,1.8029E4,2.2058E4,-1.821E3,1.361699E4,1.4872E4,1.9658166E4,1.2628927E1,2.0151E4,6E0,2.288027E4,1.245606E4,-5.35913E-2,-4.4359736E-2,-3.725355E-2,-3.3302154E-2,-2.729113E-2,-2.0134978E-2,1.06067825E-2,-1.7258855E-2,-2.5881904E-1,2.0891E4,6E0,8.908551E0,2.2329E4,2.166E2,6E0,-1.7024997E-1,-6.504219E-2,-2.496277E-3,-1.5405443E-2,-1.1896762E-3,3.4976942E-3,3.9900057E-3,-1.2930528E-3,7.7043283E-3,1.176772E-2,1.1993804E-3,9.445204E-3,7.630381E-3,1.3665873E-2,2.0768316E-2,1.2296026E-2],"split_indices":[22,22,23,22,23,22,22,37,23,23,31,36,23,9,23,25,0,0,0,0,0,0,0,0,16,22,9,36,23,2,9,0,0,0,0,0,0,0,0,0,0,0,0,0,0,0,0],"split_type":[0,0,0,0,0,0,0,0,0,0,0,0,0,0,0,0,0,0,0,0,0,0,0,0,0,0,0,0,0,0,0,0,0,0,0,0,0,0,0,0,0,0,0,0,0,0,0],"sum_hessian":[2.06665E5,1.8698E4,1.87967E5,6.523E3,1.2175E4,1.31025E5,5.6942E4,1.645E3,4.878E3,6.88E3,5.295E3,6.291E3,1.24734E5,3.8162E4,1.878E4,3.02E2,1.343E3,2.662E3,2.216E3,3.183E3,3.697E3,5.235E3,6E1,3.346E3,2.945E3,8.7169E4,3.7565E4,3.0703E4,7.459E3,1.14E4,7.38E3,1.4E1,2.88E2,2.295E3,6.5E2,7.7447E4,9.722E3,3.4112E4,3.453E3,1.9596E4,1.1107E4,5.178E3,2.281E3,1.56E3,9.84E3,6.24E3,1.14E3],"tree_param":{"num_deleted":"0","num_feature":"50","num_nodes":"47","size_leaf_vector":"1"}},{"base_weights":[3.6580517E-5,-9.011135E-2,1.0578575E-2,-1.2450808E-1,-6.656235E-2,2.4668595E-3,3.7146263E-2,-1.2979001E-1,-1.7458961E-3,-7.31707E-2,2.3125208E-3,-5.118961E-3,1.1240791E-2,2.7793476E-2,4.7630828E-2,-1.9132833E-1,-1.2366191E-1,-2.0382889E-2,-1.3838013E-2,-2.157038E-2,-2.1329504E-3,1.2924641E-2,-1.5403664E-3,7.667344E-3,5.8936863E-4,5.3135265E-2,6.6140853E-3,-1.0290872E-1,-4.445919E-2,-3.4466833E-2,-2.7475022E-2,-9.895353E-3,-8.210643E-4,2.165873E-3,-1.2130414E-3,1.8739261E-3,4.0672915E-3,1.0201814E-2,1.4913702E-2],"categories":[],"categories_nodes":[],"categories_segments":[],"categories_sizes":[],"default_left":[0,0,0,0,0,0,0,0,0,0,0,0,0,0,0,0,0,0,0,0,0,0,0,0,0,0,0,0,0,0,0,0,0,0,0,0,0,0,0],"id":4,"left_children":[1,3,5,7,9,11,13,15,-1,17,-1,19,21,23,25,27,29,-1,-1,31,33,35,-1,-1,-1,37,-1,-1,-1,-1,-1,-1,-1,-1,-1,-1,-1,-1,-1],"loss_changes":[1.9762988E2,1.7630844E1,4.0124504E1,5.485214E0,6.491638E0,9.493502E0,4.2696457E0,3.1781006E0,0E0,1.9793968E0,0E0,3.7578492E0,1.9515905E0,2.0331535E0,2.3333511E0,1.7002716E0,1.501564E0,0E0,0E0,4.0233154E0,1.9985805E0,1.1677389E0,0E0,0E0,0E0,1.435669E0,0E0,0E0,0E0,0E0,0E0,0E0,0E0,0E0,0E0,0E0,0E0,0E0,0E0],"parents":[2147483647,0,0,1,1,2,2,3,3,4,4,5,5,6,6,7,7,9,9,11,11,12,12,13,13,14,14,15,15,16,16,19,19,20,20,21,21,25,25],"right_children":[2,4,6,8,10,12,14,16,-1,18,-1,20,22,24,26,28,30,-1,-1,32,34,36,-1,-1,-1,38,-1,-1,-1,-1,-1,-1,-1,-1,-1,-1,-1,-1,-1],"split_conditions":[1.7258E4,1.4688E4,2.111E4,4.96869E3,3.00727E3,1.991944E4,2.2061E4,1.20725E4,-1.7458961E-3,1.629708E4,2.3125208E-3,1.8469E4,6E0,6E0,6E0,-3.321E3,1.341044E4,-2.0382889E-2,-1.3838013E-2,1.19761E3,1E0,2.0372E4,-1.5403664E-3,7.667344E-3,5.8936863E-4,2.0997416E4,6.6140853E-3,-1.0290872E-1,-4.445919E-2,-3.4466833E-2,-2.7475022E-2,-9.895353E-3,-8.210643E-4,2.165873E-3,-1.2130414E-3,1.8739261E-3,4.0672915E-3,1.0201814E-2,1.4913702E-2],"split_indices":[23,23,23,37,37,23,23,31,0,23,0,23,9,9,9,37,23,0,0,37,9,23,0,0,0,31,0,0,0,0,0,0,0,0,0,0,0,0,0],"split_type":[0,0,0,0,0,0,0,0,0,0,0,0,0,0,0,0,0,0,0,0,0,0,0,0,0,0,0,0,0,0,0,0,0,0,0,0,0,0,0],"sum_hessian":[2.07956E5,2.1772E4,1.86184E5,8.847E3,1.2925E4,1.42635E5,4.3549E4,8.466E3,3.81E2,1.1891E4,1.034E3,7.6497E4,6.6138E4,2.3018E4,2.0531E4,7.65E2,7.701E3,7.451E3,4.44E3,1.1751E4,6.4746E4,6.034E4,5.798E3,2.0244E4,2.774E3,1.621E4,4.321E3,3.1E1,7.34E2,3.13E3,4.571E3,5.785E3,5.966E3,1.3223E4,5.1523E4,2.4717E4,3.5623E4,6.49E3,9.72E3],"tree_param":{"num_deleted":"0","num_feature":"50","num_nodes":"39","size_leaf_vector":"1"}},{"base_weights":[3.641972E-4,-6.50958E-2,8.713024E-3,-8.974324E-2,-4.511607E-2,3.4371489E-3,3.285963E-2,-9.509413E-2,-3.7171256E-3,-5.2300192E-2,-3.9799765E-4,-4.61184E-3,8.41747E-3,2.5539687E-2,4.281772E-2,-1.257903E-1,-2.104788E-2,-2.735072E-2,-1.2528442E-2,-5.5382354E-3,3.336509E-2,1.1155569E-3,1.34073915E-2,6.525976E-3,-3.9019606E-3,9.958949E-3,1.8360868E-2,-7.06842E-2,-2.9202295E-2,-3.726154E-3,-6.8272074E-4,3.870533E-2,6.776348E-3,-3.6803118E-4,3.9076805E-3],"categories":[],"categories_nodes":[],"categories_segments":[],"categories_sizes":[],"default_left":[0,0,0,0,0,0,0,0,0,0,0,0,0,0,0,0,0,0,0,0,0,0,0,0,0,0,0,0,0,0,0,0,0,0,0],"id":5,"left_children":[1,3,5,7,9,11,13,15,-1,17,-1,19,21,23,25,27,-1,-1,-1,29,31,-1,33,-1,-1,-1,-1,-1,-1,-1,-1,-1,-1,-1,-1],"loss_changes":[1.139642E2,1.1613174E1,2.3560474E1,4.213257E0,4.070837E0,6.084347E0,2.4166298E0,2.789978E0,0E0,7.922306E-1,0E0,2.0412354E0,1.809464E0,8.540325E-1,9.886856E-1,2.4548073E0,0E0,0E0,0E0,1.5064119E0,9.823489E-1,0E0,1.5446324E0,0E0,0E0,0E0,0E0,0E0,0E0,0E0,0E0,0E0,0E0,0E0,0E0],"parents":[2147483647,0,0,1,1,2,2,3,3,4,4,5,5,6,6,7,7,9,9,11,11,12,12,13,13,14,14,15,15,19,19,20,20,22,22],"right_children":[2,4,6,8,10,12,14,16,-1,18,-1,20,22,24,26,28,-1,-1,-1,30,32,-1,34,-1,-1,-1,-1,-1,-1,-1,-1,-1,-1,-1,-1],"split_conditions":[1.750615E4,1.504243E4,2.14E4,3.444E3,2.059E3,1.965876E4,2.1434E4,1.286939E4,-3.7171256E-3,-2.185E3,-3.9799765E-4,3.00727E3,2.0509E4,7.54E1,2.4667E4,-1.55493E3,-2.104788E-2,-2.735072E-2,-1.2528442E-2,1.865E4,1.6544059E4,1.1155569E-3,-1.333E3,6.525976E-3,-3.9019606E-3,9.958949E-3,1.8360868E-2,-7.06842E-2,-2.9202295E-2,-3.726154E-3,-6.8272074E-4,3.870533E-2,6.776348E-3,-3.6803118E-4,3.9076805E-3],"split_indices":[23,23,23,37,37,23,26,23,0,37,0,37,23,1,23,37,0,0,0,23,27,0,37,0,0,0,0,0,0,0,0,0,0,0,0],"split_type":[0,0,0,0,0,0,0,0,0,0,0,0,0,0,0,0,0,0,0,0,0,0,0,0,0,0,0,0,0,0,0,0,0,0,0],"sum_hessian":[2.08528E5,2.3587E4,1.84941E5,1.0559E4,1.3028E4,1.51779E5,3.3162E4,9.852E3,7.07E2,1.1181E4,1.847E3,5.8016E4,9.3763E4,1.9114E4,1.4048E4,2.279E3,7.573E3,2.21E2,1.096E4,5.6635E4,1.381E3,5.2823E4,4.094E4,1.863E4,4.84E2,1.3148E4,9E2,8.9E1,2.19E3,1.2563E4,4.4072E4,6E1,1.321E3,5.941E3,3.4999E4],"tree_param":{"num_deleted":"0","num_feature":"50","num_nodes":"35","size_leaf_vector":"1"}},{"base_weights":[-1.3540813E-4,-5.936165E-2,5.498141E-3,-2.3662629E-2,-5.1066853E-2,-2.4775585E-5,1.935476E-2,-6.037719E-2,-8.991344E-3,-1.164862E-2,2.9441337E-3,1.618636E-2,8.857494E-3,-1.6088326E-2,-9.671377E-3,-2.3372574E-2,4.7386973E-4,7.082809E-4,1.0924169E-2,1.8856693E-2,2.2630852E-4,-1.1742758E-2,-4.4610347E-3,1.5275057E-4,2.8371759E-2,2.1247845E-3,8.096057E-3,2.8992458E-3,5.470264E-3],"categories":[],"categories_nodes":[],"categories_segments":[],"categories_sizes":[],"default_left":[0,0,0,0,0,0,0,0,0,0,0,0,0,0,0,0,0,0,0,0,0,0,0,0,0,0,0,0,0],"id":6,"left_children":[1,3,5,-1,7,9,11,13,-1,15,17,19,-1,-1,-1,21,-1,23,25,27,-1,-1,-1,-1,-1,-1,-1,-1,-1],"loss_changes":[6.832173E1,5.477581E0,1.4309586E1,0E0,1.9472923E0,4.613876E0,2.8313332E0,9.669571E-1,0E0,4.3311105E0,1.9001098E0,1.8268356E0,0E0,0E0,0E0,1.8529663E0,0E0,8.1573236E-1,1.162705E0,9.265003E-1,0E0,0E0,0E0,0E0,0E0,0E0,0E0,0E0,0E0],"parents":[2147483647,0,0,1,1,2,2,4,4,5,5,6,6,7,7,9,9,10,10,11,11,15,15,17,17,18,18,19,19],"right_children":[2,4,6,-1,8,10,12,14,-1,16,18,20,-1,-1,-1,22,-1,24,26,28,-1,-1,-1,-1,-1,-1,-1,-1,-1],"split_conditions":[1.671394E4,1.322353E4,2.0843E4,-2.3662629E-2,1.55229E4,1.907423E4,2.2972E4,9.659258E-1,-8.991344E-3,7.0710677E-1,2.042944E4,6E0,8.857494E-3,-1.6088326E-2,-9.671377E-3,-7.0710677E-1,4.7386973E-4,2.266635E4,1.473E1,1.9015338E4,2.2630852E-4,-1.1742758E-2,-4.4610347E-3,1.5275057E-4,2.8371759E-2,2.1247845E-3,8.096057E-3,2.8992458E-3,5.470264E-3],"split_indices":[22,22,23,0,22,22,25,15,0,15,24,9,0,0,0,15,0,22,36,27,0,0,0,0,0,0,0,0,0],"split_type":[0,0,0,0,0,0,0,0,0,0,0,0,0,0,0,0,0,0,0,0,0,0,0,0,0,0,0,0,0],"sum_hessian":[2.04767E5,1.7785E4,1.86982E5,3.245E3,1.454E4,1.33695E5,5.3287E4,8.828E3,5.712E3,2.72E4,1.06495E5,4.4821E4,8.466E3,7.059E3,1.769E3,1.4598E4,1.2602E4,8.3188E4,2.3307E4,3.8147E4,6.674E3,2.544E3,1.2054E4,8.3127E4,6.1E1,2.1147E4,2.16E3,1.2568E4,2.5579E4],"tree_param":{"num_deleted":"0","num_feature":"50","num_nodes":"29","size_leaf_vector":"1"}},{"base_weights":[-1.453901E-4,-4.0808145E-2,3.8587367E-3,-5.9230883E-2,-7.8111487E-3,6.075713E-4,1.6858876E-2,-9.43151E-2,-1.3497983E-2,-8.261241E-3,3.567678E-3,1.3859059E-2,7.496301E-3,-2.06417E-1,-2.0207228E-2,-9.3582785E-3,-5.261467E-3,9.830992E-4,3.0669007E-3,3.8129853E-3,-9.185821E-4,-2.7986538E-2,-8.625768E-2,-3.5713592E-3,-2.63465E-4,-1.0908245E-3,8.577458E-4],"categories":[],"categories_nodes":[],"categories_segments":[],"categories_sizes":[],"default_left":[0,0,0,0,0,0,0,0,0,0,0,0,0,0,0,0,0,0,0,0,0,0,0,0,0,0,0],"id":7,"left_children":[1,3,5,7,-1,9,11,13,-1,15,17,19,-1,21,-1,-1,23,25,-1,-1,-1,-1,-1,-1,-1,-1,-1],"loss_changes":[3.3811153E1,3.0679646E0,7.9901195E0,8.8866234E-1,0E0,3.9701147E0,1.555831E0,8.51758E-1,0E0,3.3950865E0,2.62018E0,9.249053E-1,0E0,8.0166125E-1,0E0,0E0,1.3399475E0,1.2018603E0,0E0,0E0,0E0,0E0,0E0,0E0,0E0,0E0,0E0],"parents":[2147483647,0,0,1,1,2,2,3,3,5,5,6,6,7,7,9,9,10,10,11,11,13,13,16,16,17,17],"right_children":[2,4,6,8,-1,10,12,14,-1,16,18,20,-1,22,-1,-1,24,26,-1,-1,-1,-1,-1,-1,-1,-1,-1],"split_conditions":[1.896692E4,1.428498E4,2.116309E4,1.2355496E4,-7.8111487E-3,2.066E2,2.3273E4,1.4E2,-1.3497983E-2,1.659906E4,1.8793836E4,1.6E-1,7.496301E-3,2E-2,-2.0207228E-2,-9.3582785E-3,2.192235E4,-8.660254E-1,3.0669007E-3,3.8129853E-3,-9.185821E-4,-2.7986538E-2,-8.625768E-2,-3.5713592E-3,-2.63465E-4,-1.0908245E-3,8.577458E-4],"split_indices":[32,25,25,27,0,2,25,10,0,25,27,3,0,3,0,0,32,16,0,0,0,0,0,0,0,0,0],"split_type":[0,0,0,0,0,0,0,0,0,0,0,0,0,0,0,0,0,0,0,0,0,0,0,0,0,0,0],"sum_hessian":[2.0766E5,1.8615E4,1.89045E5,6.085E3,1.253E4,1.51226E5,3.7819E4,6.46E2,5.439E3,3.7843E4,1.13383E5,3.1033E4,6.786E3,6.1E1,5.85E2,3.449E3,3.4394E4,8.7958E4,2.5425E4,2.8311E4,2.722E3,3.8E1,2.3E1,1.0673E4,2.3721E4,2.7838E4,6.012E4],"tree_param":{"num_deleted":"0","num_feature":"50","num_nodes":"27","size_leaf_vector":"1"}},{"base_weights":[-1.5656196E-4,-3.2840613E-2,3.105732E-3,-2.117347E-2,-4.212396E-2,5.6272483E-4,1.458454E-2,-6.1997217E-3,3.8507616E-3,-2.5409434E-2,-4.001639E-2,-4.402109E-3,3.3628026E-3,-1.2555305E-2,1.5179131E-2,-1.1965285E-2,-7.631278E-3,-8.660102E-3,3.1908483E-3,1.2907768E-3,-5.857279E-4,3.1980812E-3,6.813191E-3,4.0084696E-3,-2.3426078E-3,4.5969296E-4,8.536266E-3],"categories":[],"categories_nodes":[],"categories_segments":[],"categories_sizes":[],"default_left":[0,0,0,0,0,0,0,0,0,0,0,0,0,0,0,0,0,0,0,0,0,0,0,0,0,0,0],"id":8,"left_children":[1,3,5,7,9,11,13,-1,-1,-1,15,17,19,-1,21,-1,-1,23,25,-1,-1,-1,-1,-1,-1,-1,-1],"loss_changes":[2.1909748E1,2.0192795E0,5.4538555E0,1.2538698E0,1.3436832E0,2.1263306E0,1.3260527E0,0E0,0E0,0E0,7.834568E-1,1.7832406E0,1.069791E0,0E0,9.0395355E-1,0E0,0E0,7.907107E-1,8.247056E-1,0E0,0E0,0E0,0E0,0E0,0E0,0E0,0E0],"parents":[2147483647,0,0,1,1,2,2,3,3,4,4,5,5,6,6,10,10,11,11,12,12,14,14,17,17,18,18],"right_children":[2,4,6,8,10,12,14,-1,-1,-1,16,18,20,-1,22,-1,-1,24,26,-1,-1,-1,-1,-1,-1,-1,-1],"split_conditions":[1.663698E4,2.5881904E-1,2.1346E4,1.996751E4,1.20725E4,1.9559E4,-9.975591E-1,-6.1997217E-3,3.8507616E-3,-2.5409434E-2,1.53865E4,1.9461E4,5E0,-1.2555305E-2,2.3209E4,-1.1965285E-2,-7.631278E-3,1.504307E4,2.1701E4,1.2907768E-3,-5.857279E-4,3.1980812E-3,6.813191E-3,4.0084696E-3,-2.3426078E-3,4.5969296E-4,8.536266E-3],"split_indices":[23,16,23,32,31,23,19,0,0,0,31,25,9,0,24,0,0,25,25,0,0,0,0,0,0,0,0],"split_type":[0,0,0,0,0,0,0,0,0,0,0,0,0,0,0,0,0,0,0,0,0,0,0,0,0,0,0],"sum_hessian":[2.05483E5,1.8648E4,1.86835E5,8.264E3,1.0384E4,1.52951E5,3.3884E4,7.435E3,8.29E2,3.43E2,1.0041E4,5.5155E4,9.7796E4,3.03E2,3.3581E4,5.049E3,4.992E3,3.5338E4,1.9817E4,7.3495E4,2.4301E4,2.8719E4,4.862E3,1.22E3,3.4118E4,1.9026E4,7.91E2],"tree_param":{"num_deleted":"0","num_feature":"50","num_nodes":"27","size_leaf_vector":"1"}},{"base_weights":[-9.860561E-5,-3.091222E-2,2.1022088E-3,-1.1676487E-2,-6.345047E-3,-1.2047705E-3,9.374167E-3,-4.054562E-3,5.101286E-3,1.4422647E-2,2.0798047E-3,-1.2231692E-2,-8.895682E-4,-2.8879917E-3,7.18904E-3,6.451468E-3,9.536142E-3,3.8420923E-5,5.5728704E-3,-6.3844514E-3,-2.3382644E-3,-4.780441E-4,3.4812067E-3,5.3513027E-4,3.7192057E-3,1.0337441E-3,4.509108E-3],"categories":[],"categories_nodes":[],"categories_segments":[],"categories_sizes":[],"default_left":[0,0,0,0,0,0,0,0,0,0,0,0,0,0,0,0,0,0,0,0,0,0,0,0,0,0,0],"id":9,"left_children":[1,3,5,-1,-1,7,9,11,13,15,17,19,21,-1,23,-1,25,-1,-1,-1,-1,-1,-1,-1,-1,-1,-1],"loss_changes":[1.4017928E1,1.1582623E0,4.639596E0,0E0,0E0,2.383313E0,2.22091E0,2.363966E0,1.4547981E0,2.070747E0,9.796368E-1,9.482653E-1,1.0534492E0,0E0,1.4676695E0,0E0,1.1899502E0,0E0,0E0,0E0,0E0,0E0,0E0,0E0,0E0,0E0,0E0],"parents":[2147483647,0,0,1,1,2,2,5,5,6,6,7,7,8,8,9,9,10,10,11,11,12,12,14,14,16,16],"right_children":[2,4,6,-1,-1,8,10,12,14,16,18,20,22,-1,24,-1,26,-1,-1,-1,-1,-1,-1,-1,-1,-1,-1],"split_conditions":[1.583984E4,1.322353E4,2.081123E4,-1.1676487E-2,-6.345047E-3,9.2864275E0,-5E-1,1.944541E4,7E0,-1.556E1,2.401E4,-7.0710677E-1,2.2E1,-2.8879917E-3,1.942034E4,6.451468E-3,7.3297553E0,3.8420923E-5,5.5728704E-3,-6.3844514E-3,-2.3382644E-3,-4.780441E-4,3.4812067E-3,5.3513027E-4,3.7192057E-3,1.0337441E-3,4.509108E-3],"split_indices":[22,22,22,0,0,36,16,22,8,36,22,15,8,0,22,0,36,0,0,0,0,0,0,0,0,0,0],"split_type":[0,0,0,0,0,0,0,0,0,0,0,0,0,0,0,0,0,0,0,0,0,0,0,0,0,0,0],"sum_hessian":[2.06707E5,1.3779E4,1.92928E5,3.188E3,1.0591E4,1.32619E5,6.0309E4,9.1341E4,4.1278E4,3.5641E4,2.4668E4,2.5488E4,6.5853E4,4.543E3,3.6735E4,1.038E4,2.5261E4,2.2567E4,2.101E3,4.161E3,2.1327E4,6.153E4,4.323E3,2.2574E4,1.4161E4,1.5781E4,9.48E3],"tree_param":{"num_deleted":"0","num_feature":"50","num_nodes":"27","size_leaf_vector":"1"}},{"base_weights":[1.390603E-5,-1.39569845E-2,2.9844127E-3,-2.7115928E-2,-9.147973E-3,1.9357482E-3,3.5924737E-3,-2.024271E-2,-6.2036025E-3,-1.5366061E-2,-5.1525777E-4,-4.7130133E-3,3.9090505E-3,-3.8965554E-3,2.5654888E-2,-3.7690743E-3,-5.2018365E-4,2.9354894E-3,3.8017954E-3,-1.0617229E-3,1.448781E-3],"categories":[],"categories_nodes":[],"categories_segments":[],"categories_sizes":[],"default_left":[0,0,0,0,0,0,0,0,0,0,0,0,0,0,0,0,0,0,0,0,0],"id":10,"left_children":[1,3,5,7,9,11,-1,-1,-1,13,-1,15,17,-1,-1,-1,-1,19,-1,-1,-1],"loss_changes":[8.569141E0,2.290928E0,2.0834718E0,9.7308064E-1,1.1617682E0,2.0498385E0,0E0,0E0,0E0,8.9118505E-1,0E0,9.877209E-1,1.3602484E0,0E0,0E0,0E0,0E0,2.401477E0,0E0,0E0,0E0],"parents":[2147483647,0,0,1,1,2,2,3,3,4,4,5,5,9,9,11,11,12,12,17,17],"right_children":[2,4,6,8,10,12,-1,-1,-1,14,-1,16,18,-1,-1,-1,-1,20,-1,-1,-1],"split_conditions":[1.8672E4,1.499156E4,2.2522E4,-2.664E3,7.0710677E-1,-7.0710677E-1,3.5924737E-3,-2.024271E-2,-6.2036025E-3,2.4006E4,-5.1525777E-4,1.4296E2,7.0710677E-1,-3.8965554E-3,2.5654888E-2,-3.7690743E-3,-5.2018365E-4,1.974347E4,3.8017954E-3,-1.0617229E-3,1.448781E-3],"split_indices":[22,22,22,37,15,15,0,0,0,25,0,37,15,0,0,0,0,22,0,0,0],"split_type":[0,0,0,0,0,0,0,0,0,0,0,0,0,0,0,0,0,0,0,0,0],"sum_hessian":[2.06481E5,3.6204E4,1.70277E5,9.689E3,2.6515E4,1.56236E5,1.4041E4,3.06E2,9.383E3,1.4085E4,1.243E4,3.5757E4,1.20479E5,1.4024E4,6.1E1,6.992E3,2.8765E4,1.11149E5,9.33E3,3.2278E4,7.8871E4],"tree_param":{"num_deleted":"0","num_feature":"50","num_nodes":"21","size_leaf_vector":"1"}},{"base_weights":[2.2358773E-4,-1.8609306E-2,1.4816296E-3,-5.6052865E-3,-6.0140697E-4,-3.0839583E-4,6.838268E-3,-1.7391982E-3,1.3000065E-3,-4.566735E-3,1.913774E-3,-7.8117144E-3,-1.06561216E-4,-2.8336355E-3,3.048053E-4,9.79781E-4,-1.0980682E-3],"categories":[],"categories_nodes":[],"categories_segments":[],"categories_sizes":[],"default_left":[0,0,0,0,0,0,0,0,0,0,0,0,0,0,0,0,0],"id":11,"left_children":[1,3,5,-1,-1,7,9,11,-1,-1,-1,13,15,-1,-1,-1,-1],"loss_changes":[4.889917E0,8.8792086E-1,1.8550597E0,0E0,0E0,1.1641071E0,1.1937342E0,1.1455336E0,0E0,0E0,0E0,8.303821E-1,1.6334455E0,0E0,0E0,0E0,0E0],"parents":[2147483647,0,0,1,1,2,2,5,5,6,6,7,7,11,11,12,12],"right_children":[2,4,6,-1,-1,8,10,12,-1,-1,-1,14,16,-1,-1,-1,-1],"split_conditions":[1.567703E4,9.659258E-1,2.0573E4,-5.6052865E-3,-6.0140697E-4,2.0873E4,-9.890132E-1,-8.660254E-1,1.3000065E-3,-4.566735E-3,1.913774E-3,7.583398E0,-5E-1,-2.8336355E-3,3.048053E-4,9.79781E-4,-1.0980682E-3],"split_indices":[22,15,26,0,0,22,20,16,0,0,0,36,16,0,0,0,0],"split_type":[0,0,0,0,0,0,0,0,0,0,0,0,0,0,0,0,0],"sum_hessian":[2.06389E5,1.2923E4,1.93466E5,1.023E4,2.693E3,1.45009E5,4.8457E4,1.15544E5,2.9465E4,1.773E3,4.6684E4,2.4482E4,9.1062E4,1.7318E4,7.164E3,4.6978E4,4.4084E4],"tree_param":{"num_deleted":"0","num_feature":"50","num_nodes":"17","size_leaf_vector":"1"}},{"base_weights":[-6.0225113E-5,-9.503693E-3,1.167784E-3,-4.5541217E-4,-3.5831875E-3,1.8994075E-3,-1.5789447E-3,4.2695025E-4,1.4749098E-3,-1.3465454E-3,9.96778E-4,-1.2606658E-3,3.6697413E-4],"categories":[],"categories_nodes":[],"categories_segments":[],"categories_sizes":[],"default_left":[0,0,0,0,0,0,0,0,0,0,0,0,0],"id":12,"left_children":[1,3,5,-1,-1,7,-1,9,-1,11,-1,-1,-1],"loss_changes":[2.3795798E0,9.227371E-1,1.0106972E0,0E0,0E0,1.0040143E0,0E0,7.8732055E-1,0E0,8.851725E-1,0E0,0E0,0E0],"parents":[2147483647,0,0,1,1,2,2,5,5,7,7,9,9],"right_children":[2,4,6,-1,-1,8,-1,10,-1,12,-1,-1,-1],"split_conditions":[1.750615E4,-1.8369701E-16,1E0,-4.5541217E-4,-3.5831875E-3,3.72E1,-1.5789447E-3,7.7956295E0,1.4749098E-3,1.9937834E4,9.96778E-4,-1.2606658E-3,3.6697413E-4],"split_indices":[23,16,13,0,0,7,0,36,0,31,0,0,0],"split_type":[0,0,0,0,0,0,0,0,0,0,0,0,0],"sum_hessian":[2.05194E5,2.3612E4,1.81582E5,9.46E3,1.4152E4,1.65652E5,1.593E4,1.22008E5,4.3644E4,8.2027E4,3.9981E4,3.5132E4,4.6895E4],"tree_param":{"num_deleted":"0","num_feature":"50","num_nodes":"13","size_leaf_vector":"1"}},{"base_weights":[1.1533304E-4,-1.0054926E-2,8.9601916E-4,-3.4345675E-3,1.4807851E-3,-3.3089572E-3,2.3240175E-3,-5.3420146E-3,-5.301619E-4,-2.8839945E-3,4.968228E-3,-6.5702274E-3,6.4552284E-4,3.1080723E-3,2.5449677E-3,-4.8869797E-3,-1.0995575E-3,6.765228E-5,2.3684658E-3],"categories":[],"categories_nodes":[],"categories_segments":[],"categories_sizes":[],"default_left":[0,0,0,0,0,0,0,0,0,0,0,0,0,0,0,0,0,0,0],"id":13,"left_children":[1,3,5,-1,-1,7,9,-1,-1,11,13,15,-1,17,-1,-1,-1,-1,-1],"loss_changes":[1.6362642E0,9.3486786E-1,1.14926E0,0E0,0E0,1.0280309E0,1.9675331E0,0E0,0E0,9.784491E-1,9.539249E-1,8.0366814E-1,0E0,1.3086431E0,0E0,0E0,0E0,0E0,0E0],"parents":[2147483647,0,0,1,1,2,2,5,5,6,6,9,9,10,10,11,11,13,13],"right_children":[2,4,6,-1,-1,8,10,-1,-1,12,14,16,-1,18,-1,-1,-1,-1,-1],"split_conditions":[5E0,2.998E1,-7.0710677E-1,-3.4345675E-3,1.4807851E-3,-3.8052E2,-8.660254E-1,-5.3420146E-3,-5.301619E-4,6.1805987E0,1.508E1,1.8225951E4,6.4552284E-4,2.2023E4,2.5449677E-3,-4.8869797E-3,-1.0995575E-3,6.765228E-5,2.3684658E-3],"split_indices":[8,0,15,0,0,37,16,0,0,36,37,31,0,32,0,0,0,0,0],"split_type":[0,0,0,0,0,0,0,0,0,0,0,0,0,0,0,0,0,0,0],"sum_hessian":[2.06083E5,1.4691E4,1.91392E5,1.1794E4,2.897E3,4.8519E4,1.42873E5,2.834E3,4.5685E4,4.8112E4,9.4761E4,2.8841E4,1.9271E4,7.0522E4,2.4239E4,3.893E3,2.4948E4,4.9239E4,2.1283E4],"tree_param":{"num_deleted":"0","num_feature":"50","num_nodes":"19","size_leaf_vector":"1"}},{"base_weights":[6.8082896E-5,-5.9124446E-3,1.2175544E-3,-9.594087E-3,-1.2590496E-3,-7.8285106E-5,4.291281E-3,5.499006E-4,2.6812572E-3],"categories":[],"categories_nodes":[],"categories_segments":[],"categories_sizes":[],"default_left":[0,0,0,0,0,0,0,0,0],"id":14,"left_children":[1,3,5,-1,-1,-1,7,-1,-1],"loss_changes":[1.43375E0,8.679763E-1,8.263868E-1,0E0,0E0,0E0,7.9368055E-1,0E0,0E0],"parents":[2147483647,0,0,1,1,2,2,6,6],"right_children":[2,4,6,-1,-1,-1,8,-1,-1],"split_conditions":[1.980603E4,-1.821E3,2.232236E4,-9.594087E-3,-1.2590496E-3,-7.8285106E-5,2.0363166E4,5.499006E-4,2.6812572E-3],"split_indices":[32,37,47,0,0,0,31,0,0],"split_type":[0,0,0,0,0,0,0,0,0],"sum_hessian":[2.08561E5,3.3623E4,1.74938E5,7.68E2,3.2855E4,1.16626E5,5.8312E4,4.4572E4,1.374E4],"tree_param":{"num_deleted":"0","num_feature":"50","num_nodes":"9","size_leaf_vector":"1"}},{"base_weights":[-2.8093154E-5,-4.4313027E-3,4.9054343E-4,-1.855683E-3,1.322345E-3,-5.010093E-4,3.1779187E-3],"categories":[],"categories_nodes":[],"categories_segments":[],"categories_sizes":[],"default_left":[0,0,0,0,0,0,0],"id":15,"left_children":[1,3,-1,-1,5,-1,-1],"loss_changes":[1.8732996E0,1.1939876E0,0E0,0E0,9.1439164E-1,0E0,0E0],"parents":[2147483647,0,0,1,1,4,4],"right_children":[2,4,-1,-1,6,-1,-1],"split_conditions":[1.948E4,7.0710677E-1,4.9054343E-4,-1.855683E-3,3.18E2,-5.010093E-4,3.1779187E-3],"split_indices":[22,15,0,0,10,0,0],"split_type":[0,0,0,0,0,0,0],"sum_hessian":[2.09694E5,6.6143E4,1.43551E5,4.2803E4,2.334E4,1.8105E4,5.235E3],"tree_param":{"num_deleted":"0","num_feature":"50","num_nodes":"7","size_leaf_vector":"1"}},{"base_weights":[-5.3178268E-5,1.2973038E-3,-3.2366533E-3,-6.940515E-4,3.3364117E-3,-1.2224604E-3,1.4034112E-3,5.243421E-4,2.9649544E-3],"categories":[],"categories_nodes":[],"categories_segments":[],"categories_sizes":[],"default_left":[0,0,0,0,0,0,0,0,0],"id":16,"left_children":[1,3,5,-1,7,-1,-1,-1,-1],"loss_changes":[8.9466995E-1,1.2299534E0,9.716383E-1,0E0,1.0258263E0,0E0,0E0,0E0,0E0],"parents":[2147483647,0,0,1,1,2,2,4,4],"right_children":[2,4,6,-1,8,-1,-1,-1,-1],"split_conditions":[-2.5881904E-1,-8.660254E-1,2.2E1,-6.940515E-4,8.6331E2,-1.2224604E-3,1.4034112E-3,5.243421E-4,2.9649544E-3],"split_indices":[16,16,8,0,37,0,0,0,0],"split_type":[0,0,0,0,0,0,0,0,0],"sum_hessian":[2.08099E5,1.46115E5,6.1984E4,4.8311E4,9.7804E4,5.186E4,1.0124E4,8.6036E4,1.1768E4],"tree_param":{"num_deleted":"0","num_feature":"50","num_nodes":"9","size_leaf_vector":"1"}},{"base_weights":[1.194018E-4,-2.6294277E-3,5.913014E-4,-3.6755556E-4,-3.0082178E-3],"categories":[],"categories_nodes":[],"categories_segments":[],"categories_sizes":[],"default_left":[0,0,0,0,0],"id":17,"left_children":[1,3,-1,-1,-1],"loss_changes":[1.3013684E0,1.0232708E0,0E0,0E0,0E0],"parents":[2147483647,0,0,1,1],"right_children":[2,4,-1,-1,-1],"split_conditions":[1.9992E4,6E0,5.913014E-4,-3.6755556E-4,-3.0082178E-3],"split_indices":[22,9,0,0,0],"split_type":[0,0,0,0,0],"sum_hessian":[2.06527E5,9.3912E4,1.12615E5,8.4057E4,9.855E3],"tree_param":{"num_deleted":"0","num_feature":"50","num_nodes":"5","size_leaf_vector":"1"}},{"base_weights":[2.3082364E-5,-3.0980222E-3,9.3502436E-5],"categories":[],"categories_nodes":[],"categories_segments":[],"categories_sizes":[],"default_left":[0,0,0],"id":18,"left_children":[1,-1,-1],"loss_changes":[9.3919086E-1,0E0,0E0],"parents":[2147483647,0,0],"right_children":[2,-1,-1],"split_conditions":[1.395242E4,-3.0980222E-3,9.3502436E-5],"split_indices":[22,0,0],"split_type":[0,0,0],"sum_hessian":[2.07078E5,5.699E3,2.01379E5],"tree_param":{"num_deleted":"0","num_feature":"50","num_nodes":"3","size_leaf_vector":"1"}},{"base_weights":[-2.1269005E-4],"categories":[],"categories_nodes":[],"categories_segments":[],"categories_sizes":[],"default_left":[0],"id":19,"left_children":[-1],"loss_changes":[0E0],"parents":[2147483647],"right_children":[-1],"split_conditions":[-5.2147203E-5],"split_indices":[0],"split_type":[0],"sum_hessian":[2.08323E5],"tree_param":{"num_deleted":"0","num_feature":"50","num_nodes":"1","size_leaf_vector":"1"}},{"base_weights":[2.0590698E-4],"categories":[],"categories_nodes":[],"categories_segments":[],"categories_sizes":[],"default_left":[0],"id":20,"left_children":[-1],"loss_changes":[0E0],"parents":[2147483647],"right_children":[-1],"split_conditions":[5.0484134E-5],"split_indices":[0],"split_type":[0],"sum_hessian":[2.07448E5],"tree_param":{"num_deleted":"0","num_feature":"50","num_nodes":"1","size_leaf_vector":"1"}},{"base_weights":[-1.1226789E-4],"categories":[],"categories_nodes":[],"categories_segments":[],"categories_sizes":[],"default_left":[0],"id":21,"left_children":[-1],"loss_changes":[0E0],"parents":[2147483647],"right_children":[-1],"split_conditions":[-2.7525764E-5],"split_indices":[0],"split_type":[0],"sum_hessian":[2.06413E5],"tree_param":{"num_deleted":"0","num_feature":"50","num_nodes":"1","size_leaf_vector":"1"}},{"base_weights":[9.636996E-5],"categories":[],"categories_nodes":[],"categories_segments":[],"categories_sizes":[],"default_left":[0],"id":22,"left_children":[-1],"loss_changes":[0E0],"parents":[2147483647],"right_children":[-1],"split_conditions":[2.3627921E-5],"split_indices":[0],"split_type":[0],"sum_hessian":[2.07154E5],"tree_param":{"num_deleted":"0","num_feature":"50","num_nodes":"1","size_leaf_vector":"1"}},{"base_weights":[-6.0650953E-5],"categories":[],"categories_nodes":[],"categories_segments":[],"categories_sizes":[],"default_left":[0],"id":23,"left_children":[-1],"loss_changes":[0E0],"parents":[2147483647],"right_children":[-1],"split_conditions":[-1.4870359E-5],"split_indices":[0],"split_type":[0],"sum_hessian":[2.07333E5],"tree_param":{"num_deleted":"0","num_feature":"50","num_nodes":"1","size_leaf_vector":"1"}},{"base_weights":[1.1835816E-5],"categories":[],"categories_nodes":[],"categories_segments":[],"categories_sizes":[],"default_left":[0],"id":24,"left_children":[-1],"loss_changes":[0E0],"parents":[2147483647],"right_children":[-1],"split_conditions":[2.9018972E-6],"split_indices":[0],"split_type":[0],"sum_hessian":[2.08805E5],"tree_param":{"num_deleted":"0","num_feature":"50","num_nodes":"1","size_leaf_vector":"1"}},{"base_weights":[-2.6523734E-5],"categories":[],"categories_nodes":[],"categories_segments":[],"categories_sizes":[],"default_left":[0],"id":25,"left_children":[-1],"loss_changes":[0E0],"parents":[2147483647],"right_children":[-1],"split_conditions":[-6.5030713E-6],"split_indices":[0],"split_type":[0],"sum_hessian":[2.06685E5],"tree_param":{"num_deleted":"0","num_feature":"50","num_nodes":"1","size_leaf_vector":"1"}},{"base_weights":[-3.120395E-5],"categories":[],"categories_nodes":[],"categories_segments":[],"categories_sizes":[],"default_left":[0],"id":26,"left_children":[-1],"loss_changes":[0E0],"parents":[2147483647],"right_children":[-1],"split_conditions":[-7.650563E-6],"split_indices":[0],"split_type":[0],"sum_hessian":[2.06018E5],"tree_param":{"num_deleted":"0","num_feature":"50","num_nodes":"1","size_leaf_vector":"1"}},{"base_weights":[-1.4297153E-4],"categories":[],"categories_nodes":[],"categories_segments":[],"categories_sizes":[],"default_left":[0],"id":27,"left_children":[-1],"loss_changes":[0E0],"parents":[2147483647],"right_children":[-1],"split_conditions":[-3.5053665E-5],"split_indices":[0],"split_type":[0],"sum_hessian":[2.06938E5],"tree_param":{"num_deleted":"0","num_feature":"50","num_nodes":"1","size_leaf_vector":"1"}},{"base_weights":[1.7216487E-4],"categories":[],"categories_nodes":[],"categories_segments":[],"categories_sizes":[],"default_left":[0],"id":28,"left_children":[-1],"loss_changes":[0E0],"parents":[2147483647],"right_children":[-1],"split_conditions":[4.2211268E-5],"split_indices":[0],"split_type":[0],"sum_hessian":[2.06616E5],"tree_param":{"num_deleted":"0","num_feature":"50","num_nodes":"1","size_leaf_vector":"1"}},{"base_weights":[7.03725E-5],"categories":[],"categories_nodes":[],"categories_segments":[],"categories_sizes":[],"default_left":[0],"id":29,"left_children":[-1],"loss_changes":[0E0],"parents":[2147483647],"right_children":[-1],"split_conditions":[1.7253882E-5],"split_indices":[0],"split_type":[0],"sum_hessian":[2.07007E5],"tree_param":{"num_deleted":"0","num_feature":"50","num_nodes":"1","size_leaf_vector":"1"}},{"base_weights":[-1.19036E-4],"categories":[],"categories_nodes":[],"categories_segments":[],"categories_sizes":[],"default_left":[0],"id":30,"left_children":[-1],"loss_changes":[0E0],"parents":[2147483647],"right_children":[-1],"split_conditions":[-2.9185167E-5],"split_indices":[0],"split_type":[0],"sum_hessian":[2.05876E5],"tree_param":{"num_deleted":"0","num_feature":"50","num_nodes":"1","size_leaf_vector":"1"}},{"base_weights":[2.0946583E-4],"categories":[],"categories_nodes":[],"categories_segments":[],"categories_sizes":[],"default_left":[0],"id":31,"left_children":[-1],"loss_changes":[0E0],"parents":[2147483647],"right_children":[-1],"split_conditions":[5.135669E-5],"split_indices":[0],"split_type":[0],"sum_hessian":[2.07839E5],"tree_param":{"num_deleted":"0","num_feature":"50","num_nodes":"1","size_leaf_vector":"1"}},{"base_weights":[-1.2886521E-4],"categories":[],"categories_nodes":[],"categories_segments":[],"categories_sizes":[],"default_left":[0],"id":32,"left_children":[-1],"loss_changes":[0E0],"parents":[2147483647],"right_children":[-1],"split_conditions":[-3.1595086E-5],"split_indices":[0],"split_type":[0],"sum_hessian":[2.05146E5],"tree_param":{"num_deleted":"0","num_feature":"50","num_nodes":"1","size_leaf_vector":"1"}},{"base_weights":[9.8378354E-5],"categories":[],"categories_nodes":[],"categories_segments":[],"categories_sizes":[],"default_left":[0],"id":33,"left_children":[-1],"loss_changes":[0E0],"parents":[2147483647],"right_children":[-1],"split_conditions":[2.4120338E-5],"split_indices":[0],"split_type":[0],"sum_hessian":[2.07378E5],"tree_param":{"num_deleted":"0","num_feature":"50","num_nodes":"1","size_leaf_vector":"1"}},{"base_weights":[-5.9117985E-5],"categories":[],"categories_nodes":[],"categories_segments":[],"categories_sizes":[],"default_left":[0],"id":34,"left_children":[-1],"loss_changes":[0E0],"parents":[2147483647],"right_children":[-1],"split_conditions":[-1.4494508E-5],"split_indices":[0],"split_type":[0],"sum_hessian":[2.07192E5],"tree_param":{"num_deleted":"0","num_feature":"50","num_nodes":"1","size_leaf_vector":"1"}},{"base_weights":[6.110507E-5],"categories":[],"categories_nodes":[],"categories_segments":[],"categories_sizes":[],"default_left":[0],"id":35,"left_children":[-1],"loss_changes":[0E0],"parents":[2147483647],"right_children":[-1],"split_conditions":[1.49817E-5],"split_indices":[0],"split_type":[0],"sum_hessian":[2.0869E5],"tree_param":{"num_deleted":"0","num_feature":"50","num_nodes":"1","size_leaf_vector":"1"}},{"base_weights":[-1.3650811E-4],"categories":[],"categories_nodes":[],"categories_segments":[],"categories_sizes":[],"default_left":[0],"id":36,"left_children":[-1],"loss_changes":[0E0],"parents":[2147483647],"right_children":[-1],"split_conditions":[-3.346897E-5],"split_indices":[0],"split_type":[0],"sum_hessian":[2.11004E5],"tree_param":{"num_deleted":"0","num_feature":"50","num_nodes":"1","size_leaf_vector":"1"}},{"base_weights":[-1.6114509E-5],"categories":[],"categories_nodes":[],"categories_segments":[],"categories_sizes":[],"default_left":[0],"id":37,"left_children":[-1],"loss_changes":[0E0],"parents":[2147483647],"right_children":[-1],"split_conditions":[-3.9509446E-6],"split_indices":[0],"split_type":[0],"sum_hessian":[2.07313E5],"tree_param":{"num_deleted":"0","num_feature":"50","num_nodes":"1","size_leaf_vector":"1"}},{"base_weights":[-7.4555115E-5],"categories":[],"categories_nodes":[],"categories_segments":[],"categories_sizes":[],"default_left":[0],"id":38,"left_children":[-1],"loss_changes":[0E0],"parents":[2147483647],"right_children":[-1],"split_conditions":[-1.8279372E-5],"split_indices":[0],"split_type":[0],"sum_hessian":[2.06406E5],"tree_param":{"num_deleted":"0","num_feature":"50","num_nodes":"1","size_leaf_vector":"1"}},{"base_weights":[1.04530234E-4],"categories":[],"categories_nodes":[],"categories_segments":[],"categories_sizes":[],"default_left":[0],"id":39,"left_children":[-1],"loss_changes":[0E0],"parents":[2147483647],"right_children":[-1],"split_conditions":[2.5628653E-5],"split_indices":[0],"split_type":[0],"sum_hessian":[2.08015E5],"tree_param":{"num_deleted":"0","num_feature":"50","num_nodes":"1","size_leaf_vector":"1"}},{"base_weights":[-7.0066315E-5],"categories":[],"categories_nodes":[],"categories_segments":[],"categories_sizes":[],"default_left":[0],"id":40,"left_children":[-1],"loss_changes":[0E0],"parents":[2147483647],"right_children":[-1],"split_conditions":[-1.7178812E-5],"split_indices":[0],"split_type":[0],"sum_hessian":[2.07745E5],"tree_param":{"num_deleted":"0","num_feature":"50","num_nodes":"1","size_leaf_vector":"1"}},{"base_weights":[6.1662635E-5],"categories":[],"categories_nodes":[],"categories_segments":[],"categories_sizes":[],"default_left":[0],"id":41,"left_children":[-1],"loss_changes":[0E0],"parents":[2147483647],"right_children":[-1],"split_conditions":[1.5118403E-5],"split_indices":[0],"split_type":[0],"sum_hessian":[2.08276E5],"tree_param":{"num_deleted":"0","num_feature":"50","num_nodes":"1","size_leaf_vector":"1"}},{"base_weights":[8.832995E-5],"categories":[],"categories_nodes":[],"categories_segments":[],"categories_sizes":[],"default_left":[0],"id":42,"left_children":[-1],"loss_changes":[0E0],"parents":[2147483647],"right_children":[-1],"split_conditions":[2.1656679E-5],"split_indices":[0],"split_type":[0],"sum_hessian":[2.10136E5],"tree_param":{"num_deleted":"0","num_feature":"50","num_nodes":"1","size_leaf_vector":"1"}},{"base_weights":[-8.286016E-6],"categories":[],"categories_nodes":[],"categories_segments":[],"categories_sizes":[],"default_left":[0],"id":43,"left_children":[-1],"loss_changes":[0E0],"parents":[2147483647],"right_children":[-1],"split_conditions":[-2.03156E-6],"split_indices":[0],"split_type":[0],"sum_hessian":[2.08312E5],"tree_param":{"num_deleted":"0","num_feature":"50","num_nodes":"1","size_leaf_vector":"1"}},{"base_weights":[-5.7708083E-5],"categories":[],"categories_nodes":[],"categories_segments":[],"categories_sizes":[],"default_left":[0],"id":44,"left_children":[-1],"loss_changes":[0E0],"parents":[2147483647],"right_children":[-1],"split_conditions":[-1.4148829E-5],"split_indices":[0],"split_type":[0],"sum_hessian":[2.07945E5],"tree_param":{"num_deleted":"0","num_feature":"50","num_nodes":"1","size_leaf_vector":"1"}},{"base_weights":[3.7387803E-5],"categories":[],"categories_nodes":[],"categories_segments":[],"categories_sizes":[],"default_left":[0],"id":45,"left_children":[-1],"loss_changes":[0E0],"parents":[2147483647],"right_children":[-1],"split_conditions":[9.166716E-6],"split_indices":[0],"split_type":[0],"sum_hessian":[2.06725E5],"tree_param":{"num_deleted":"0","num_feature":"50","num_nodes":"1","size_leaf_vector":"1"}},{"base_weights":[-8.115326E-5],"categories":[],"categories_nodes":[],"categories_segments":[],"categories_sizes":[],"default_left":[0],"id":46,"left_children":[-1],"loss_changes":[0E0],"parents":[2147483647],"right_children":[-1],"split_conditions":[-1.9897101E-5],"split_indices":[0],"split_type":[0],"sum_hessian":[2.0976E5],"tree_param":{"num_deleted":"0","num_feature":"50","num_nodes":"1","size_leaf_vector":"1"}},{"base_weights":[-3.753429E-5],"categories":[],"categories_nodes":[],"categories_segments":[],"categories_sizes":[],"default_left":[0],"id":47,"left_children":[-1],"loss_changes":[0E0],"parents":[2147483647],"right_children":[-1],"split_conditions":[-9.202632E-6],"split_indices":[0],"split_type":[0],"sum_hessian":[2.07543E5],"tree_param":{"num_deleted":"0","num_feature":"50","num_nodes":"1","size_leaf_vector":"1"}},{"base_weights":[3.057841E-5],"categories":[],"categories_nodes":[],"categories_segments":[],"categories_sizes":[],"default_left":[0],"id":48,"left_children":[-1],"loss_changes":[0E0],"parents":[2147483647],"right_children":[-1],"split_conditions":[7.4971936E-6],"split_indices":[0],"split_type":[0],"sum_hessian":[2.05557E5],"tree_param":{"num_deleted":"0","num_feature":"50","num_nodes":"1","size_leaf_vector":"1"}},{"base_weights":[8.6187625E-5],"categories":[],"categories_nodes":[],"categories_segments":[],"categories_sizes":[],"default_left":[0],"id":49,"left_children":[-1],"loss_changes":[0E0],"parents":[2147483647],"right_children":[-1],"split_conditions":[2.1131424E-5],"split_indices":[0],"split_type":[0],"sum_hessian":[2.07948E5],"tree_param":{"num_deleted":"0","num_feature":"50","num_nodes":"1","size_leaf_vector":"1"}},{"base_weights":[-1.4765697E-4],"categories":[],"categories_nodes":[],"categories_segments":[],"categories_sizes":[],"default_left":[0],"id":50,"left_children":[-1],"loss_changes":[0E0],"parents":[2147483647],"right_children":[-1],"split_conditions":[-3.6202437E-5],"split_indices":[0],"split_type":[0],"sum_hessian":[2.06523E5],"tree_param":{"num_deleted":"0","num_feature":"50","num_nodes":"1","size_leaf_vector":"1"}},{"base_weights":[1.4455624E-4],"categories":[],"categories_nodes":[],"categories_segments":[],"categories_sizes":[],"default_left":[0],"id":51,"left_children":[-1],"loss_changes":[0E0],"parents":[2147483647],"right_children":[-1],"split_conditions":[3.54422E-5],"split_indices":[0],"split_type":[0],"sum_hessian":[2.05507E5],"tree_param":{"num_deleted":"0","num_feature":"50","num_nodes":"1","size_leaf_vector":"1"}},{"base_weights":[-5.5759945E-5],"categories":[],"categories_nodes":[],"categories_segments":[],"categories_sizes":[],"default_left":[0],"id":52,"left_children":[-1],"loss_changes":[0E0],"parents":[2147483647],"right_children":[-1],"split_conditions":[-1.3671186E-5],"split_indices":[0],"split_type":[0],"sum_hessian":[2.08149E5],"tree_param":{"num_deleted":"0","num_feature":"50","num_nodes":"1","size_leaf_vector":"1"}},{"base_weights":[1.0480544E-5],"categories":[],"categories_nodes":[],"categories_segments":[],"categories_sizes":[],"default_left":[0],"id":53,"left_children":[-1],"loss_changes":[0E0],"parents":[2147483647],"right_children":[-1],"split_conditions":[2.5696127E-6],"split_indices":[0],"split_type":[0],"sum_hessian":[2.08236E5],"tree_param":{"num_deleted":"0","num_feature":"50","num_nodes":"1","size_leaf_vector":"1"}},{"base_weights":[6.786088E-5],"categories":[],"categories_nodes":[],"categories_segments":[],"categories_sizes":[],"default_left":[0],"id":54,"left_children":[-1],"loss_changes":[0E0],"parents":[2147483647],"right_children":[-1],"split_conditions":[1.6638085E-5],"split_indices":[0],"split_type":[0],"sum_hessian":[2.07937E5],"tree_param":{"num_deleted":"0","num_feature":"50","num_nodes":"1","size_leaf_vector":"1"}},{"base_weights":[-1.04362596E-4],"categories":[],"categories_nodes":[],"categories_segments":[],"categories_sizes":[],"default_left":[0],"id":55,"left_children":[-1],"loss_changes":[0E0],"parents":[2147483647],"right_children":[-1],"split_conditions":[-2.5587551E-5],"split_indices":[0],"split_type":[0],"sum_hessian":[2.08289E5],"tree_param":{"num_deleted":"0","num_feature":"50","num_nodes":"1","size_leaf_vector":"1"}},{"base_weights":[6.8456025E-6],"categories":[],"categories_nodes":[],"categories_segments":[],"categories_sizes":[],"default_left":[0],"id":56,"left_children":[-1],"loss_changes":[0E0],"parents":[2147483647],"right_children":[-1],"split_conditions":[1.6784002E-6],"split_indices":[0],"split_type":[0],"sum_hessian":[2.07273E5],"tree_param":{"num_deleted":"0","num_feature":"50","num_nodes":"1","size_leaf_vector":"1"}},{"base_weights":[-1.8639863E-4],"categories":[],"categories_nodes":[],"categories_segments":[],"categories_sizes":[],"default_left":[0],"id":57,"left_children":[-1],"loss_changes":[0E0],"parents":[2147483647],"right_children":[-1],"split_conditions":[-4.570109E-5],"split_indices":[0],"split_type":[0],"sum_hessian":[2.07724E5],"tree_param":{"num_deleted":"0","num_feature":"50","num_nodes":"1","size_leaf_vector":"1"}},{"base_weights":[3.7563113E-5],"categories":[],"categories_nodes":[],"categories_segments":[],"categories_sizes":[],"default_left":[0],"id":58,"left_children":[-1],"loss_changes":[0E0],"parents":[2147483647],"right_children":[-1],"split_conditions":[9.209699E-6],"split_indices":[0],"split_type":[0],"sum_hessian":[2.0913E5],"tree_param":{"num_deleted":"0","num_feature":"50","num_nodes":"1","size_leaf_vector":"1"}},{"base_weights":[-2.4614592E-5],"categories":[],"categories_nodes":[],"categories_segments":[],"categories_sizes":[],"default_left":[0],"id":59,"left_children":[-1],"loss_changes":[0E0],"parents":[2147483647],"right_children":[-1],"split_conditions":[-6.034989E-6],"split_indices":[0],"split_type":[0],"sum_hessian":[2.07143E5],"tree_param":{"num_deleted":"0","num_feature":"50","num_nodes":"1","size_leaf_vector":"1"}},{"base_weights":[3.6098118E-5],"categories":[],"categories_nodes":[],"categories_segments":[],"categories_sizes":[],"default_left":[0],"id":60,"left_children":[-1],"loss_changes":[0E0],"parents":[2147483647],"right_children":[-1],"split_conditions":[8.850512E-6],"split_indices":[0],"split_type":[0],"sum_hessian":[2.0562E5],"tree_param":{"num_deleted":"0","num_feature":"50","num_nodes":"1","size_leaf_vector":"1"}},{"base_weights":[1.10170105E-4],"categories":[],"categories_nodes":[],"categories_segments":[],"categories_sizes":[],"default_left":[0],"id":61,"left_children":[-1],"loss_changes":[0E0],"parents":[2147483647],"right_children":[-1],"split_conditions":[2.7011432E-5],"split_indices":[0],"split_type":[0],"sum_hessian":[2.08151E5],"tree_param":{"num_deleted":"0","num_feature":"50","num_nodes":"1","size_leaf_vector":"1"}},{"base_weights":[1.5742862E-5],"categories":[],"categories_nodes":[],"categories_segments":[],"categories_sizes":[],"default_left":[0],"id":62,"left_children":[-1],"loss_changes":[0E0],"parents":[2147483647],"right_children":[-1],"split_conditions":[3.859824E-6],"split_indices":[0],"split_type":[0],"sum_hessian":[2.06135E5],"tree_param":{"num_deleted":"0","num_feature":"50","num_nodes":"1","size_leaf_vector":"1"}},{"base_weights":[4.185456E-6],"categories":[],"categories_nodes":[],"categories_segments":[],"categories_sizes":[],"default_left":[0],"id":63,"left_children":[-1],"loss_changes":[0E0],"parents":[2147483647],"right_children":[-1],"split_conditions":[1.0261873E-6],"split_indices":[0],"split_type":[0],"sum_hessian":[2.08626E5],"tree_param":{"num_deleted":"0","num_feature":"50","num_nodes":"1","size_leaf_vector":"1"}},{"base_weights":[7.070677E-5],"categories":[],"categories_nodes":[],"categories_segments":[],"categories_sizes":[],"default_left":[0],"id":64,"left_children":[-1],"loss_changes":[0E0],"parents":[2147483647],"right_children":[-1],"split_conditions":[1.7335837E-5],"split_indices":[0],"split_type":[0],"sum_hessian":[2.0771E5],"tree_param":{"num_deleted":"0","num_feature":"50","num_nodes":"1","size_leaf_vector":"1"}},{"base_weights":[1.378527E-4],"categories":[],"categories_nodes":[],"categories_segments":[],"categories_sizes":[],"default_left":[0],"id":65,"left_children":[-1],"loss_changes":[0E0],"parents":[2147483647],"right_children":[-1],"split_conditions":[3.379863E-5],"split_indices":[0],"split_type":[0],"sum_hessian":[2.0873E5],"tree_param":{"num_deleted":"0","num_feature":"50","num_nodes":"1","size_leaf_vector":"1"}},{"base_weights":[-4.981522E-6],"categories":[],"categories_nodes":[],"categories_segments":[],"categories_sizes":[],"default_left":[0],"id":66,"left_children":[-1],"loss_changes":[0E0],"parents":[2147483647],"right_children":[-1],"split_conditions":[-1.2213662E-6],"split_indices":[0],"split_type":[0],"sum_hessian":[2.07878E5],"tree_param":{"num_deleted":"0","num_feature":"50","num_nodes":"1","size_leaf_vector":"1"}},{"base_weights":[-7.374649E-5],"categories":[],"categories_nodes":[],"categories_segments":[],"categories_sizes":[],"default_left":[0],"id":67,"left_children":[-1],"loss_changes":[0E0],"parents":[2147483647],"right_children":[-1],"split_conditions":[-1.8081115E-5],"split_indices":[0],"split_type":[0],"sum_hessian":[2.07593E5],"tree_param":{"num_deleted":"0","num_feature":"50","num_nodes":"1","size_leaf_vector":"1"}},{"base_weights":[1.2226408E-5],"categories":[],"categories_nodes":[],"categories_segments":[],"categories_sizes":[],"default_left":[0],"id":68,"left_children":[-1],"loss_changes":[0E0],"parents":[2147483647],"right_children":[-1],"split_conditions":[2.9976625E-6],"split_indices":[0],"split_type":[0],"sum_hessian":[2.073E5],"tree_param":{"num_deleted":"0","num_feature":"50","num_nodes":"1","size_leaf_vector":"1"}},{"base_weights":[-3.3935357E-5],"categories":[],"categories_nodes":[],"categories_segments":[],"categories_sizes":[],"default_left":[0],"id":69,"left_children":[-1],"loss_changes":[0E0],"parents":[2147483647],"right_children":[-1],"split_conditions":[-8.320248E-6],"split_indices":[0],"split_type":[0],"sum_hessian":[2.06338E5],"tree_param":{"num_deleted":"0","num_feature":"50","num_nodes":"1","size_leaf_vector":"1"}},{"base_weights":[1.018732E-4],"categories":[],"categories_nodes":[],"categories_segments":[],"categories_sizes":[],"default_left":[0],"id":70,"left_children":[-1],"loss_changes":[0E0],"parents":[2147483647],"right_children":[-1],"split_conditions":[2.4977202E-5],"split_indices":[0],"split_type":[0],"sum_hessian":[2.09147E5],"tree_param":{"num_deleted":"0","num_feature":"50","num_nodes":"1","size_leaf_vector":"1"}},{"base_weights":[4.0032286E-5],"categories":[],"categories_nodes":[],"categories_segments":[],"categories_sizes":[],"default_left":[0],"id":71,"left_children":[-1],"loss_changes":[0E0],"parents":[2147483647],"right_children":[-1],"split_conditions":[9.815089E-6],"split_indices":[0],"split_type":[0],"sum_hessian":[2.10708E5],"tree_param":{"num_deleted":"0","num_feature":"50","num_nodes":"1","size_leaf_vector":"1"}},{"base_weights":[-2.4292187E-4],"categories":[],"categories_nodes":[],"categories_segments":[],"categories_sizes":[],"default_left":[0],"id":72,"left_children":[-1],"loss_changes":[0E0],"parents":[2147483647],"right_children":[-1],"split_conditions":[-5.955942E-5],"split_indices":[0],"split_type":[0],"sum_hessian":[2.08202E5],"tree_param":{"num_deleted":"0","num_feature":"50","num_nodes":"1","size_leaf_vector":"1"}},{"base_weights":[-9.58516E-5],"categories":[],"categories_nodes":[],"categories_segments":[],"categories_sizes":[],"default_left":[0],"id":73,"left_children":[-1],"loss_changes":[0E0],"parents":[2147483647],"right_children":[-1],"split_conditions":[-2.3500832E-5],"split_indices":[0],"split_type":[0],"sum_hessian":[2.06443E5],"tree_param":{"num_deleted":"0","num_feature":"50","num_nodes":"1","size_leaf_vector":"1"}},{"base_weights":[-4.1357457E-6],"categories":[],"categories_nodes":[],"categories_segments":[],"categories_sizes":[],"default_left":[0],"id":74,"left_children":[-1],"loss_changes":[0E0],"parents":[2147483647],"right_children":[-1],"split_conditions":[-1.0139994E-6],"split_indices":[0],"split_type":[0],"sum_hessian":[2.06513E5],"tree_param":{"num_deleted":"0","num_feature":"50","num_nodes":"1","size_leaf_vector":"1"}},{"base_weights":[2.0261177E-5],"categories":[],"categories_nodes":[],"categories_segments":[],"categories_sizes":[],"default_left":[0],"id":75,"left_children":[-1],"loss_changes":[0E0],"parents":[2147483647],"right_children":[-1],"split_conditions":[4.967622E-6],"split_indices":[0],"split_type":[0],"sum_hessian":[2.07432E5],"tree_param":{"num_deleted":"0","num_feature":"50","num_nodes":"1","size_leaf_vector":"1"}},{"base_weights":[-8.240453E-5],"categories":[],"categories_nodes":[],"categories_segments":[],"categories_sizes":[],"default_left":[0],"id":76,"left_children":[-1],"loss_changes":[0E0],"parents":[2147483647],"right_children":[-1],"split_conditions":[-2.0203886E-5],"split_indices":[0],"split_type":[0],"sum_hessian":[2.06743E5],"tree_param":{"num_deleted":"0","num_feature":"50","num_nodes":"1","size_leaf_vector":"1"}},{"base_weights":[-3.927099E-7],"categories":[],"categories_nodes":[],"categories_segments":[],"categories_sizes":[],"default_left":[0],"id":77,"left_children":[-1],"loss_changes":[0E0],"parents":[2147483647],"right_children":[-1],"split_conditions":[-9.6284346E-8],"split_indices":[0],"split_type":[0],"sum_hessian":[2.08474E5],"tree_param":{"num_deleted":"0","num_feature":"50","num_nodes":"1","size_leaf_vector":"1"}},{"base_weights":[3.2546883E-5],"categories":[],"categories_nodes":[],"categories_segments":[],"categories_sizes":[],"default_left":[0],"id":78,"left_children":[-1],"loss_changes":[0E0],"parents":[2147483647],"right_children":[-1],"split_conditions":[7.979823E-6],"split_indices":[0],"split_type":[0],"sum_hessian":[2.06369E5],"tree_param":{"num_deleted":"0","num_feature":"50","num_nodes":"1","size_leaf_vector":"1"}},{"base_weights":[-1.0036355E-4],"categories":[],"categories_nodes":[],"categories_segments":[],"categories_sizes":[],"default_left":[0],"id":79,"left_children":[-1],"loss_changes":[0E0],"parents":[2147483647],"right_children":[-1],"split_conditions":[-2.4607067E-5],"split_indices":[0],"split_type":[0],"sum_hessian":[2.05977E5],"tree_param":{"num_deleted":"0","num_feature":"50","num_nodes":"1","size_leaf_vector":"1"}},{"base_weights":[2.2175022E-4],"categories":[],"categories_nodes":[],"categories_segments":[],"categories_sizes":[],"default_left":[0],"id":80,"left_children":[-1],"loss_changes":[0E0],"parents":[2147483647],"right_children":[-1],"split_conditions":[5.4368567E-5],"split_indices":[0],"split_type":[0],"sum_hessian":[2.08328E5],"tree_param":{"num_deleted":"0","num_feature":"50","num_nodes":"1","size_leaf_vector":"1"}},{"base_weights":[-2.7052898E-5],"categories":[],"categories_nodes":[],"categories_segments":[],"categories_sizes":[],"default_left":[0],"id":81,"left_children":[-1],"loss_changes":[0E0],"parents":[2147483647],"right_children":[-1],"split_conditions":[-6.632811E-6],"split_indices":[0],"split_type":[0],"sum_hessian":[2.06791E5],"tree_param":{"num_deleted":"0","num_feature":"50","num_nodes":"1","size_leaf_vector":"1"}},{"base_weights":[-6.7585526E-5],"categories":[],"categories_nodes":[],"categories_segments":[],"categories_sizes":[],"default_left":[0],"id":82,"left_children":[-1],"loss_changes":[0E0],"parents":[2147483647],"right_children":[-1],"split_conditions":[-1.6570573E-5],"split_indices":[0],"split_type":[0],"sum_hessian":[2.07198E5],"tree_param":{"num_deleted":"0","num_feature":"50","num_nodes":"1","size_leaf_vector":"1"}},{"base_weights":[7.1774E-5],"categories":[],"categories_nodes":[],"categories_segments":[],"categories_sizes":[],"default_left":[0],"id":83,"left_children":[-1],"loss_changes":[0E0],"parents":[2147483647],"right_children":[-1],"split_conditions":[1.75975E-5],"split_indices":[0],"split_type":[0],"sum_hessian":[2.04855E5],"tree_param":{"num_deleted":"0","num_feature":"50","num_nodes":"1","size_leaf_vector":"1"}},{"base_weights":[7.4508585E-5],"categories":[],"categories_nodes":[],"categories_segments":[],"categories_sizes":[],"default_left":[0],"id":84,"left_children":[-1],"loss_changes":[0E0],"parents":[2147483647],"right_children":[-1],"split_conditions":[1.8267965E-5],"split_indices":[0],"split_type":[0],"sum_hessian":[2.07679E5],"tree_param":{"num_deleted":"0","num_feature":"50","num_nodes":"1","size_leaf_vector":"1"}},{"base_weights":[1.4520745E-5],"categories":[],"categories_nodes":[],"categories_segments":[],"categories_sizes":[],"default_left":[0],"id":85,"left_children":[-1],"loss_changes":[0E0],"parents":[2147483647],"right_children":[-1],"split_conditions":[3.5601865E-6],"split_indices":[0],"split_type":[0],"sum_hessian":[2.09741E5],"tree_param":{"num_deleted":"0","num_feature":"50","num_nodes":"1","size_leaf_vector":"1"}},{"base_weights":[5.90739E-6],"categories":[],"categories_nodes":[],"categories_segments":[],"categories_sizes":[],"default_left":[0],"id":86,"left_children":[-1],"loss_changes":[0E0],"parents":[2147483647],"right_children":[-1],"split_conditions":[1.4483699E-6],"split_indices":[0],"split_type":[0],"sum_hessian":[2.06651E5],"tree_param":{"num_deleted":"0","num_feature":"50","num_nodes":"1","size_leaf_vector":"1"}},{"base_weights":[-8.936395E-5],"categories":[],"categories_nodes":[],"categories_segments":[],"categories_sizes":[],"default_left":[0],"id":87,"left_children":[-1],"loss_changes":[0E0],"parents":[2147483647],"right_children":[-1],"split_conditions":[-2.1910193E-5],"split_indices":[0],"split_type":[0],"sum_hessian":[2.07662E5],"tree_param":{"num_deleted":"0","num_feature":"50","num_nodes":"1","size_leaf_vector":"1"}},{"base_weights":[1.3336066E-4],"categories":[],"categories_nodes":[],"categories_segments":[],"categories_sizes":[],"default_left":[0],"id":88,"left_children":[-1],"loss_changes":[0E0],"parents":[2147483647],"right_children":[-1],"split_conditions":[3.2697277E-5],"split_indices":[0],"split_type":[0],"sum_hessian":[2.06238E5],"tree_param":{"num_deleted":"0","num_feature":"50","num_nodes":"1","size_leaf_vector":"1"}},{"base_weights":[-1.6918249E-4],"categories":[],"categories_nodes":[],"categories_segments":[],"categories_sizes":[],"default_left":[0],"id":89,"left_children":[-1],"loss_changes":[0E0],"parents":[2147483647],"right_children":[-1],"split_conditions":[-4.148005E-5],"split_indices":[0],"split_type":[0],"sum_hessian":[2.08402E5],"tree_param":{"num_deleted":"0","num_feature":"50","num_nodes":"1","size_leaf_vector":"1"}},{"base_weights":[1.7313103E-4],"categories":[],"categories_nodes":[],"categories_segments":[],"categories_sizes":[],"default_left":[0],"id":90,"left_children":[-1],"loss_changes":[0E0],"parents":[2147483647],"right_children":[-1],"split_conditions":[4.244815E-5],"split_indices":[0],"split_type":[0],"sum_hessian":[2.08563E5],"tree_param":{"num_deleted":"0","num_feature":"50","num_nodes":"1","size_leaf_vector":"1"}},{"base_weights":[1.3333393E-4],"categories":[],"categories_nodes":[],"categories_segments":[],"categories_sizes":[],"default_left":[0],"id":91,"left_children":[-1],"loss_changes":[0E0],"parents":[2147483647],"right_children":[-1],"split_conditions":[3.2690725E-5],"split_indices":[0],"split_type":[0],"sum_hessian":[2.06888E5],"tree_param":{"num_deleted":"0","num_feature":"50","num_nodes":"1","size_leaf_vector":"1"}},{"base_weights":[-1.0886717E-4],"categories":[],"categories_nodes":[],"categories_segments":[],"categories_sizes":[],"default_left":[0],"id":92,"left_children":[-1],"loss_changes":[0E0],"parents":[2147483647],"right_children":[-1],"split_conditions":[-2.669198E-5],"split_indices":[0],"split_type":[0],"sum_hessian":[2.05761E5],"tree_param":{"num_deleted":"0","num_feature":"50","num_nodes":"1","size_leaf_vector":"1"}},{"base_weights":[-4.4032586E-5],"categories":[],"categories_nodes":[],"categories_segments":[],"categories_sizes":[],"default_left":[0],"id":93,"left_children":[-1],"loss_changes":[0E0],"parents":[2147483647],"right_children":[-1],"split_conditions":[-1.07958795E-5],"split_indices":[0],"split_type":[0],"sum_hessian":[2.06406E5],"tree_param":{"num_deleted":"0","num_feature":"50","num_nodes":"1","size_leaf_vector":"1"}},{"base_weights":[-4.6187073E-5],"categories":[],"categories_nodes":[],"categories_segments":[],"categories_sizes":[],"default_left":[0],"id":94,"left_children":[-1],"loss_changes":[0E0],"parents":[2147483647],"right_children":[-1],"split_conditions":[-1.1324116E-5],"split_indices":[0],"split_type":[0],"sum_hessian":[2.07611E5],"tree_param":{"num_deleted":"0","num_feature":"50","num_nodes":"1","size_leaf_vector":"1"}},{"base_weights":[1.4663104E-5],"categories":[],"categories_nodes":[],"categories_segments":[],"categories_sizes":[],"default_left":[0],"id":95,"left_children":[-1],"loss_changes":[0E0],"parents":[2147483647],"right_children":[-1],"split_conditions":[3.5950898E-6],"split_indices":[0],"split_type":[0],"sum_hessian":[2.07069E5],"tree_param":{"num_deleted":"0","num_feature":"50","num_nodes":"1","size_leaf_vector":"1"}},{"base_weights":[-1.5801204E-4],"categories":[],"categories_nodes":[],"categories_segments":[],"categories_sizes":[],"default_left":[0],"id":96,"left_children":[-1],"loss_changes":[0E0],"parents":[2147483647],"right_children":[-1],"split_conditions":[-3.8741287E-5],"split_indices":[0],"split_type":[0],"sum_hessian":[2.08181E5],"tree_param":{"num_deleted":"0","num_feature":"50","num_nodes":"1","size_leaf_vector":"1"}},{"base_weights":[-5.378786E-6],"categories":[],"categories_nodes":[],"categories_segments":[],"categories_sizes":[],"default_left":[0],"id":97,"left_children":[-1],"loss_changes":[0E0],"parents":[2147483647],"right_children":[-1],"split_conditions":[-1.3187672E-6],"split_indices":[0],"split_type":[0],"sum_hessian":[2.08062E5],"tree_param":{"num_deleted":"0","num_feature":"50","num_nodes":"1","size_leaf_vector":"1"}},{"base_weights":[1.43940615E-5],"categories":[],"categories_nodes":[],"categories_segments":[],"categories_sizes":[],"default_left":[0],"id":98,"left_children":[-1],"loss_changes":[0E0],"parents":[2147483647],"right_children":[-1],"split_conditions":[3.5291264E-6],"split_indices":[0],"split_type":[0],"sum_hessian":[2.06229E5],"tree_param":{"num_deleted":"0","num_feature":"50","num_nodes":"1","size_leaf_vector":"1"}},{"base_weights":[9.4094925E-5],"categories":[],"categories_nodes":[],"categories_segments":[],"categories_sizes":[],"default_left":[0],"id":99,"left_children":[-1],"loss_changes":[0E0],"parents":[2147483647],"right_children":[-1],"split_conditions":[2.307013E-5],"split_indices":[0],"split_type":[0],"sum_hessian":[2.07173E5],"tree_param":{"num_deleted":"0","num_feature":"50","num_nodes":"1","size_leaf_vector":"1"}},{"base_weights":[1.07041415E-4],"categories":[],"categories_nodes":[],"categories_segments":[],"categories_sizes":[],"default_left":[0],"id":100,"left_children":[-1],"loss_changes":[0E0],"parents":[2147483647],"right_children":[-1],"split_conditions":[2.6244341E-5],"split_indices":[0],"split_type":[0],"sum_hessian":[2.08826E5],"tree_param":{"num_deleted":"0","num_feature":"50","num_nodes":"1","size_leaf_vector":"1"}},{"base_weights":[-4.345776E-5],"categories":[],"categories_nodes":[],"categories_segments":[],"categories_sizes":[],"default_left":[0],"id":101,"left_children":[-1],"loss_changes":[0E0],"parents":[2147483647],"right_children":[-1],"split_conditions":[-1.0654944E-5],"split_indices":[0],"split_type":[0],"sum_hessian":[2.07888E5],"tree_param":{"num_deleted":"0","num_feature":"50","num_nodes":"1","size_leaf_vector":"1"}},{"base_weights":[-9.769858E-5],"categories":[],"categories_nodes":[],"categories_segments":[],"categories_sizes":[],"default_left":[0],"id":102,"left_children":[-1],"loss_changes":[0E0],"parents":[2147483647],"right_children":[-1],"split_conditions":[-2.3953673E-5],"split_indices":[0],"split_type":[0],"sum_hessian":[2.072E5],"tree_param":{"num_deleted":"0","num_feature":"50","num_nodes":"1","size_leaf_vector":"1"}},{"base_weights":[-1.0865711E-5],"categories":[],"categories_nodes":[],"categories_segments":[],"categories_sizes":[],"default_left":[0],"id":103,"left_children":[-1],"loss_changes":[0E0],"parents":[2147483647],"right_children":[-1],"split_conditions":[-2.6640478E-6],"split_indices":[0],"split_type":[0],"sum_hessian":[2.06541E5],"tree_param":{"num_deleted":"0","num_feature":"50","num_nodes":"1","size_leaf_vector":"1"}},{"base_weights":[1.9016762E-4],"categories":[],"categories_nodes":[],"categories_segments":[],"categories_sizes":[],"default_left":[0],"id":104,"left_children":[-1],"loss_changes":[0E0],"parents":[2147483647],"right_children":[-1],"split_conditions":[4.6625166E-5],"split_indices":[0],"split_type":[0],"sum_hessian":[2.05977E5],"tree_param":{"num_deleted":"0","num_feature":"50","num_nodes":"1","size_leaf_vector":"1"}},{"base_weights":[-1.1077954E-4],"categories":[],"categories_nodes":[],"categories_segments":[],"categories_sizes":[],"default_left":[0],"id":105,"left_children":[-1],"loss_changes":[0E0],"parents":[2147483647],"right_children":[-1],"split_conditions":[-2.7160853E-5],"split_indices":[0],"split_type":[0],"sum_hessian":[2.07577E5],"tree_param":{"num_deleted":"0","num_feature":"50","num_nodes":"1","size_leaf_vector":"1"}},{"base_weights":[-5.7062185E-5],"categories":[],"categories_nodes":[],"categories_segments":[],"categories_sizes":[],"default_left":[0],"id":106,"left_children":[-1],"loss_changes":[0E0],"parents":[2147483647],"right_children":[-1],"split_conditions":[-1.3990468E-5],"split_indices":[0],"split_type":[0],"sum_hessian":[2.07325E5],"tree_param":{"num_deleted":"0","num_feature":"50","num_nodes":"1","size_leaf_vector":"1"}},{"base_weights":[1.8105698E-5],"categories":[],"categories_nodes":[],"categories_segments":[],"categories_sizes":[],"default_left":[0],"id":107,"left_children":[-1],"loss_changes":[0E0],"parents":[2147483647],"right_children":[-1],"split_conditions":[4.439143E-6],"split_indices":[0],"split_type":[0],"sum_hessian":[2.06691E5],"tree_param":{"num_deleted":"0","num_feature":"50","num_nodes":"1","size_leaf_vector":"1"}},{"base_weights":[1.3588123E-4],"categories":[],"categories_nodes":[],"categories_segments":[],"categories_sizes":[],"default_left":[0],"id":108,"left_children":[-1],"loss_changes":[0E0],"parents":[2147483647],"right_children":[-1],"split_conditions":[3.3315268E-5],"split_indices":[0],"split_type":[0],"sum_hessian":[2.06808E5],"tree_param":{"num_deleted":"0","num_feature":"50","num_nodes":"1","size_leaf_vector":"1"}},{"base_weights":[6.484885E-5],"categories":[],"categories_nodes":[],"categories_segments":[],"categories_sizes":[],"default_left":[0],"id":109,"left_children":[-1],"loss_changes":[0E0],"parents":[2147483647],"right_children":[-1],"split_conditions":[1.5899597E-5],"split_indices":[0],"split_type":[0],"sum_hessian":[2.07051E5],"tree_param":{"num_deleted":"0","num_feature":"50","num_nodes":"1","size_leaf_vector":"1"}},{"base_weights":[-3.2143445E-5],"categories":[],"categories_nodes":[],"categories_segments":[],"categories_sizes":[],"default_left":[0],"id":110,"left_children":[-1],"loss_changes":[0E0],"parents":[2147483647],"right_children":[-1],"split_conditions":[-7.880908E-6],"split_indices":[0],"split_type":[0],"sum_hessian":[2.06352E5],"tree_param":{"num_deleted":"0","num_feature":"50","num_nodes":"1","size_leaf_vector":"1"}},{"base_weights":[-8.9139585E-6],"categories":[],"categories_nodes":[],"categories_segments":[],"categories_sizes":[],"default_left":[0],"id":111,"left_children":[-1],"loss_changes":[0E0],"parents":[2147483647],"right_children":[-1],"split_conditions":[-2.1855183E-6],"split_indices":[0],"split_type":[0],"sum_hessian":[2.09118E5],"tree_param":{"num_deleted":"0","num_feature":"50","num_nodes":"1","size_leaf_vector":"1"}},{"base_weights":[-9.744396E-5],"categories":[],"categories_nodes":[],"categories_segments":[],"categories_sizes":[],"default_left":[0],"id":112,"left_children":[-1],"loss_changes":[0E0],"parents":[2147483647],"right_children":[-1],"split_conditions":[-2.3891245E-5],"split_indices":[0],"split_type":[0],"sum_hessian":[2.07531E5],"tree_param":{"num_deleted":"0","num_feature":"50","num_nodes":"1","size_leaf_vector":"1"}},{"base_weights":[-5.716959E-6],"categories":[],"categories_nodes":[],"categories_segments":[],"categories_sizes":[],"default_left":[0],"id":113,"left_children":[-1],"loss_changes":[0E0],"parents":[2147483647],"right_children":[-1],"split_conditions":[-1.4016802E-6],"split_indices":[0],"split_type":[0],"sum_hessian":[2.08619E5],"tree_param":{"num_deleted":"0","num_feature":"50","num_nodes":"1","size_leaf_vector":"1"}},{"base_weights":[5.240976E-5],"categories":[],"categories_nodes":[],"categories_segments":[],"categories_sizes":[],"default_left":[0],"id":114,"left_children":[-1],"loss_changes":[0E0],"parents":[2147483647],"right_children":[-1],"split_conditions":[1.28497895E-5],"split_indices":[0],"split_type":[0],"sum_hessian":[2.06087E5],"tree_param":{"num_deleted":"0","num_feature":"50","num_nodes":"1","size_leaf_vector":"1"}},{"base_weights":[-8.20323E-5],"categories":[],"categories_nodes":[],"categories_segments":[],"categories_sizes":[],"default_left":[0],"id":115,"left_children":[-1],"loss_changes":[0E0],"parents":[2147483647],"right_children":[-1],"split_conditions":[-2.0112624E-5],"split_indices":[0],"split_type":[0],"sum_hessian":[2.08802E5],"tree_param":{"num_deleted":"0","num_feature":"50","num_nodes":"1","size_leaf_vector":"1"}},{"base_weights":[6.347041E-5],"categories":[],"categories_nodes":[],"categories_segments":[],"categories_sizes":[],"default_left":[0],"id":116,"left_children":[-1],"loss_changes":[0E0],"parents":[2147483647],"right_children":[-1],"split_conditions":[1.5561633E-5],"split_indices":[0],"split_type":[0],"sum_hessian":[2.08759E5],"tree_param":{"num_deleted":"0","num_feature":"50","num_nodes":"1","size_leaf_vector":"1"}},{"base_weights":[9.696912E-5],"categories":[],"categories_nodes":[],"categories_segments":[],"categories_sizes":[],"default_left":[0],"id":117,"left_children":[-1],"loss_changes":[0E0],"parents":[2147483647],"right_children":[-1],"split_conditions":[2.3774823E-5],"split_indices":[0],"split_type":[0],"sum_hessian":[2.07354E5],"tree_param":{"num_deleted":"0","num_feature":"50","num_nodes":"1","size_leaf_vector":"1"}},{"base_weights":[1.1857249E-4],"categories":[],"categories_nodes":[],"categories_segments":[],"categories_sizes":[],"default_left":[0],"id":118,"left_children":[-1],"loss_changes":[0E0],"parents":[2147483647],"right_children":[-1],"split_conditions":[2.9071523E-5],"split_indices":[0],"split_type":[0],"sum_hessian":[2.0761E5],"tree_param":{"num_deleted":"0","num_feature":"50","num_nodes":"1","size_leaf_vector":"1"}},{"base_weights":[-1.0398894E-4],"categories":[],"categories_nodes":[],"categories_segments":[],"categories_sizes":[],"default_left":[0],"id":119,"left_children":[-1],"loss_changes":[0E0],"parents":[2147483647],"right_children":[-1],"split_conditions":[-2.5495938E-5],"split_indices":[0],"split_type":[0],"sum_hessian":[2.06507E5],"tree_param":{"num_deleted":"0","num_feature":"50","num_nodes":"1","size_leaf_vector":"1"}}]},"name":"gbtree"},"learner_model_param":{"base_score":"[9.897582E0]","boost_from_average":"1","num_class":"0","num_feature":"50","num_target":"1"},"objective":{"name":"reg:squarederror","reg_loss_param":{"scale_pos_weight":"1"}}},"version":[3,2,0]}