{"learner":{"attributes":{},"feature_names":["weather_temperature_2m","weather_relative_humidity_2m","weather_shortwave_radiation","weather_precipitation","weather_windspeed_10m","weather_dewpoint_2m","weather_cloudcover","weather_apparent_temperature","hour","day_of_week","day_of_year","month","is_weekend","is_sunday","year_index","sin_hour","cos_hour","sin_month","cos_month","sin_day_year","cos_day_year","is_peak_season","lag_1h","lag_24h","lag_168h","lag_48h","lag_336h","rolling_mean_24h","rolling_std_24h","rolling_mean_168h","rolling_std_168h","rolling_mean_6h_from_target","rolling_max_24h_from_target","ewm_24h_from_target","temp_x_peak","solar_x_peak","temp_x_hour_sin","lag_momentum_1_24","lag_momentum_24_168","weather_balance","temp_x_humidity","rain_flag","precip_x_peak","cloud_x_temp","cdd_24","hdd_18","apparent_minus_temp","rad_x_temp","hot_flag","hot_hour_interaction"],"feature_types":["float","float","float","float","float","float","float","float","int","int","int","int","int","int","int","float","float","float","float","float","float","int","float","float","float","float","float","float","float","float","float","float","float","float","float","float","float","float","float","float","float","int","float","float","float","float","float","float","int","int"],"gradient_booster":{"model":{"cats":{"enc":[],"feature_segments":[],"sorted_idx":[]},"gbtree_model_param":{"num_parallel_tree":"1","num_trees":"120"},"iteration_indptr":[0,1,2,3,4,5,6,7,8,9,10,11,12,13,14,15,16,17,18,19,20,21,22,23,24,25,26,27,28,29,30,31,32,33,34,35,36,37,38,39,40,41,42,43,44,45,46,47,48,49,50,51,52,53,54,55,56,57,58,59,60,61,62,63,64,65,66,67,68,69,70,71,72,73,74,75,76,77,78,79,80,81,82,83,84,85,86,87,88,89,90,91,92,93,94,95,96,97,98,99,100,101,102,103,104,105,106,107,108,109,110,111,112,113,114,115,116,117,118,119,120],"tree_info":[0,0,0,0,0,0,0,0,0,0,0,0,0,0,0,0,0,0,0,0,0,0,0,0,0,0,0,0,0,0,0,0,0,0,0,0,0,0,0,0,0,0,0,0,0,0,0,0,0,0,0,0,0,0,0,0,0,0,0,0,0,0,0,0,0,0,0,0,0,0,0,0,0,0,0,0,0,0,0,0,0,0,0,0,0,0,0,0,0,0,0,0,0,0,0,0,0,0,0,0,0,0,0,0,0,0,0,0,0,0,0,0,0,0,0,0,0,0,0,0],"trees":[{"base_weights":[-6.920616E-5,-2.8767985E-1,3.252215E-2,-4.0349388E-1,-2.1507595E-1,1.3218111E-2,1.21141255E-1,-5.2989393E-1,-3.7172112E-1,-2.545025E-1,-1.6427535E-1,-6.898355E-3,3.2274958E-2,9.2797786E-2,1.5433253E-1,-5.848803E-1,-1.1616931E-1,-1.01929694E-1,-3.452462E-1,-6.905095E-2,-5.7075128E-2,1.7641346E-4,-1.6906877E-1,-7.4386135E-2,-3.0007078E-3,2.1783603E-2,6.0606867E-2,6.0278583E-2,1.0886439E-1,1.3237807E-1,1.7627251E-1,-1.3864172E-1,-1.7963015E-1,-8.9918755E-2,-8.113146E-2,-4.6143822E-2,-3.6205556E-2,-2.6765844E-2,-6.739933E-3,-3.3983733E-3,2.3816817E-3,2.358941E-3,8.664744E-3,1.7428292E-2,1.0801546E-2,1.6601842E-2,2.3470658E-3,2.1896329E-2,3.332246E-2,2.3557266E-2,3.5040148E-2,3.5750367E-2,4.651066E-2],"categories":[],"categories_nodes":[],"categories_segments":[],"categories_sizes":[],"default_left":[0,0,0,0,0,0,0,0,0,0,0,0,0,0,0,0,0,0,0,0,0,0,0,0,0,0,0,0,0,0,0,0,0,0,0,0,0,0,0,0,0,0,0,0,0,0,0,0,0,0,0,0,0],"id":0,"left_children":[1,3,5,7,9,11,13,15,17,19,21,23,25,27,29,31,-1,-1,33,-1,-1,-1,35,37,39,41,43,45,47,49,51,-1,-1,-1,-1,-1,-1,-1,-1,-1,-1,-1,-1,-1,-1,-1,-1,-1,-1,-1,-1,-1,-1],"loss_changes":[1.6873949E3,1.5401245E2,2.7660767E2,2.8229004E1,2.2533752E1,5.0898994E1,2.7199219E1,4.1953125E0,6.4866943E0,3.694458E0,3.8941193E0,1.6990007E1,2.0265495E1,8.147339E0,6.401703E0,1.785141E0,0E0,0E0,1.0118103E0,0E0,0E0,0E0,1.9418793E0,5.7506237E0,8.432064E0,8.203949E0,3.1929932E0,1.9449997E0,5.515442E0,2.5391312E0,2.7069855E0,0E0,0E0,0E0,0E0,0E0,0E0,0E0,0E0,0E0,0E0,0E0,0E0,0E0,0E0,0E0,0E0,0E0,0E0,0E0,0E0,0E0,0E0],"parents":[2147483647,0,0,1,1,2,2,3,3,4,4,5,5,6,6,7,7,8,8,9,9,10,10,11,11,12,12,13,13,14,14,15,15,18,18,22,22,23,23,24,24,25,25,26,26,27,27,28,28,29,29,30,30],"right_children":[2,4,6,8,10,12,14,16,18,20,22,24,26,28,30,32,-1,-1,34,-1,-1,-1,36,38,40,42,44,46,48,50,52,-1,-1,-1,-1,-1,-1,-1,-1,-1,-1,-1,-1,-1,-1,-1,-1,-1,-1,-1,-1,-1,-1],"split_conditions":[1.738133E4,1.449067E4,2.1385E4,1.251072E4,1.6095E4,1.987106E4,2.2227E4,1.195271E4,1.343511E4,1.526537E4,-3.046E3,1.8016E4,2.059219E4,3.012E2,2.2878E4,6.8197215E-1,-1.1616931E-1,-1.01929694E-1,1.387165E4,-6.905095E-2,-5.7075128E-2,1.7641346E-4,1.668757E4,1.8539E4,1.953784E4,1.991238E4,1.2353E2,1.9E1,2.226E4,6.5E2,5.346E2,-1.3864172E-1,-1.7963015E-1,-8.9918755E-2,-8.113146E-2,-4.6143822E-2,-3.6205556E-2,-2.6765844E-2,-6.739933E-3,-3.3983733E-3,2.3816817E-3,2.358941E-3,8.664744E-3,1.7428292E-2,1.0801546E-2,1.6601842E-2,2.3470658E-3,2.1896329E-2,3.332246E-2,2.3557266E-2,3.5040148E-2,3.5750367E-2,4.651066E-2],"split_indices":[22,22,22,22,22,22,25,22,22,22,37,22,24,2,22,19,0,0,22,0,0,0,25,25,25,25,37,49,22,2,2,0,0,0,0,0,0,0,0,0,0,0,0,0,0,0,0,0,0,0,0,0,0],"split_type":[0,0,0,0,0,0,0,0,0,0,0,0,0,0,0,0,0,0,0,0,0,0,0,0,0,0,0,0,0,0,0,0,0,0,0,0,0,0,0,0,0,0,0,0,0,0,0,0,0,0,0,0,0],"sum_hessian":[1.80014E5,1.8322E4,1.61692E5,7.059E3,1.1263E4,1.32771E5,2.8921E4,1.416E3,5.643E3,6.34E3,4.923E3,6.459E4,6.8181E4,1.5601E4,1.332E4,7.12E2,7.04E2,2.116E3,3.527E3,2.815E3,3.525E3,1.39E2,4.784E3,3.526E3,6.1064E4,4.9757E4,1.8424E4,5.16E3,1.0441E4,6.66E3,6.66E3,6.32E2,8E1,1.405E3,2.122E3,2.523E3,2.261E3,2.024E3,1.502E3,3.2934E4,2.813E4,2.6228E4,2.3529E4,1.1281E4,7.143E3,4.5E3,6.6E2,6.061E3,4.38E3,1.5E3,5.16E3,2.04E3,4.62E3],"tree_param":{"num_deleted":"0","num_feature":"50","num_nodes":"53","size_leaf_vector":"1"}},{"base_weights":[7.2955074E-5,-2.219594E-1,2.3947036E-2,-3.1205964E-1,-1.7150666E-1,8.557932E-3,8.9152E-2,-3.7902147E-1,-2.7862266E-1,-2.0584522E-1,-1.3714314E-1,-5.569418E-4,3.469294E-2,5.9490968E-2,1.0985583E-1,-4.4201493E-1,-8.510057E-2,-7.267555E-2,-6.3966356E-2,-5.4871008E-2,-4.6026193E-2,-1.4058495E-1,-1.4955514E-3,-5.2242804E-2,3.291352E-3,1.3359492E-2,4.033341E-2,7.434494E-2,3.763476E-2,9.869785E-2,1.5410385E-1,-1.1782811E-1,-9.517654E-2,-3.895811E-2,-3.0655468E-2,-2.1752685E-2,-5.5703847E-3,-5.554977E-4,5.149839E-3,2.9310493E-3,4.308997E-2,8.400923E-3,1.4418998E-2,1.0109552E-2,2.0499673E-2,1.1249066E-2,1.987376E-3,1.671005E-2,2.6507938E-2,3.2733753E-2,4.036035E-2],"categories":[],"categories_nodes":[],"categories_segments":[],"categories_sizes":[],"default_left":[0,0,0,0,0,0,0,0,0,0,0,0,0,0,0,0,0,0,0,0,0,0,0,0,0,0,0,0,0,0,0,0,0,0,0,0,0,0,0,0,0,0,0,0,0,0,0,0,0,0,0],"id":1,"left_children":[1,3,5,7,9,11,13,15,17,19,21,23,25,27,29,31,-1,-1,-1,-1,-1,33,-1,35,37,39,41,43,45,47,49,-1,-1,-1,-1,-1,-1,-1,-1,-1,-1,-1,-1,-1,-1,-1,-1,-1,-1,-1,-1],"loss_changes":[9.6485626E2,8.029828E1,1.6491447E2,1.4135193E1,1.3351288E1,3.16752E1,1.9267303E1,4.1489563E0,1.2868652E0,1.8170319E0,2.5543518E0,1.9609022E1,4.1369514E0,4.186783E0,9.114731E0,1.3522644E0,0E0,0E0,0E0,0E0,0E0,1.5594864E0,0E0,7.35618E0,9.031605E0,1.639016E0,3.0479736E0,2.3543587E0,1.271244E0,4.2417145E0,7.9172516E-1,0E0,0E0,0E0,0E0,0E0,0E0,0E0,0E0,0E0,0E0,0E0,0E0,0E0,0E0,0E0,0E0,0E0,0E0,0E0,0E0],"parents":[2147483647,0,0,1,1,2,2,3,3,4,4,5,5,6,6,7,7,8,8,9,9,10,10,11,11,12,12,13,13,14,14,15,15,21,21,23,23,24,24,25,25,26,26,27,27,28,28,29,29,30,30],"right_children":[2,4,6,8,10,12,14,16,18,20,22,24,26,28,30,32,-1,-1,-1,-1,-1,34,-1,36,38,40,42,44,46,48,50,-1,-1,-1,-1,-1,-1,-1,-1,-1,-1,-1,-1,-1,-1,-1,-1,-1,-1,-1,-1],"split_conditions":[1.718592E4,1.426568E4,2.131805E4,1.2876E4,1.574183E4,2.0378E4,2.206413E4,1.195271E4,1.365483E4,1.505698E4,2.039474E4,1.82265E4,1.964125E4,-5E-1,2.3271E4,1.2342458E4,-8.510057E-2,-7.267555E-2,-6.3966356E-2,-5.4871008E-2,-4.6026193E-2,1.618215E4,-1.4955514E-3,1.844571E4,2.039641E4,2.404E4,2.1361E4,-9.659258E-1,1.8E1,3.78E2,3.784E1,-1.1782811E-1,-9.517654E-2,-3.895811E-2,-3.0655468E-2,-2.1752685E-2,-5.5703847E-3,-5.554977E-4,5.149839E-3,2.9310493E-3,4.308997E-2,8.400923E-3,1.4418998E-2,1.0109552E-2,2.0499673E-2,1.1249066E-2,1.987376E-3,1.671005E-2,2.6507938E-2,3.2733753E-2,4.036035E-2],"split_indices":[22,22,22,22,22,25,22,22,22,25,25,22,22,16,26,27,0,0,0,0,0,25,0,25,22,25,25,16,49,2,34,0,0,0,0,0,0,0,0,0,0,0,0,0,0,0,0,0,0,0,0],"split_type":[0,0,0,0,0,0,0,0,0,0,0,0,0,0,0,0,0,0,0,0,0,0,0,0,0,0,0,0,0,0,0,0,0,0,0,0,0,0,0,0,0,0,0,0,0,0,0,0,0,0,0],"sum_hessian":[1.82019E5,1.7671E4,1.64348E5,6.342E3,1.1329E4,1.32967E5,3.1381E4,2.11E3,4.232E3,5.665E3,5.664E3,9.8585E4,3.4382E4,1.2901E4,1.848E4,7.07E2,1.403E3,2.107E3,2.125E3,2.842E3,2.823E3,5.519E3,1.45E2,6.831E3,9.1754E4,7.19E3,2.7192E4,7.68E3,5.221E3,1.476E4,3.72E3,4.09E2,2.98E2,2.532E3,2.987E3,3.055E3,3.776E3,6.9843E4,2.1911E4,7.129E3,6.1E1,2.047E4,6.722E3,1.68E3,6E3,4.081E3,1.14E3,3.48E3,1.128E4,1.26E3,2.46E3],"tree_param":{"num_deleted":"0","num_feature":"50","num_nodes":"51","size_leaf_vector":"1"}},{"base_weights":[9.519841E-5,-1.6331097E-1,1.842772E-2,-2.2555359E-1,-1.1793771E-1,6.166335E-3,6.346861E-2,-2.8674734E-1,-2.0295262E-1,-1.3657063E-1,-8.144272E-2,-9.065275E-3,1.4331989E-2,5.4294247E-2,1.05313115E-1,-3.3503133E-1,-6.428276E-2,-2.117254E-1,-4.160905E-2,-1.1959633E-1,-1.4900593E-1,-2.228557E-2,-4.226229E-2,-1.895339E-2,-6.9952137E-3,-3.13327E-3,2.0447304E-2,6.723797E-2,8.268293E-3,2.3216639E-2,3.1020068E-2,-8.055424E-2,-1.5332428E-1,-5.5924274E-2,-4.8002977E-2,-3.3229657E-2,-2.4689097E-2,-4.0438253E-2,-3.349763E-2,4.5618808E-4,-1.749543E-2,-3.203855E-3,1.5315884E-3,-2.0422877E-3,1.8651101E-3,3.7515978E-3,8.948816E-3,1.3596719E-2,2.1458453E-2],"categories":[],"categories_nodes":[],"categories_segments":[],"categories_sizes":[],"default_left":[0,0,0,0,0,0,0,0,0,0,0,0,0,0,0,0,0,0,0,0,0,0,0,0,0,0,0,0,0,0,0,0,0,0,0,0,0,0,0,0,0,0,0,0,0,0,0,0,0],"id":2,"left_children":[1,3,5,7,9,11,13,15,17,19,21,23,25,27,29,31,-1,33,-1,35,37,-1,39,-1,41,43,45,47,-1,-1,-1,-1,-1,-1,-1,-1,-1,-1,-1,-1,-1,-1,-1,-1,-1,-1,-1,-1,-1],"loss_changes":[5.456159E2,5.1870514E1,9.044046E1,1.0676147E1,7.21994E0,1.6010092E1,1.3448807E1,2.4208221E0,1.6278381E0,1.4737396E0,1.328476E0,6.3456593E0,8.950199E0,7.6514053E0,1.4116058E0,1.1914368E0,0E0,1.1395874E0,0E0,8.882065E-1,7.860794E-1,0E0,8.982427E-1,0E0,3.5060487E0,1.2129912E0,5.126362E0,4.212639E0,0E0,0E0,0E0,0E0,0E0,0E0,0E0,0E0,0E0,0E0,0E0,0E0,0E0,0E0,0E0,0E0,0E0,0E0,0E0,0E0,0E0],"parents":[2147483647,0,0,1,1,2,2,3,3,4,4,5,5,6,6,7,7,8,8,9,9,10,10,11,11,12,12,13,13,14,14,15,15,17,17,19,19,20,20,22,22,24,24,25,25,26,26,27,27],"right_children":[2,4,6,8,10,12,14,16,18,20,22,24,26,28,30,32,-1,34,-1,36,38,-1,40,-1,42,44,46,48,-1,-1,-1,-1,-1,-1,-1,-1,-1,-1,-1,-1,-1,-1,-1,-1,-1,-1,-1,-1,-1],"split_conditions":[1.738133E4,1.46966E4,2.119562E4,1.2876E4,1.643451E4,1.949129E4,2.3273E4,1.195271E4,9.659258E-1,-1.8369701E-16,1.810114E4,-8.660254E-1,-7.0710677E-1,-5E-1,6.068E2,2.58E0,-6.428276E-2,1.387165E4,-4.160905E-2,9.151841E0,1.541967E4,-2.228557E-2,-8.8E-1,-1.895339E-2,7.0710677E-1,2.0592E4,2.0505E4,-8.660254E-1,8.268293E-3,2.3216639E-2,3.1020068E-2,-8.055424E-2,-1.5332428E-1,-5.5924274E-2,-4.8002977E-2,-3.3229657E-2,-2.4689097E-2,-4.0438253E-2,-3.349763E-2,4.5618808E-4,-1.749543E-2,-3.203855E-3,1.5315884E-3,-2.0422877E-3,1.8651101E-3,3.7515978E-3,8.948816E-3,1.3596719E-2,2.1458453E-2],"split_indices":[22,22,22,22,22,22,22,22,15,16,26,15,15,16,2,42,0,22,0,36,22,0,46,0,15,22,26,16,0,0,0,0,0,0,0,0,0,0,0,0,0,0,0,0,0,0,0,0,0],"split_type":[0,0,0,0,0,0,0,0,0,0,0,0,0,0,0,0,0,0,0,0,0,0,0,0,0,0,0,0,0,0,0,0,0,0,0,0,0,0,0,0,0,0,0,0,0,0,0,0,0],"sum_hessian":[1.82135E5,1.8372E4,1.63763E5,7.745E3,1.0627E4,1.28722E5,3.5041E4,2.087E3,5.658E3,7.034E3,3.593E3,4.4924E4,8.3798E4,2.8741E4,6.3E3,7.01E2,1.386E3,4.474E3,1.184E3,2.977E3,4.057E3,2.894E3,6.99E2,1.322E3,4.3602E4,2.1732E4,6.2066E4,1.764E4,1.1101E4,4.2E3,2.1E3,6.87E2,1.4E1,2.203E3,2.271E3,1.613E3,1.364E3,1.771E3,2.286E3,2.78E2,4.21E2,2.9894E4,1.3708E4,1.4646E4,7.086E3,4.7E4,1.5066E4,1.116E4,6.48E3],"tree_param":{"num_deleted":"0","num_feature":"50","num_nodes":"49","size_leaf_vector":"1"}},{"base_weights":[1.3638198E-4,-1.2198727E-1,1.4538519E-2,-1.6754293E-1,-8.524556E-2,5.506575E-3,5.70342E-2,-2.0913894E-1,-1.4650023E-1,-2.6170297E-2,-6.59183E-2,-3.3044082E-3,2.0640232E-2,4.260584E-2,6.991641E-2,-2.5292534E-1,-4.76727E-2,-3.8995057E-2,-3.1301796E-2,-1.7936358E-2,-9.881355E-3,-6.8912283E-3,1.1464515E-2,2.3170035E-2,-1.3124294E-3,3.4976713E-2,1.3665597E-2,5.9257228E-2,8.644099E-2,-7.81359E-2,-5.6237817E-2,-6.6157742E-3,-1.0403313E-3,1.594661E-3,6.3718264E-3,4.5427876E-3,7.6954723E-3,-2.1893554E-3,5.7081315E-3,3.6932873E-3,9.846691E-3,-5.138134E-3,1.4791209E-2,2.2408461E-2,1.3892797E-2],"categories":[],"categories_nodes":[],"categories_segments":[],"categories_sizes":[],"default_left":[0,0,0,0,0,0,0,0,0,0,0,0,0,0,0,0,0,0,0,0,0,0,0,0,0,0,0,0,0,0,0,0,0,0,0,0,0,0,0,0,0,0,0,0,0],"id":3,"left_children":[1,3,5,7,9,11,13,15,17,-1,19,21,23,25,27,29,-1,-1,-1,-1,-1,31,33,35,37,39,-1,41,43,-1,-1,-1,-1,-1,-1,-1,-1,-1,-1,-1,-1,-1,-1,-1,-1],"loss_changes":[3.1853195E2,3.1968262E1,6.217789E1,7.445923E0,4.3893127E0,1.7815071E1,5.2760086E0,1.8123245E0,1.3259506E0,0E0,1.0309563E0,4.473215E0,2.7303085E0,1.3407631E0,2.6389923E0,1.0657997E0,0E0,0E0,0E0,0E0,0E0,3.6148155E0,1.1886861E0,1.6809692E0,9.519139E-1,8.7453365E-1,0E0,7.84256E-1,8.644638E-1,0E0,0E0,0E0,0E0,0E0,0E0,0E0,0E0,0E0,0E0,0E0,0E0,0E0,0E0,0E0,0E0],"parents":[2147483647,0,0,1,1,2,2,3,3,4,4,5,5,6,6,7,7,8,8,10,10,11,11,12,12,13,13,14,14,15,15,21,21,22,22,23,23,24,24,25,25,27,27,28,28],"right_children":[2,4,6,8,10,12,14,16,18,-1,20,22,24,26,28,30,-1,-1,-1,-1,-1,32,34,36,38,40,-1,42,44,-1,-1,-1,-1,-1,-1,-1,-1,-1,-1,-1,-1,-1,-1,-1,-1],"split_conditions":[1.755982E4,1.489109E4,2.135294E4,1.315993E4,1.606721E4,2.0138E4,2.201092E4,1.195271E4,1.430229E4,-2.6170297E-2,1.772487E4,2.007072E4,6E0,8.913728E0,2.3177E4,-1.86E3,-4.76727E-2,-3.8995057E-2,-3.1301796E-2,-1.7936358E-2,-9.881355E-3,1.848484E4,2.074E4,2.078385E4,2.016289E4,1.920791E4,1.3665597E-2,-7.5402E2,6E0,-7.81359E-2,-5.6237817E-2,-6.6157742E-3,-1.0403313E-3,1.594661E-3,6.3718264E-3,4.5427876E-3,7.6954723E-3,-2.1893554E-3,5.7081315E-3,3.6932873E-3,9.846691E-3,-5.138134E-3,1.4791209E-2,2.2408461E-2,1.3892797E-2],"split_indices":[22,22,23,22,23,23,22,22,23,0,23,24,9,36,23,37,0,0,0,0,0,22,22,23,24,31,0,37,9,0,0,0,0,0,0,0,0,0,0,0,0,0,0,0,0],"split_type":[0,0,0,0,0,0,0,0,0,0,0,0,0,0,0,0,0,0,0,0,0,0,0,0,0,0,0,0,0,0,0,0,0,0,0,0,0,0,0,0,0,0,0,0,0],"sum_hessian":[1.81102E5,1.9104E4,1.61998E5,8.528E3,1.0576E4,1.33603E5,2.8395E4,2.863E3,5.665E3,5.006E3,5.57E3,8.4441E4,4.9162E4,1.3395E4,1.5E4,7.17E2,2.146E3,3.397E3,2.268E3,4.342E3,1.228E3,6.7941E4,1.65E4,4.4082E4,5.08E3,8.474E3,4.921E3,9.12E3,5.88E3,1.87E2,5.3E2,7.911E3,6.003E4,1.23E4,4.2E3,2.8171E4,1.5911E4,3.879E3,1.201E3,1.751E3,6.723E3,1.2E2,9E3,5.04E3,8.4E2],"tree_param":{"num_deleted":"0","num_feature":"50","num_nodes":"45","size_leaf_vector":"1"}},{"base_weights":[2.483109E-5,-9.0907454E-2,1.0671093E-2,-1.1997558E-1,-6.7452766E-2,3.6871803E-3,4.3887988E-2,-1.2803815E-1,-1.3380732E-3,-7.280553E-2,-3.5986807E-3,-4.678191E-3,1.3888914E-2,3.7825253E-2,1.5529677E-2,-1.609542E-1,-2.8664405E-2,-2.0956615E-2,-1.56534E-2,-1.7011922E-2,-1.3674103E-3,1.583153E-2,-8.273905E-4,4.2387933E-2,5.180169E-3,-8.859385E-2,-3.7711658E-2,-8.3484715E-3,-1.4658041E-3,2.4328122E-3,-8.439166E-4,2.9504134E-3,5.785475E-3,9.492731E-3,1.4470212E-2],"categories":[],"categories_nodes":[],"categories_segments":[],"categories_sizes":[],"default_left":[0,0,0,0,0,0,0,0,0,0,0,0,0,0,0,0,0,0,0,0,0,0,0,0,0,0,0,0,0,0,0,0,0,0,0],"id":4,"left_children":[1,3,5,7,9,11,13,15,-1,17,-1,19,21,23,-1,25,-1,-1,-1,27,29,31,-1,33,-1,-1,-1,-1,-1,-1,-1,-1,-1,-1,-1],"loss_changes":[1.76114E2,1.2994263E1,3.7779083E1,7.8602905E0,2.9806442E0,1.1483704E1,3.3350182E0,2.9010925E0,0E0,1.0843582E0,0E0,3.0190935E0,2.0332355E0,1.6427746E0,0E0,2.838417E0,0E0,0E0,0E0,2.9413376E0,1.3653122E0,1.6069574E0,0E0,1.0326748E0,0E0,0E0,0E0,0E0,0E0,0E0,0E0,0E0,0E0,0E0,0E0],"parents":[2147483647,0,0,1,1,2,2,3,3,4,4,5,5,6,6,7,7,9,9,11,11,12,12,13,13,15,15,19,19,20,20,21,21,23,23],"right_children":[2,4,6,8,10,12,14,16,-1,18,-1,20,22,24,-1,26,-1,-1,-1,28,30,32,-1,34,-1,-1,-1,-1,-1,-1,-1,-1,-1,-1,-1],"split_conditions":[1.722011E4,1.473198E4,2.135294E4,3.59E1,2.051E3,1.991944E4,2.2857E4,1.281598E4,-1.3380732E-3,1.571841E4,-3.5986807E-3,1.865816E4,6E0,6E0,1.5529677E-2,-1.71114E3,-2.8664405E-2,-2.0956615E-2,-1.56534E-2,7.97E2,1E0,2.074E4,-8.273905E-4,2.28734E4,5.180169E-3,-8.859385E-2,-3.7711658E-2,-8.3484715E-3,-1.4658041E-3,2.4328122E-3,-8.439166E-4,2.9504134E-3,5.785475E-3,9.492731E-3,1.4470212E-2],"split_indices":[23,23,23,0,37,23,24,23,0,23,0,23,9,9,0,37,0,0,0,37,9,23,0,23,0,0,0,0,0,0,0,0,0,0,0],"split_type":[0,0,0,0,0,0,0,0,0,0,0,0,0,0,0,0,0,0,0,0,0,0,0,0,0,0,0,0,0,0,0,0,0,0,0],"sum_hessian":[1.81918E5,1.9066E4,1.62852E5,8.513E3,1.0553E4,1.34561E5,2.8291E4,7.953E3,5.6E2,9.581E3,9.72E2,7.3935E4,6.0626E4,2.157E4,6.721E3,2.007E3,5.946E3,3.967E3,5.614E3,1.5646E4,5.8289E4,5.4494E4,6.132E3,1.694E4,4.63E3,6.8E1,1.939E3,6.149E3,9.497E3,9.048E3,4.9241E4,3.6597E4,1.7897E4,1.3879E4,3.061E3],"tree_param":{"num_deleted":"0","num_feature":"50","num_nodes":"35","size_leaf_vector":"1"}},{"base_weights":[1.0427518E-4,-6.859061E-2,8.230787E-3,-8.956964E-2,-4.9743485E-2,1.99977E-3,2.9618813E-2,-1.125656E-1,-6.974667E-2,-5.643277E-2,-1.0696781E-3,-5.659081E-3,7.625844E-3,2.367966E-2,4.2438786E-2,-7.829868E-2,-2.697321E-2,-1.4423506E-2,-2.198553E-2,-1.793925E-2,-1.1815734E-2,-8.437552E-3,1.0578049E-3,9.947541E-4,3.1516182E-3,2.749651E-2,5.1118195E-4,9.27938E-3,1.54527165E-2,-7.8889625E-3,-1.3645879E-3,2.2593983E-3,7.450892E-3],"categories":[],"categories_nodes":[],"categories_segments":[],"categories_sizes":[],"default_left":[0,0,0,0,0,0,0,0,0,0,0,0,0,0,0,0,0,0,0,0,0,0,0,0,0,0,0,0,0,0,0,0,0],"id":5,"left_children":[1,3,5,7,9,11,13,15,17,19,-1,21,23,25,27,-1,-1,-1,-1,-1,-1,29,-1,-1,-1,31,-1,-1,-1,-1,-1,-1,-1],"loss_changes":[1.0073521E2,7.5447464E0,2.1504223E1,4.11261E0,3.0526752E0,5.384316E0,2.7711353E0,2.1837273E0,1.0523529E0,1.2064991E0,0E0,1.466454E0,1.3440905E0,2.0506392E0,1.0878925E0,0E0,0E0,0E0,0E0,0E0,0E0,2.8215501E0,0E0,0E0,0E0,1.1180258E0,0E0,0E0,0E0,0E0,0E0,0E0,0E0],"parents":[2147483647,0,0,1,1,2,2,3,3,4,4,5,5,6,6,7,7,8,8,9,9,11,11,12,12,13,13,14,14,21,21,25,25],"right_children":[2,4,6,8,10,12,14,16,18,20,-1,22,24,26,28,-1,-1,-1,-1,-1,-1,30,-1,-1,-1,32,-1,-1,-1,-1,-1,-1,-1],"split_conditions":[1.722011E4,1.5185363E4,2.108622E4,1.372113E4,3.015E3,1.95686E4,2.2601E4,-2.674E3,2.5881904E-1,1.540671E4,-1.0696781E-3,1.40681E3,2.036719E4,6E0,2.40443E4,-7.829868E-2,-2.697321E-2,-1.4423506E-2,-2.198553E-2,-1.793925E-2,-1.1815734E-2,1.821331E4,1.0578049E-3,9.947541E-4,3.1516182E-3,1.8880768E4,5.1118195E-4,9.27938E-3,1.54527165E-2,-7.8889625E-3,-1.3645879E-3,2.2593983E-3,7.450892E-3],"split_indices":[23,31,23,23,37,23,23,37,16,23,0,37,23,9,23,0,0,0,0,0,0,23,0,0,0,27,0,0,0,0,0,0,0],"split_type":[0,0,0,0,0,0,0,0,0,0,0,0,0,0,0,0,0,0,0,0,0,0,0,0,0,0,0,0,0,0,0,0,0],"sum_hessian":[1.80447E5,1.9088E4,1.61359E5,9.032E3,1.0056E4,1.24956E5,3.6403E4,4.18E3,4.852E3,8.764E3,1.292E3,5.2918E4,7.2038E4,2.4879E4,1.1524E4,5E1,4.13E3,3.136E3,1.716E3,2.89E3,5.874E3,4.1388E4,1.153E4,4.2816E4,2.9222E4,2.1142E4,3.737E3,9.424E3,2.1E3,4.466E3,3.6922E4,2.889E3,1.8253E4],"tree_param":{"num_deleted":"0","num_feature":"50","num_nodes":"33","size_leaf_vector":"1"}},{"base_weights":[6.924792E-5,-5.961018E-2,5.723598E-3,-8.8411406E-2,-4.878817E-2,-2.6828018E-5,1.9797806E-2,-2.714431E-2,-1.8925771E-2,-3.8474545E-2,-1.4246644E-2,-8.024872E-3,4.6554087E-3,1.4202609E-2,7.929473E-3,-1.2596831E-2,-6.3200663E-3,-1.3774507E-2,1.3138734E-4,1.040758E-3,1.1047002E-2,2.2186404E-3,4.3709273E-3,-5.9326063E-3,-1.7790489E-3,-1.8450003E-3,1.1462716E-3,-3.303976E-3,3.261447E-3,-1.0609458E-3,4.76394E-3],"categories":[],"categories_nodes":[],"categories_segments":[],"categories_sizes":[],"default_left":[0,0,0,0,0,0,0,0,0,0,0,0,0,0,0,0,0,0,0,0,0,0,0,0,0,0,0,0,0,0,0],"id":6,"left_children":[1,3,5,7,9,11,13,-1,-1,15,-1,17,19,21,-1,-1,-1,23,-1,25,27,29,-1,-1,-1,-1,-1,-1,-1,-1,-1],"loss_changes":[6.0449913E1,4.82959E0,1.324339E1,1.0539589E0,1.0818386E0,4.350467E0,3.3309975E0,0E0,0E0,8.7597513E-1,0E0,2.111428E0,1.6928842E0,1.4258847E0,0E0,0E0,0E0,1.7432895E0,0E0,1.457196E0,1.4640391E0,8.589761E-1,0E0,0E0,0E0,0E0,0E0,0E0,0E0,0E0,0E0],"parents":[2147483647,0,0,1,1,2,2,3,3,4,4,5,5,6,6,9,9,11,11,12,12,13,13,17,17,19,19,20,20,21,21],"right_children":[2,4,6,8,10,12,14,-1,-1,16,-1,18,20,22,-1,-1,-1,24,-1,26,28,30,-1,-1,-1,-1,-1,-1,-1,-1,-1],"split_conditions":[1.662614E4,1.365483E4,2.081144E4,1.251072E4,2.5881904E-1,1.9403E4,2.176355E4,-2.714431E-2,-1.8925771E-2,9.550423E0,-1.4246644E-2,1.914324E4,9.151841E0,-8.660254E-1,7.929473E-3,-1.2596831E-2,-6.3200663E-3,1.889834E4,1.3138734E-4,1.4E1,4.2E1,2.2566E4,4.3709273E-3,-5.9326063E-3,-1.7790489E-3,-1.8450003E-3,1.1462716E-3,-3.303976E-3,3.261447E-3,-1.0609458E-3,4.76394E-3],"split_indices":[22,22,22,22,16,23,24,0,0,36,0,24,36,15,0,0,0,22,0,8,2,22,0,0,0,0,0,0,0,0,0],"split_type":[0,0,0,0,0,0,0,0,0,0,0,0,0,0,0,0,0,0,0,0,0,0,0,0,0,0,0,0,0,0,0],"sum_hessian":[1.79137E5,1.5503E4,1.63634E5,4.233E3,1.127E4,1.1617E5,4.7464E4,1.415E3,2.818E3,5.351E3,5.919E3,4.2896E4,7.3274E4,3.2824E4,1.464E4,2.653E3,2.698E3,2.5661E4,1.7235E4,4.6805E4,2.6469E4,7.623E3,2.5201E4,9.873E3,1.5788E4,1.3943E4,3.2862E4,2.229E3,2.424E4,5.523E3,2.1E3],"tree_param":{"num_deleted":"0","num_feature":"50","num_nodes":"31","size_leaf_vector":"1"}},{"base_weights":[-1.6086984E-4,-4.0391974E-2,4.0018335E-3,-5.919397E-2,-3.131168E-2,8.831564E-4,2.0187289E-2,-9.622266E-2,-1.350136E-2,-5.927749E-3,-1.0242022E-2,4.2256922E-3,-6.589382E-3,2.2733158E-2,-1.4121166E-3,-2.0970519E-1,-2.03337E-2,9.947277E-4,2.6521608E-3,-7.7351267E-3,-3.5167646E-3,4.5598093E-3,7.67225E-3,-2.2783779E-2,-9.5079206E-2,1.2641795E-3,-8.754706E-4,-1.905584E-3,3.9537868E-4],"categories":[],"categories_nodes":[],"categories_segments":[],"categories_sizes":[],"default_left":[0,0,0,0,0,0,0,0,0,0,0,0,0,0,0,0,0,0,0,0,0,0,0,0,0,0,0,0,0],"id":7,"left_children":[1,3,5,7,9,11,13,15,-1,-1,-1,17,19,21,-1,23,-1,25,-1,-1,27,-1,-1,-1,-1,-1,-1,-1,-1],"loss_changes":[3.0329386E1,2.898075E0,8.2843895E0,8.4165E-1,8.541975E-1,3.4370744E0,1.751564E0,8.2402086E-1,0E0,0E0,0E0,2.0248847E0,3.2615662E0,8.5427284E-1,0E0,1.1759079E0,0E0,1.2122219E0,0E0,0E0,8.265946E-1,0E0,0E0,0E0,0E0,0E0,0E0,0E0,0E0],"parents":[2147483647,0,0,1,1,2,2,3,3,4,4,5,5,6,6,7,7,11,11,12,12,13,13,15,15,17,17,20,20],"right_children":[2,4,6,8,10,12,14,16,-1,-1,-1,18,20,22,-1,24,-1,26,-1,-1,28,-1,-1,-1,-1,-1,-1,-1,-1],"split_conditions":[1.894741E4,1.418416E4,2.121898E4,1.2342458E4,-1.8369701E-16,-2.5881904E-1,2.384E1,1.4E2,-1.350136E-2,-5.927749E-3,-1.0242022E-2,1.8541146E4,1.84345E4,2.2866E4,-1.4121166E-3,7.9E1,-2.03337E-2,1.2E1,2.6521608E-3,-7.7351267E-3,2.3623E4,4.5598093E-3,7.67225E-3,-2.2783779E-2,-9.5079206E-2,1.2641795E-3,-8.754706E-4,-1.905584E-3,3.9537868E-4],"split_indices":[32,25,24,27,16,16,5,10,0,0,0,33,33,25,0,6,0,8,0,0,32,0,0,0,0,0,0,0,0],"split_type":[0,0,0,0,0,0,0,0,0,0,0,0,0,0,0,0,0,0,0,0,0,0,0,0,0,0,0,0,0],"sum_hessian":[1.81102E5,1.6981E4,1.64121E5,5.529E3,1.1452E4,1.37607E5,2.6514E4,5.53E2,4.976E3,6.81E3,4.642E3,9.5078E4,4.2529E4,2.4145E4,2.369E3,5.7E1,4.96E2,6.3804E4,3.1274E4,4.661E3,3.7868E4,1.6281E4,7.864E3,3.5E1,2.2E1,3.3379E4,3.0425E4,2.0697E4,1.7171E4],"tree_param":{"num_deleted":"0","num_feature":"50","num_nodes":"29","size_leaf_vector":"1"}},{"base_weights":[-1.9442251E-4,-2.8744109E-2,3.539669E-3,-4.3345474E-2,-2.1375844E-2,1.161579E-3,1.5431326E-2,-9.8472044E-2,-9.985351E-3,-2.082937E-3,-7.1522845E-3,-1.7230279E-3,1.2167679E-3,1.8346736E-2,5.281492E-4,-9.4394244E-2,-2.0962223E-2,-1.1467942E-3,3.0601353E-3,3.9023638E-3,8.525405E-3,1.3137064E-3,-2.6010878E-3],"categories":[],"categories_nodes":[],"categories_segments":[],"categories_sizes":[],"default_left":[0,0,0,0,0,0,0,0,0,0,0,0,0,0,0,0,0,0,0,0,0,0,0],"id":8,"left_children":[1,3,5,7,9,11,13,15,-1,-1,-1,17,-1,19,-1,-1,-1,-1,21,-1,-1,-1,-1],"loss_changes":[1.9336746E1,2.2565498E0,4.536112E0,1.013176E0,1.4000545E0,1.4657168E0,1.0347157E0,1.1639526E0,0E0,0E0,0E0,1.0739669E0,0E0,8.7464094E-1,0E0,0E0,0E0,0E0,9.115577E-1,0E0,0E0,0E0,0E0],"parents":[2147483647,0,0,1,1,2,2,3,3,4,4,5,5,6,6,7,7,11,11,13,13,18,18],"right_children":[2,4,6,8,10,12,14,16,-1,-1,-1,18,-1,20,-1,-1,-1,-1,22,-1,-1,-1,-1],"split_conditions":[1.7532E4,1.662785E4,2.1395E4,-1.8066E3,-1.8369701E-16,1.974547E4,6E0,1.236561E4,-9.985351E-3,-2.082937E-3,-7.1522845E-3,1.9784E4,1.2167679E-3,2.3572E4,5.281492E-4,-9.4394244E-2,-2.0962223E-2,-1.1467942E-3,6E0,3.9023638E-3,8.525405E-3,1.3137064E-3,-2.6010878E-3],"split_indices":[23,32,23,37,16,24,9,25,0,0,0,23,0,25,0,0,0,0,9,0,0,0,0],"split_type":[0,0,0,0,0,0,0,0,0,0,0,0,0,0,0,0,0,0,0,0,0,0,0],"sum_hessian":[1.81382E5,2.0979E4,1.60403E5,7.035E3,1.3944E4,1.33672E5,2.6731E4,3.18E2,6.717E3,5.258E3,8.686E3,7.5999E4,5.7673E4,2.1918E4,4.813E3,1.3E1,3.05E2,4.6981E4,2.9018E4,1.9094E4,2.824E3,2.4842E4,4.176E3],"tree_param":{"num_deleted":"0","num_feature":"50","num_nodes":"23","size_leaf_vector":"1"}},{"base_weights":[-1.0709369E-4,-3.2630093E-2,2.0605915E-3,-3.7270628E-2,-3.5469201E-3,-1.8549927E-3,8.772659E-3,-1.39466515E-2,-7.673471E-3,-4.4186544E-3,3.8300508E-3,4.4580884E-3,1.54028535E-2,-1.6807517E-2,-2.4280301E-3,-3.2065604E-3,6.4583835E-3,2.234515E-3,-9.9792764E-5,4.7295727E-3,1.4173012E-3,-4.437597E-3,2.1527985E-2,-1.8426222E-3,1.1983218E-5,1.2997117E-4,3.581063E-3],"categories":[],"categories_nodes":[],"categories_segments":[],"categories_sizes":[],"default_left":[0,0,0,0,0,0,0,0,0,0,0,0,0,0,0,0,0,0,0,0,0,0,0,0,0,0,0],"id":9,"left_children":[1,3,5,7,-1,9,11,-1,-1,13,15,17,19,21,23,-1,25,-1,-1,-1,-1,-1,-1,-1,-1,-1,-1],"loss_changes":[1.2738592E1,9.513302E-1,4.4521146E0,1.0523958E0,0E0,1.559305E0,1.7853603E0,0E0,0E0,1.8184355E0,1.4777918E0,8.5641056E-1,9.2023706E-1,1.380518E0,8.0053383E-1,0E0,1.3900228E0,0E0,0E0,0E0,0E0,0E0,0E0,0E0,0E0,0E0,0E0],"parents":[2147483647,0,0,1,1,2,2,3,3,5,5,6,6,9,9,10,10,11,11,12,12,13,13,14,14,16,16],"right_children":[2,4,6,8,-1,10,12,-1,-1,14,16,18,20,22,24,-1,26,-1,-1,-1,-1,-1,-1,-1,-1,-1,-1],"split_conditions":[1.55849E4,9.659258E-1,2.049986E4,1.315993E4,-3.5469201E-3,1.088E1,5.058E2,-1.39466515E-2,-7.673471E-3,1.871616E4,7E0,-3.869579E-2,8.744E2,2.2538E4,1.4E1,-3.2065604E-3,1.91446E4,2.234515E-3,-9.9792764E-5,4.7295727E-3,1.4173012E-3,-4.437597E-3,2.1527985E-2,-1.8426222E-3,1.1983218E-5,1.2997117E-4,3.581063E-3],"split_indices":[22,15,22,22,0,36,35,0,0,22,8,19,35,23,8,0,22,0,0,0,0,0,0,0,0,0,0],"split_type":[0,0,0,0,0,0,0,0,0,0,0,0,0,0,0,0,0,0,0,0,0,0,0,0,0,0,0],"sum_hessian":[1.80689E5,1.129E4,1.69399E5,8.992E3,2.298E3,1.06987E5,6.2412E4,2.098E3,6.894E3,7.3736E4,3.3251E4,3.7809E4,2.4603E4,1.0207E4,6.3529E4,4.473E3,2.8778E4,1.932E4,1.8489E4,1.7523E4,7.08E3,1.0083E4,1.24E2,2.0802E4,4.2727E4,1.6658E4,1.212E4],"tree_param":{"num_deleted":"0","num_feature":"50","num_nodes":"27","size_leaf_vector":"1"}},{"base_weights":[-2.2590608E-5,-2.312109E-2,1.721827E-3,-1.8689618E-2,-5.3563123E-3,2.2993953E-4,3.2121341E-3,-6.118985E-3,1.8525677E-3,-2.2764018E-2,-9.949036E-4,-2.3767662E-3,3.795273E-3,1.4589807E-2,-6.3915583E-3,-1.5593764E-3,9.027989E-4,3.4758257E-4,2.1837407E-3],"categories":[],"categories_nodes":[],"categories_segments":[],"categories_sizes":[],"default_left":[0,0,0,0,0,0,0,0,0,0,0,0,0,0,0,0,0,0,0],"id":10,"left_children":[1,3,5,-1,-1,7,-1,9,11,13,-1,15,17,-1,-1,-1,-1,-1,-1],"loss_changes":[7.268541E0,8.563576E-1,2.8473897E0,0E0,0E0,1.5276166E0,0E0,1.0354663E0,9.703616E-1,9.05193E-1,0E0,8.972058E-1,9.8350394E-1,0E0,0E0,0E0,0E0,0E0,0E0],"parents":[2147483647,0,0,1,1,2,2,5,5,7,7,8,8,9,9,11,11,12,12],"right_children":[2,4,6,-1,-1,8,-1,10,12,14,-1,16,18,-1,-1,-1,-1,-1,-1],"split_conditions":[1.591251E4,-2.674E3,2.201092E4,-1.8689618E-2,-5.3563123E-3,-7.0710677E-1,3.2121341E-3,1.932481E4,1.926956E4,-3.046E3,-9.949036E-4,7.0710677E-1,1.4E1,1.4589807E-2,-6.3915583E-3,-1.5593764E-3,9.027989E-4,3.4758257E-4,2.1837407E-3],"split_indices":[22,37,22,0,0,15,0,22,22,37,0,15,8,0,0,0,0,0,0],"split_type":[0,0,0,0,0,0,0,0,0,0,0,0,0,0,0,0,0,0,0],"sum_hessian":[1.80389E5,1.2666E4,1.67723E5,2.96E2,1.237E4,1.48283E5,1.944E4,3.0183E4,1.181E5,3.325E3,2.6858E4,3.7173E4,8.0927E4,1.28E2,3.197E3,2.2428E4,1.4745E4,5.5235E4,2.5692E4],"tree_param":{"num_deleted":"0","num_feature":"50","num_nodes":"19","size_leaf_vector":"1"}},{"base_weights":[4.9473452E-5,-5.323837E-3,1.2124984E-3,-1.808919E-3,4.715945E-3,-3.5086037E-3,-1.0690389E-3,-1.0165806E-3,6.1285724E-3,-1.5855585E-3,1.2595493E-3,2.5492446E-3,3.8441972E-4,-2.130658E-3,1.0721574E-3],"categories":[],"categories_nodes":[],"categories_segments":[],"categories_sizes":[],"default_left":[0,0,0,0,0,0,0,0,0,0,0,0,0,0,0],"id":11,"left_children":[1,-1,3,5,7,-1,9,-1,11,-1,13,-1,-1,-1,-1],"loss_changes":[4.575799E0,0E0,1.816547E0,8.5227895E-1,9.948467E-1,0E0,1.0934943E0,0E0,1.3344061E0,0E0,1.8827677E0,0E0,0E0,0E0,0E0],"parents":[2147483647,0,0,2,2,3,3,4,4,6,6,8,8,10,10],"right_children":[2,-1,4,6,8,-1,10,-1,12,-1,14,-1,-1,-1,-1],"split_conditions":[1.506751E4,-5.323837E-3,2.0211E4,5E0,-9.659258E-1,-3.5086037E-3,-5E-1,-1.0165806E-3,-5E-1,-1.5855585E-3,-8.660254E-1,2.5492446E-3,3.8441972E-4,-2.130658E-3,1.0721574E-3],"split_indices":[22,0,22,8,16,0,15,0,16,0,16,0,0,0,0],"split_type":[0,0,0,0,0,0,0,0,0,0,0,0,0,0,0],"sum_hessian":[1.80778E5,9.17E3,1.71608E5,9.2143E4,7.9465E4,5.148E3,8.6995E4,1.0925E4,6.854E4,2.6218E4,6.0777E4,3.5402E4,3.3138E4,1.4485E4,4.6292E4],"tree_param":{"num_deleted":"0","num_feature":"50","num_nodes":"15","size_leaf_vector":"1"}},{"base_weights":[-2.599247E-4,1.7369478E-3,-6.46138E-3,5.0477083E-3,-1.8817576E-4,-3.5229146E-3,-6.655142E-4,1.5003167E-3,-2.167646E-3],"categories":[],"categories_nodes":[],"categories_segments":[],"categories_sizes":[],"default_left":[0,0,0,0,0,0,0,0,0],"id":12,"left_children":[1,3,5,7,-1,-1,-1,-1,-1],"loss_changes":[2.2307563E0,1.1298423E0,1.2999821E0,8.734124E-1,0E0,0E0,0E0,0E0,0E0],"parents":[2147483647,0,0,1,1,2,2,3,3],"right_children":[2,4,6,8,-1,-1,-1,-1,-1],"split_conditions":[-1.8369701E-16,-4.2764622E-1,1.9037922E4,1.4E-1,-1.8817576E-4,-3.5229146E-3,-6.655142E-4,1.5003167E-3,-2.167646E-3],"split_indices":[16,20,33,3,0,0,0,0,0],"split_type":[0,0,0,0,0,0,0,0,0],"sum_hessian":[1.80138E5,1.36262E5,4.3876E4,5.8684E4,7.7578E4,1.4106E4,2.977E4,5.4481E4,4.203E3],"tree_param":{"num_deleted":"0","num_feature":"50","num_nodes":"9","size_leaf_vector":"1"}},{"base_weights":[3.4916593E-4,-5.464978E-3,1.953821E-3,-2.6723181E-3,-2.910489E-4,1.5204788E-4,6.914319E-3,1.7991173E-4,2.8278641E-3],"categories":[],"categories_nodes":[],"categories_segments":[],"categories_sizes":[],"default_left":[0,0,0,0,0,0,0,0,0],"id":13,"left_children":[1,3,5,-1,-1,-1,7,-1,-1],"loss_changes":[1.6764278E0,9.0354216E-1,9.316271E-1,0E0,0E0,0E0,8.5192263E-1,0E0,0E0],"parents":[2147483647,0,0,1,1,2,2,6,6],"right_children":[2,4,6,-1,-1,-1,8,-1,-1],"split_conditions":[1.7200715E4,5.9166036E0,3.88E1,-2.6723181E-3,-2.910489E-4,1.5204788E-4,-8.660254E-1,1.7991173E-4,2.8278641E-3],"split_indices":[27,36,7,0,0,0,16,0,0],"split_type":[0,0,0,0,0,0,0,0,0],"sum_hessian":[1.79686E5,3.8865E4,1.40821E5,1.7118E4,2.1747E4,1.10983E5,2.9838E4,1.2763E4,1.7075E4],"tree_param":{"num_deleted":"0","num_feature":"50","num_nodes":"9","size_leaf_vector":"1"}},{"base_weights":[1.1439782E-4,9.111572E-4,-1.8466517E-3,2.3103508E-3,-3.581187E-3,2.0135353E-4,2.187163E-3,-1.491166E-3,1.3166112E-3],"categories":[],"categories_nodes":[],"categories_segments":[],"categories_sizes":[],"default_left":[0,0,0,0,0,0,0,0,0],"id":14,"left_children":[1,3,-1,5,7,-1,-1,-1,-1],"loss_changes":[1.1073896E0,1.0347354E0,0E0,1.2355683E0,8.751639E-1,0E0,0E0,0E0,0E0],"parents":[2147483647,0,0,1,1,3,3,4,4],"right_children":[2,4,-1,6,8,-1,-1,-1,-1],"split_conditions":[6E0,-1.8369701E-16,-1.8466517E-3,2.2395E4,2.2E1,2.0135353E-4,2.187163E-3,-1.491166E-3,1.3166112E-3],"split_indices":[9,16,0,32,8,0,0,0,0],"split_type":[0,0,0,0,0,0,0,0,0],"sum_hessian":[1.8177E5,1.64617E5,1.7153E4,1.25522E5,3.9095E4,1.02445E5,2.3077E4,3.0558E4,8.537E3],"tree_param":{"num_deleted":"0","num_feature":"50","num_nodes":"9","size_leaf_vector":"1"}},{"base_weights":[3.4472025E-5,-5.273577E-3,1.7369688E-3,-6.9794636E-3,-1.1017256E-3,3.1201413E-4,1.5309082E-3,-1.2400073E-3,2.2501668E-3,6.361659E-5,2.458556E-3],"categories":[],"categories_nodes":[],"categories_segments":[],"categories_sizes":[],"default_left":[0,0,0,0,0,0,0,0,0,0,0],"id":15,"left_children":[1,3,5,-1,-1,7,-1,-1,9,-1,-1],"loss_changes":[1.6431702E0,7.987708E-1,8.841761E-1,0E0,0E0,1.0886005E0,0E0,0E0,1.189976E0,0E0,0E0],"parents":[2147483647,0,0,1,1,2,2,5,5,8,8],"right_children":[2,4,6,-1,-1,8,-1,-1,10,-1,-1],"split_conditions":[1.907423E4,1.251072E4,7.785277E0,-6.9794636E-3,-1.1017256E-3,-8.660254E-1,1.5309082E-3,-1.2400073E-3,7.174E2,6.361659E-5,2.458556E-3],"split_indices":[22,22,36,0,0,16,0,0,2,0,0],"split_type":[0,0,0,0,0,0,0,0,0,0,0],"sum_hessian":[1.81827E5,4.4156E4,1.37671E5,1.436E3,4.272E4,1.04601E5,3.307E4,2.7742E4,7.6859E4,6.1196E4,1.5663E4],"tree_param":{"num_deleted":"0","num_feature":"50","num_nodes":"11","size_leaf_vector":"1"}},{"base_weights":[-5.6544486E-5],"categories":[],"categories_nodes":[],"categories_segments":[],"categories_sizes":[],"default_left":[0],"id":16,"left_children":[-1],"loss_changes":[0E0],"parents":[2147483647],"right_children":[-1],"split_conditions":[-1.3863539E-5],"split_indices":[0],"split_type":[0],"sum_hessian":[1.81114E5],"tree_param":{"num_deleted":"0","num_feature":"50","num_nodes":"1","size_leaf_vector":"1"}},{"base_weights":[-2.0296247E-5,-1.2829525E-3,2.6782588E-4],"categories":[],"categories_nodes":[],"categories_segments":[],"categories_sizes":[],"default_left":[0,0,0],"id":17,"left_children":[1,-1,-1],"loss_changes":[1.0481688E0,0E0,0E0],"parents":[2147483647,0,0],"right_children":[2,-1,-1],"split_conditions":[1.860547E4,-1.2829525E-3,2.6782588E-4],"split_indices":[22,0,0],"split_type":[0,0,0],"sum_hessian":[1.80728E5,3.1792E4,1.48936E5],"tree_param":{"num_deleted":"0","num_feature":"50","num_nodes":"3","size_leaf_vector":"1"}},{"base_weights":[6.951211E-5,-4.9071223E-4,6.367E-4],"categories":[],"categories_nodes":[],"categories_segments":[],"categories_sizes":[],"default_left":[0,0,0],"id":18,"left_children":[1,-1,-1],"loss_changes":[9.437638E-1,0E0,0E0],"parents":[2147483647,0,0],"right_children":[2,-1,-1],"split_conditions":[2.018392E4,-4.9071223E-4,6.367E-4],"split_indices":[22,0,0],"split_type":[0,0,0],"sum_hessian":[1.80311E5,9.9104E4,8.1207E4],"tree_param":{"num_deleted":"0","num_feature":"50","num_nodes":"3","size_leaf_vector":"1"}},{"base_weights":[-2.1017883E-4],"categories":[],"categories_nodes":[],"categories_segments":[],"categories_sizes":[],"default_left":[0],"id":19,"left_children":[-1],"loss_changes":[0E0],"parents":[2147483647],"right_children":[-1],"split_conditions":[-5.1531504E-5],"split_indices":[0],"split_type":[0],"sum_hessian":[1.82213E5],"tree_param":{"num_deleted":"0","num_feature":"50","num_nodes":"1","size_leaf_vector":"1"}},{"base_weights":[1.2723933E-4],"categories":[],"categories_nodes":[],"categories_segments":[],"categories_sizes":[],"default_left":[0],"id":20,"left_children":[-1],"loss_changes":[0E0],"parents":[2147483647],"right_children":[-1],"split_conditions":[3.1196454E-5],"split_indices":[0],"split_type":[0],"sum_hessian":[1.80917E5],"tree_param":{"num_deleted":"0","num_feature":"50","num_nodes":"1","size_leaf_vector":"1"}},{"base_weights":[5.59175E-5],"categories":[],"categories_nodes":[],"categories_segments":[],"categories_sizes":[],"default_left":[0],"id":21,"left_children":[-1],"loss_changes":[0E0],"parents":[2147483647],"right_children":[-1],"split_conditions":[1.3709815E-5],"split_indices":[0],"split_type":[0],"sum_hessian":[1.78881E5],"tree_param":{"num_deleted":"0","num_feature":"50","num_nodes":"1","size_leaf_vector":"1"}},{"base_weights":[3.312718E-5,-2.8388293E-3,9.967633E-5],"categories":[],"categories_nodes":[],"categories_segments":[],"categories_sizes":[],"default_left":[0,0,0],"id":22,"left_children":[1,-1,-1],"loss_changes":[7.8499347E-1,0E0,0E0],"parents":[2147483647,0,0],"right_children":[2,-1,-1],"split_conditions":[1.407233E4,-2.8388293E-3,9.967633E-5],"split_indices":[22,0,0],"split_type":[0,0,0],"sum_hessian":[1.81039E5,5.64E3,1.75399E5],"tree_param":{"num_deleted":"0","num_feature":"50","num_nodes":"3","size_leaf_vector":"1"}},{"base_weights":[4.984269E-6],"categories":[],"categories_nodes":[],"categories_segments":[],"categories_sizes":[],"default_left":[0],"id":23,"left_children":[-1],"loss_changes":[0E0],"parents":[2147483647],"right_children":[-1],"split_conditions":[1.2220397E-6],"split_indices":[0],"split_type":[0],"sum_hessian":[1.80762E5],"tree_param":{"num_deleted":"0","num_feature":"50","num_nodes":"1","size_leaf_vector":"1"}},{"base_weights":[-7.505377E-5],"categories":[],"categories_nodes":[],"categories_segments":[],"categories_sizes":[],"default_left":[0],"id":24,"left_children":[-1],"loss_changes":[0E0],"parents":[2147483647],"right_children":[-1],"split_conditions":[-1.8401633E-5],"split_indices":[0],"split_type":[0],"sum_hessian":[1.8238E5],"tree_param":{"num_deleted":"0","num_feature":"50","num_nodes":"1","size_leaf_vector":"1"}},{"base_weights":[9.353786E-5],"categories":[],"categories_nodes":[],"categories_segments":[],"categories_sizes":[],"default_left":[0],"id":25,"left_children":[-1],"loss_changes":[0E0],"parents":[2147483647],"right_children":[-1],"split_conditions":[2.2933551E-5],"split_indices":[0],"split_type":[0],"sum_hessian":[1.80692E5],"tree_param":{"num_deleted":"0","num_feature":"50","num_nodes":"1","size_leaf_vector":"1"}},{"base_weights":[-7.855093E-5],"categories":[],"categories_nodes":[],"categories_segments":[],"categories_sizes":[],"default_left":[0],"id":26,"left_children":[-1],"loss_changes":[0E0],"parents":[2147483647],"right_children":[-1],"split_conditions":[-1.9259065E-5],"split_indices":[0],"split_type":[0],"sum_hessian":[1.81068E5],"tree_param":{"num_deleted":"0","num_feature":"50","num_nodes":"1","size_leaf_vector":"1"}},{"base_weights":[9.934713E-6],"categories":[],"categories_nodes":[],"categories_segments":[],"categories_sizes":[],"default_left":[0],"id":27,"left_children":[-1],"loss_changes":[0E0],"parents":[2147483647],"right_children":[-1],"split_conditions":[2.4357862E-6],"split_indices":[0],"split_type":[0],"sum_hessian":[1.80909E5],"tree_param":{"num_deleted":"0","num_feature":"50","num_nodes":"1","size_leaf_vector":"1"}},{"base_weights":[7.178112E-5],"categories":[],"categories_nodes":[],"categories_segments":[],"categories_sizes":[],"default_left":[0],"id":28,"left_children":[-1],"loss_changes":[0E0],"parents":[2147483647],"right_children":[-1],"split_conditions":[1.7599246E-5],"split_indices":[0],"split_type":[0],"sum_hessian":[1.80443E5],"tree_param":{"num_deleted":"0","num_feature":"50","num_nodes":"1","size_leaf_vector":"1"}},{"base_weights":[1.3099535E-4],"categories":[],"categories_nodes":[],"categories_segments":[],"categories_sizes":[],"default_left":[0],"id":29,"left_children":[-1],"loss_changes":[0E0],"parents":[2147483647],"right_children":[-1],"split_conditions":[3.211735E-5],"split_indices":[0],"split_type":[0],"sum_hessian":[1.79902E5],"tree_param":{"num_deleted":"0","num_feature":"50","num_nodes":"1","size_leaf_vector":"1"}},{"base_weights":[-8.8733956E-5],"categories":[],"categories_nodes":[],"categories_segments":[],"categories_sizes":[],"default_left":[0],"id":30,"left_children":[-1],"loss_changes":[0E0],"parents":[2147483647],"right_children":[-1],"split_conditions":[-2.1755732E-5],"split_indices":[0],"split_type":[0],"sum_hessian":[1.79936E5],"tree_param":{"num_deleted":"0","num_feature":"50","num_nodes":"1","size_leaf_vector":"1"}},{"base_weights":[1.2175776E-4],"categories":[],"categories_nodes":[],"categories_segments":[],"categories_sizes":[],"default_left":[0],"id":31,"left_children":[-1],"loss_changes":[0E0],"parents":[2147483647],"right_children":[-1],"split_conditions":[2.9852485E-5],"split_indices":[0],"split_type":[0],"sum_hessian":[1.81668E5],"tree_param":{"num_deleted":"0","num_feature":"50","num_nodes":"1","size_leaf_vector":"1"}},{"base_weights":[-6.814144E-5],"categories":[],"categories_nodes":[],"categories_segments":[],"categories_sizes":[],"default_left":[0],"id":32,"left_children":[-1],"loss_changes":[0E0],"parents":[2147483647],"right_children":[-1],"split_conditions":[-1.6706872E-5],"split_indices":[0],"split_type":[0],"sum_hessian":[1.80643E5],"tree_param":{"num_deleted":"0","num_feature":"50","num_nodes":"1","size_leaf_vector":"1"}},{"base_weights":[-3.8541104E-5],"categories":[],"categories_nodes":[],"categories_segments":[],"categories_sizes":[],"default_left":[0],"id":33,"left_children":[-1],"loss_changes":[0E0],"parents":[2147483647],"right_children":[-1],"split_conditions":[-9.449482E-6],"split_indices":[0],"split_type":[0],"sum_hessian":[1.81406E5],"tree_param":{"num_deleted":"0","num_feature":"50","num_nodes":"1","size_leaf_vector":"1"}},{"base_weights":[-1.5674549E-4],"categories":[],"categories_nodes":[],"categories_segments":[],"categories_sizes":[],"default_left":[0],"id":34,"left_children":[-1],"loss_changes":[0E0],"parents":[2147483647],"right_children":[-1],"split_conditions":[-3.8430753E-5],"split_indices":[0],"split_type":[0],"sum_hessian":[1.81465E5],"tree_param":{"num_deleted":"0","num_feature":"50","num_nodes":"1","size_leaf_vector":"1"}},{"base_weights":[1.5575639E-5],"categories":[],"categories_nodes":[],"categories_segments":[],"categories_sizes":[],"default_left":[0],"id":35,"left_children":[-1],"loss_changes":[0E0],"parents":[2147483647],"right_children":[-1],"split_conditions":[3.8188246E-6],"split_indices":[0],"split_type":[0],"sum_hessian":[1.80787E5],"tree_param":{"num_deleted":"0","num_feature":"50","num_nodes":"1","size_leaf_vector":"1"}},{"base_weights":[2.2374605E-5],"categories":[],"categories_nodes":[],"categories_segments":[],"categories_sizes":[],"default_left":[0],"id":36,"left_children":[-1],"loss_changes":[0E0],"parents":[2147483647],"right_children":[-1],"split_conditions":[5.4857906E-6],"split_indices":[0],"split_type":[0],"sum_hessian":[1.83732E5],"tree_param":{"num_deleted":"0","num_feature":"50","num_nodes":"1","size_leaf_vector":"1"}},{"base_weights":[1.1757872E-4],"categories":[],"categories_nodes":[],"categories_segments":[],"categories_sizes":[],"default_left":[0],"id":37,"left_children":[-1],"loss_changes":[0E0],"parents":[2147483647],"right_children":[-1],"split_conditions":[2.8827872E-5],"split_indices":[0],"split_type":[0],"sum_hessian":[1.81869E5],"tree_param":{"num_deleted":"0","num_feature":"50","num_nodes":"1","size_leaf_vector":"1"}},{"base_weights":[-2.6859643E-4],"categories":[],"categories_nodes":[],"categories_segments":[],"categories_sizes":[],"default_left":[0],"id":38,"left_children":[-1],"loss_changes":[0E0],"parents":[2147483647],"right_children":[-1],"split_conditions":[-6.585429E-5],"split_indices":[0],"split_type":[0],"sum_hessian":[1.80134E5],"tree_param":{"num_deleted":"0","num_feature":"50","num_nodes":"1","size_leaf_vector":"1"}},{"base_weights":[9.745249E-5],"categories":[],"categories_nodes":[],"categories_segments":[],"categories_sizes":[],"default_left":[0],"id":39,"left_children":[-1],"loss_changes":[0E0],"parents":[2147483647],"right_children":[-1],"split_conditions":[2.3893335E-5],"split_indices":[0],"split_type":[0],"sum_hessian":[1.80916E5],"tree_param":{"num_deleted":"0","num_feature":"50","num_nodes":"1","size_leaf_vector":"1"}},{"base_weights":[-1.1231596E-5],"categories":[],"categories_nodes":[],"categories_segments":[],"categories_sizes":[],"default_left":[0],"id":40,"left_children":[-1],"loss_changes":[0E0],"parents":[2147483647],"right_children":[-1],"split_conditions":[-2.753755E-6],"split_indices":[0],"split_type":[0],"sum_hessian":[1.79978E5],"tree_param":{"num_deleted":"0","num_feature":"50","num_nodes":"1","size_leaf_vector":"1"}},{"base_weights":[-8.246549E-6],"categories":[],"categories_nodes":[],"categories_segments":[],"categories_sizes":[],"default_left":[0],"id":41,"left_children":[-1],"loss_changes":[0E0],"parents":[2147483647],"right_children":[-1],"split_conditions":[-2.0218833E-6],"split_indices":[0],"split_type":[0],"sum_hessian":[1.8141E5],"tree_param":{"num_deleted":"0","num_feature":"50","num_nodes":"1","size_leaf_vector":"1"}},{"base_weights":[1.4319287E-4],"categories":[],"categories_nodes":[],"categories_segments":[],"categories_sizes":[],"default_left":[0],"id":42,"left_children":[-1],"loss_changes":[0E0],"parents":[2147483647],"right_children":[-1],"split_conditions":[3.5107932E-5],"split_indices":[0],"split_type":[0],"sum_hessian":[1.82696E5],"tree_param":{"num_deleted":"0","num_feature":"50","num_nodes":"1","size_leaf_vector":"1"}},{"base_weights":[-1.1429801E-4],"categories":[],"categories_nodes":[],"categories_segments":[],"categories_sizes":[],"default_left":[0],"id":43,"left_children":[-1],"loss_changes":[0E0],"parents":[2147483647],"right_children":[-1],"split_conditions":[-2.8023509E-5],"split_indices":[0],"split_type":[0],"sum_hessian":[1.82394E5],"tree_param":{"num_deleted":"0","num_feature":"50","num_nodes":"1","size_leaf_vector":"1"}},{"base_weights":[-2.0832979E-4],"categories":[],"categories_nodes":[],"categories_segments":[],"categories_sizes":[],"default_left":[0],"id":44,"left_children":[-1],"loss_changes":[0E0],"parents":[2147483647],"right_children":[-1],"split_conditions":[-5.1078157E-5],"split_indices":[0],"split_type":[0],"sum_hessian":[1.81649E5],"tree_param":{"num_deleted":"0","num_feature":"50","num_nodes":"1","size_leaf_vector":"1"}},{"base_weights":[1.1932564E-4],"categories":[],"categories_nodes":[],"categories_segments":[],"categories_sizes":[],"default_left":[0],"id":45,"left_children":[-1],"loss_changes":[0E0],"parents":[2147483647],"right_children":[-1],"split_conditions":[2.925618E-5],"split_indices":[0],"split_type":[0],"sum_hessian":[1.81976E5],"tree_param":{"num_deleted":"0","num_feature":"50","num_nodes":"1","size_leaf_vector":"1"}},{"base_weights":[4.4795164E-5],"categories":[],"categories_nodes":[],"categories_segments":[],"categories_sizes":[],"default_left":[0],"id":46,"left_children":[-1],"loss_changes":[0E0],"parents":[2147483647],"right_children":[-1],"split_conditions":[1.0982848E-5],"split_indices":[0],"split_type":[0],"sum_hessian":[1.81658E5],"tree_param":{"num_deleted":"0","num_feature":"50","num_nodes":"1","size_leaf_vector":"1"}},{"base_weights":[-1.4513623E-4],"categories":[],"categories_nodes":[],"categories_segments":[],"categories_sizes":[],"default_left":[0],"id":47,"left_children":[-1],"loss_changes":[0E0],"parents":[2147483647],"right_children":[-1],"split_conditions":[-3.5584402E-5],"split_indices":[0],"split_type":[0],"sum_hessian":[1.80325E5],"tree_param":{"num_deleted":"0","num_feature":"50","num_nodes":"1","size_leaf_vector":"1"}},{"base_weights":[-2.7306043E-5],"categories":[],"categories_nodes":[],"categories_segments":[],"categories_sizes":[],"default_left":[0],"id":48,"left_children":[-1],"loss_changes":[0E0],"parents":[2147483647],"right_children":[-1],"split_conditions":[-6.6948774E-6],"split_indices":[0],"split_type":[0],"sum_hessian":[1.78947E5],"tree_param":{"num_deleted":"0","num_feature":"50","num_nodes":"1","size_leaf_vector":"1"}},{"base_weights":[3.6263486E-5],"categories":[],"categories_nodes":[],"categories_segments":[],"categories_sizes":[],"default_left":[0],"id":49,"left_children":[-1],"loss_changes":[0E0],"parents":[2147483647],"right_children":[-1],"split_conditions":[8.8910565E-6],"split_indices":[0],"split_type":[0],"sum_hessian":[1.81262E5],"tree_param":{"num_deleted":"0","num_feature":"50","num_nodes":"1","size_leaf_vector":"1"}},{"base_weights":[1.4196727E-5],"categories":[],"categories_nodes":[],"categories_segments":[],"categories_sizes":[],"default_left":[0],"id":50,"left_children":[-1],"loss_changes":[0E0],"parents":[2147483647],"right_children":[-1],"split_conditions":[3.4807438E-6],"split_indices":[0],"split_type":[0],"sum_hessian":[1.80447E5],"tree_param":{"num_deleted":"0","num_feature":"50","num_nodes":"1","size_leaf_vector":"1"}},{"base_weights":[4.4916247E-5],"categories":[],"categories_nodes":[],"categories_segments":[],"categories_sizes":[],"default_left":[0],"id":51,"left_children":[-1],"loss_changes":[0E0],"parents":[2147483647],"right_children":[-1],"split_conditions":[1.1012535E-5],"split_indices":[0],"split_type":[0],"sum_hessian":[1.78818E5],"tree_param":{"num_deleted":"0","num_feature":"50","num_nodes":"1","size_leaf_vector":"1"}},{"base_weights":[7.643169E-5],"categories":[],"categories_nodes":[],"categories_segments":[],"categories_sizes":[],"default_left":[0],"id":52,"left_children":[-1],"loss_changes":[0E0],"parents":[2147483647],"right_children":[-1],"split_conditions":[1.8739469E-5],"split_indices":[0],"split_type":[0],"sum_hessian":[1.81786E5],"tree_param":{"num_deleted":"0","num_feature":"50","num_nodes":"1","size_leaf_vector":"1"}},{"base_weights":[-1.3908705E-4],"categories":[],"categories_nodes":[],"categories_segments":[],"categories_sizes":[],"default_left":[0],"id":53,"left_children":[-1],"loss_changes":[0E0],"parents":[2147483647],"right_children":[-1],"split_conditions":[-3.4101267E-5],"split_indices":[0],"split_type":[0],"sum_hessian":[1.81284E5],"tree_param":{"num_deleted":"0","num_feature":"50","num_nodes":"1","size_leaf_vector":"1"}},{"base_weights":[1.2453756E-4],"categories":[],"categories_nodes":[],"categories_segments":[],"categories_sizes":[],"default_left":[0],"id":54,"left_children":[-1],"loss_changes":[0E0],"parents":[2147483647],"right_children":[-1],"split_conditions":[3.0534036E-5],"split_indices":[0],"split_type":[0],"sum_hessian":[1.82101E5],"tree_param":{"num_deleted":"0","num_feature":"50","num_nodes":"1","size_leaf_vector":"1"}},{"base_weights":[-6.5656127E-6],"categories":[],"categories_nodes":[],"categories_segments":[],"categories_sizes":[],"default_left":[0],"id":55,"left_children":[-1],"loss_changes":[0E0],"parents":[2147483647],"right_children":[-1],"split_conditions":[-1.6097525E-6],"split_indices":[0],"split_type":[0],"sum_hessian":[1.82245E5],"tree_param":{"num_deleted":"0","num_feature":"50","num_nodes":"1","size_leaf_vector":"1"}},{"base_weights":[7.6802775E-7],"categories":[],"categories_nodes":[],"categories_segments":[],"categories_sizes":[],"default_left":[0],"id":56,"left_children":[-1],"loss_changes":[0E0],"parents":[2147483647],"right_children":[-1],"split_conditions":[1.8830453E-7],"split_indices":[0],"split_type":[0],"sum_hessian":[1.79116E5],"tree_param":{"num_deleted":"0","num_feature":"50","num_nodes":"1","size_leaf_vector":"1"}},{"base_weights":[-6.5058295E-5],"categories":[],"categories_nodes":[],"categories_segments":[],"categories_sizes":[],"default_left":[0],"id":57,"left_children":[-1],"loss_changes":[0E0],"parents":[2147483647],"right_children":[-1],"split_conditions":[-1.595095E-5],"split_indices":[0],"split_type":[0],"sum_hessian":[1.81215E5],"tree_param":{"num_deleted":"0","num_feature":"50","num_nodes":"1","size_leaf_vector":"1"}},{"base_weights":[-6.955867E-5,-6.49715E-5,5.531047E-3],"categories":[],"categories_nodes":[],"categories_segments":[],"categories_sizes":[],"default_left":[0,0,0],"id":58,"left_children":[1,-1,-1],"loss_changes":[8.09651E-1,0E0,0E0],"parents":[2147483647,0,0],"right_children":[2,-1,-1],"split_conditions":[2.3E1,-6.49715E-5,5.531047E-3],"split_indices":[49,0,0],"split_type":[0,0,0],"sum_hessian":[1.83074E5,1.81507E5,1.567E3],"tree_param":{"num_deleted":"0","num_feature":"50","num_nodes":"3","size_leaf_vector":"1"}},{"base_weights":[-2.7925257E-6],"categories":[],"categories_nodes":[],"categories_segments":[],"categories_sizes":[],"default_left":[0],"id":59,"left_children":[-1],"loss_changes":[0E0],"parents":[2147483647],"right_children":[-1],"split_conditions":[-6.8466954E-7],"split_indices":[0],"split_type":[0],"sum_hessian":[1.80786E5],"tree_param":{"num_deleted":"0","num_feature":"50","num_nodes":"1","size_leaf_vector":"1"}},{"base_weights":[4.3491716E-5],"categories":[],"categories_nodes":[],"categories_segments":[],"categories_sizes":[],"default_left":[0],"id":60,"left_children":[-1],"loss_changes":[0E0],"parents":[2147483647],"right_children":[-1],"split_conditions":[1.066327E-5],"split_indices":[0],"split_type":[0],"sum_hessian":[1.79344E5],"tree_param":{"num_deleted":"0","num_feature":"50","num_nodes":"1","size_leaf_vector":"1"}},{"base_weights":[8.725408E-5],"categories":[],"categories_nodes":[],"categories_segments":[],"categories_sizes":[],"default_left":[0],"id":61,"left_children":[-1],"loss_changes":[0E0],"parents":[2147483647],"right_children":[-1],"split_conditions":[2.1392896E-5],"split_indices":[0],"split_type":[0],"sum_hessian":[1.82085E5],"tree_param":{"num_deleted":"0","num_feature":"50","num_nodes":"1","size_leaf_vector":"1"}},{"base_weights":[-3.540922E-5],"categories":[],"categories_nodes":[],"categories_segments":[],"categories_sizes":[],"default_left":[0],"id":62,"left_children":[-1],"loss_changes":[0E0],"parents":[2147483647],"right_children":[-1],"split_conditions":[-8.681608E-6],"split_indices":[0],"split_type":[0],"sum_hessian":[1.79911E5],"tree_param":{"num_deleted":"0","num_feature":"50","num_nodes":"1","size_leaf_vector":"1"}},{"base_weights":[6.862769E-5],"categories":[],"categories_nodes":[],"categories_segments":[],"categories_sizes":[],"default_left":[0],"id":63,"left_children":[-1],"loss_changes":[0E0],"parents":[2147483647],"right_children":[-1],"split_conditions":[1.682609E-5],"split_indices":[0],"split_type":[0],"sum_hessian":[1.81382E5],"tree_param":{"num_deleted":"0","num_feature":"50","num_nodes":"1","size_leaf_vector":"1"}},{"base_weights":[2.3279857E-4],"categories":[],"categories_nodes":[],"categories_segments":[],"categories_sizes":[],"default_left":[0],"id":64,"left_children":[-1],"loss_changes":[0E0],"parents":[2147483647],"right_children":[-1],"split_conditions":[5.7077395E-5],"split_indices":[0],"split_type":[0],"sum_hessian":[1.81648E5],"tree_param":{"num_deleted":"0","num_feature":"50","num_nodes":"1","size_leaf_vector":"1"}},{"base_weights":[1.3858575E-4],"categories":[],"categories_nodes":[],"categories_segments":[],"categories_sizes":[],"default_left":[0],"id":65,"left_children":[-1],"loss_changes":[0E0],"parents":[2147483647],"right_children":[-1],"split_conditions":[3.397836E-5],"split_indices":[0],"split_type":[0],"sum_hessian":[1.82385E5],"tree_param":{"num_deleted":"0","num_feature":"50","num_nodes":"1","size_leaf_vector":"1"}},{"base_weights":[-3.3461012E-5],"categories":[],"categories_nodes":[],"categories_segments":[],"categories_sizes":[],"default_left":[0],"id":66,"left_children":[-1],"loss_changes":[0E0],"parents":[2147483647],"right_children":[-1],"split_conditions":[-8.203949E-6],"split_indices":[0],"split_type":[0],"sum_hessian":[1.80967E5],"tree_param":{"num_deleted":"0","num_feature":"50","num_nodes":"1","size_leaf_vector":"1"}},{"base_weights":[4.2598745E-5],"categories":[],"categories_nodes":[],"categories_segments":[],"categories_sizes":[],"default_left":[0],"id":67,"left_children":[-1],"loss_changes":[0E0],"parents":[2147483647],"right_children":[-1],"split_conditions":[1.0444332E-5],"split_indices":[0],"split_type":[0],"sum_hessian":[1.80794E5],"tree_param":{"num_deleted":"0","num_feature":"50","num_nodes":"1","size_leaf_vector":"1"}},{"base_weights":[-8.624473E-5],"categories":[],"categories_nodes":[],"categories_segments":[],"categories_sizes":[],"default_left":[0],"id":68,"left_children":[-1],"loss_changes":[0E0],"parents":[2147483647],"right_children":[-1],"split_conditions":[-2.1145424E-5],"split_indices":[0],"split_type":[0],"sum_hessian":[1.80483E5],"tree_param":{"num_deleted":"0","num_feature":"50","num_nodes":"1","size_leaf_vector":"1"}},{"base_weights":[-2.1082729E-4],"categories":[],"categories_nodes":[],"categories_segments":[],"categories_sizes":[],"default_left":[0],"id":69,"left_children":[-1],"loss_changes":[0E0],"parents":[2147483647],"right_children":[-1],"split_conditions":[-5.169049E-5],"split_indices":[0],"split_type":[0],"sum_hessian":[1.80785E5],"tree_param":{"num_deleted":"0","num_feature":"50","num_nodes":"1","size_leaf_vector":"1"}},{"base_weights":[1.1178496E-4],"categories":[],"categories_nodes":[],"categories_segments":[],"categories_sizes":[],"default_left":[0],"id":70,"left_children":[-1],"loss_changes":[0E0],"parents":[2147483647],"right_children":[-1],"split_conditions":[2.740736E-5],"split_indices":[0],"split_type":[0],"sum_hessian":[1.827E5],"tree_param":{"num_deleted":"0","num_feature":"50","num_nodes":"1","size_leaf_vector":"1"}},{"base_weights":[-1.10249086E-4],"categories":[],"categories_nodes":[],"categories_segments":[],"categories_sizes":[],"default_left":[0],"id":71,"left_children":[-1],"loss_changes":[0E0],"parents":[2147483647],"right_children":[-1],"split_conditions":[-2.7030797E-5],"split_indices":[0],"split_type":[0],"sum_hessian":[1.82807E5],"tree_param":{"num_deleted":"0","num_feature":"50","num_nodes":"1","size_leaf_vector":"1"}},{"base_weights":[-6.151965E-5],"categories":[],"categories_nodes":[],"categories_segments":[],"categories_sizes":[],"default_left":[0],"id":72,"left_children":[-1],"loss_changes":[0E0],"parents":[2147483647],"right_children":[-1],"split_conditions":[-1.5083346E-5],"split_indices":[0],"split_type":[0],"sum_hessian":[1.81087E5],"tree_param":{"num_deleted":"0","num_feature":"50","num_nodes":"1","size_leaf_vector":"1"}},{"base_weights":[1.2370857E-4],"categories":[],"categories_nodes":[],"categories_segments":[],"categories_sizes":[],"default_left":[0],"id":73,"left_children":[-1],"loss_changes":[0E0],"parents":[2147483647],"right_children":[-1],"split_conditions":[3.0330782E-5],"split_indices":[0],"split_type":[0],"sum_hessian":[1.81242E5],"tree_param":{"num_deleted":"0","num_feature":"50","num_nodes":"1","size_leaf_vector":"1"}},{"base_weights":[3.082774E-5],"categories":[],"categories_nodes":[],"categories_segments":[],"categories_sizes":[],"default_left":[0],"id":74,"left_children":[-1],"loss_changes":[0E0],"parents":[2147483647],"right_children":[-1],"split_conditions":[7.558325E-6],"split_indices":[0],"split_type":[0],"sum_hessian":[1.79734E5],"tree_param":{"num_deleted":"0","num_feature":"50","num_nodes":"1","size_leaf_vector":"1"}},{"base_weights":[-2.8947043E-5],"categories":[],"categories_nodes":[],"categories_segments":[],"categories_sizes":[],"default_left":[0],"id":75,"left_children":[-1],"loss_changes":[0E0],"parents":[2147483647],"right_children":[-1],"split_conditions":[-7.0972164E-6],"split_indices":[0],"split_type":[0],"sum_hessian":[1.80418E5],"tree_param":{"num_deleted":"0","num_feature":"50","num_nodes":"1","size_leaf_vector":"1"}},{"base_weights":[-3.2418338E-4],"categories":[],"categories_nodes":[],"categories_segments":[],"categories_sizes":[],"default_left":[0],"id":76,"left_children":[-1],"loss_changes":[0E0],"parents":[2147483647],"right_children":[-1],"split_conditions":[-7.948306E-5],"split_indices":[0],"split_type":[0],"sum_hessian":[1.80362E5],"tree_param":{"num_deleted":"0","num_feature":"50","num_nodes":"1","size_leaf_vector":"1"}},{"base_weights":[4.3172193E-5],"categories":[],"categories_nodes":[],"categories_segments":[],"categories_sizes":[],"default_left":[0],"id":77,"left_children":[-1],"loss_changes":[0E0],"parents":[2147483647],"right_children":[-1],"split_conditions":[1.0584929E-5],"split_indices":[0],"split_type":[0],"sum_hessian":[1.81782E5],"tree_param":{"num_deleted":"0","num_feature":"50","num_nodes":"1","size_leaf_vector":"1"}},{"base_weights":[1.8255328E-4],"categories":[],"categories_nodes":[],"categories_segments":[],"categories_sizes":[],"default_left":[0],"id":78,"left_children":[-1],"loss_changes":[0E0],"parents":[2147483647],"right_children":[-1],"split_conditions":[4.475829E-5],"split_indices":[0],"split_type":[0],"sum_hessian":[1.79643E5],"tree_param":{"num_deleted":"0","num_feature":"50","num_nodes":"1","size_leaf_vector":"1"}},{"base_weights":[-8.347017E-5],"categories":[],"categories_nodes":[],"categories_segments":[],"categories_sizes":[],"default_left":[0],"id":79,"left_children":[-1],"loss_changes":[0E0],"parents":[2147483647],"right_children":[-1],"split_conditions":[-2.046516E-5],"split_indices":[0],"split_type":[0],"sum_hessian":[1.79434E5],"tree_param":{"num_deleted":"0","num_feature":"50","num_nodes":"1","size_leaf_vector":"1"}},{"base_weights":[5.1901254E-5],"categories":[],"categories_nodes":[],"categories_segments":[],"categories_sizes":[],"default_left":[0],"id":80,"left_children":[-1],"loss_changes":[0E0],"parents":[2147483647],"right_children":[-1],"split_conditions":[1.2725114E-5],"split_indices":[0],"split_type":[0],"sum_hessian":[1.81211E5],"tree_param":{"num_deleted":"0","num_feature":"50","num_nodes":"1","size_leaf_vector":"1"}},{"base_weights":[1.2542134E-4],"categories":[],"categories_nodes":[],"categories_segments":[],"categories_sizes":[],"default_left":[0],"id":81,"left_children":[-1],"loss_changes":[0E0],"parents":[2147483647],"right_children":[-1],"split_conditions":[3.075072E-5],"split_indices":[0],"split_type":[0],"sum_hessian":[1.81148E5],"tree_param":{"num_deleted":"0","num_feature":"50","num_nodes":"1","size_leaf_vector":"1"}},{"base_weights":[1.6317664E-4],"categories":[],"categories_nodes":[],"categories_segments":[],"categories_sizes":[],"default_left":[0],"id":82,"left_children":[-1],"loss_changes":[0E0],"parents":[2147483647],"right_children":[-1],"split_conditions":[4.0007537E-5],"split_indices":[0],"split_type":[0],"sum_hessian":[1.80232E5],"tree_param":{"num_deleted":"0","num_feature":"50","num_nodes":"1","size_leaf_vector":"1"}},{"base_weights":[-2.2958271E-4],"categories":[],"categories_nodes":[],"categories_segments":[],"categories_sizes":[],"default_left":[0],"id":83,"left_children":[-1],"loss_changes":[0E0],"parents":[2147483647],"right_children":[-1],"split_conditions":[-5.6288936E-5],"split_indices":[0],"split_type":[0],"sum_hessian":[1.78943E5],"tree_param":{"num_deleted":"0","num_feature":"50","num_nodes":"1","size_leaf_vector":"1"}},{"base_weights":[-7.914771E-5],"categories":[],"categories_nodes":[],"categories_segments":[],"categories_sizes":[],"default_left":[0],"id":84,"left_children":[-1],"loss_changes":[0E0],"parents":[2147483647],"right_children":[-1],"split_conditions":[-1.9405381E-5],"split_indices":[0],"split_type":[0],"sum_hessian":[1.81668E5],"tree_param":{"num_deleted":"0","num_feature":"50","num_nodes":"1","size_leaf_vector":"1"}},{"base_weights":[1.0758078E-4],"categories":[],"categories_nodes":[],"categories_segments":[],"categories_sizes":[],"default_left":[0],"id":85,"left_children":[-1],"loss_changes":[0E0],"parents":[2147483647],"right_children":[-1],"split_conditions":[2.6376583E-5],"split_indices":[0],"split_type":[0],"sum_hessian":[1.82439E5],"tree_param":{"num_deleted":"0","num_feature":"50","num_nodes":"1","size_leaf_vector":"1"}},{"base_weights":[-6.4087435E-5],"categories":[],"categories_nodes":[],"categories_segments":[],"categories_sizes":[],"default_left":[0],"id":86,"left_children":[-1],"loss_changes":[0E0],"parents":[2147483647],"right_children":[-1],"split_conditions":[-1.5712914E-5],"split_indices":[0],"split_type":[0],"sum_hessian":[1.80414E5],"tree_param":{"num_deleted":"0","num_feature":"50","num_nodes":"1","size_leaf_vector":"1"}},{"base_weights":[-4.470041E-5],"categories":[],"categories_nodes":[],"categories_segments":[],"categories_sizes":[],"default_left":[0],"id":87,"left_children":[-1],"loss_changes":[0E0],"parents":[2147483647],"right_children":[-1],"split_conditions":[-1.0959616E-5],"split_indices":[0],"split_type":[0],"sum_hessian":[1.81723E5],"tree_param":{"num_deleted":"0","num_feature":"50","num_nodes":"1","size_leaf_vector":"1"}},{"base_weights":[9.794572E-5],"categories":[],"categories_nodes":[],"categories_segments":[],"categories_sizes":[],"default_left":[0],"id":88,"left_children":[-1],"loss_changes":[0E0],"parents":[2147483647],"right_children":[-1],"split_conditions":[2.4014265E-5],"split_indices":[0],"split_type":[0],"sum_hessian":[1.80065E5],"tree_param":{"num_deleted":"0","num_feature":"50","num_nodes":"1","size_leaf_vector":"1"}},{"base_weights":[-6.8670735E-5],"categories":[],"categories_nodes":[],"categories_segments":[],"categories_sizes":[],"default_left":[0],"id":89,"left_children":[-1],"loss_changes":[0E0],"parents":[2147483647],"right_children":[-1],"split_conditions":[-1.6836644E-5],"split_indices":[0],"split_type":[0],"sum_hessian":[1.81404E5],"tree_param":{"num_deleted":"0","num_feature":"50","num_nodes":"1","size_leaf_vector":"1"}},{"base_weights":[1.278167E-4],"categories":[],"categories_nodes":[],"categories_segments":[],"categories_sizes":[],"default_left":[0],"id":90,"left_children":[-1],"loss_changes":[0E0],"parents":[2147483647],"right_children":[-1],"split_conditions":[3.133801E-5],"split_indices":[0],"split_type":[0],"sum_hessian":[1.81649E5],"tree_param":{"num_deleted":"0","num_feature":"50","num_nodes":"1","size_leaf_vector":"1"}},{"base_weights":[-1.128813E-4],"categories":[],"categories_nodes":[],"categories_segments":[],"categories_sizes":[],"default_left":[0],"id":91,"left_children":[-1],"loss_changes":[0E0],"parents":[2147483647],"right_children":[-1],"split_conditions":[-2.7676162E-5],"split_indices":[0],"split_type":[0],"sum_hessian":[1.80299E5],"tree_param":{"num_deleted":"0","num_feature":"50","num_nodes":"1","size_leaf_vector":"1"}},{"base_weights":[1.1648429E-4],"categories":[],"categories_nodes":[],"categories_segments":[],"categories_sizes":[],"default_left":[0],"id":92,"left_children":[-1],"loss_changes":[0E0],"parents":[2147483647],"right_children":[-1],"split_conditions":[2.855954E-5],"split_indices":[0],"split_type":[0],"sum_hessian":[1.79332E5],"tree_param":{"num_deleted":"0","num_feature":"50","num_nodes":"1","size_leaf_vector":"1"}},{"base_weights":[-4.2583073E-5,-2.7432165E-3,1.1068943E-4],"categories":[],"categories_nodes":[],"categories_segments":[],"categories_sizes":[],"default_left":[0,0,0],"id":93,"left_children":[1,-1,-1],"loss_changes":[9.9817574E-1,0E0,0E0],"parents":[2147483647,0,0],"right_children":[2,-1,-1],"split_conditions":[-1.739E3,-2.7432165E-3,1.1068943E-4],"split_indices":[37,0,0],"split_type":[0,0,0],"sum_hessian":[1.81266E5,7.693E3,1.73573E5],"tree_param":{"num_deleted":"0","num_feature":"50","num_nodes":"3","size_leaf_vector":"1"}},{"base_weights":[1.9854146E-5],"categories":[],"categories_nodes":[],"categories_segments":[],"categories_sizes":[],"default_left":[0],"id":94,"left_children":[-1],"loss_changes":[0E0],"parents":[2147483647],"right_children":[-1],"split_conditions":[4.867826E-6],"split_indices":[0],"split_type":[0],"sum_hessian":[1.81629E5],"tree_param":{"num_deleted":"0","num_feature":"50","num_nodes":"1","size_leaf_vector":"1"}},{"base_weights":[-1.2013124E-4],"categories":[],"categories_nodes":[],"categories_segments":[],"categories_sizes":[],"default_left":[0],"id":95,"left_children":[-1],"loss_changes":[0E0],"parents":[2147483647],"right_children":[-1],"split_conditions":[-2.9453697E-5],"split_indices":[0],"split_type":[0],"sum_hessian":[1.81789E5],"tree_param":{"num_deleted":"0","num_feature":"50","num_nodes":"1","size_leaf_vector":"1"}},{"base_weights":[-1.6306511E-4],"categories":[],"categories_nodes":[],"categories_segments":[],"categories_sizes":[],"default_left":[0],"id":96,"left_children":[-1],"loss_changes":[0E0],"parents":[2147483647],"right_children":[-1],"split_conditions":[-3.9980194E-5],"split_indices":[0],"split_type":[0],"sum_hessian":[1.82401E5],"tree_param":{"num_deleted":"0","num_feature":"50","num_nodes":"1","size_leaf_vector":"1"}},{"base_weights":[-4.597983E-5],"categories":[],"categories_nodes":[],"categories_segments":[],"categories_sizes":[],"default_left":[0],"id":97,"left_children":[-1],"loss_changes":[0E0],"parents":[2147483647],"right_children":[-1],"split_conditions":[-1.1273303E-5],"split_indices":[0],"split_type":[0],"sum_hessian":[1.81912E5],"tree_param":{"num_deleted":"0","num_feature":"50","num_nodes":"1","size_leaf_vector":"1"}},{"base_weights":[-1.3243029E-4],"categories":[],"categories_nodes":[],"categories_segments":[],"categories_sizes":[],"default_left":[0],"id":98,"left_children":[-1],"loss_changes":[0E0],"parents":[2147483647],"right_children":[-1],"split_conditions":[-3.246917E-5],"split_indices":[0],"split_type":[0],"sum_hessian":[1.80039E5],"tree_param":{"num_deleted":"0","num_feature":"50","num_nodes":"1","size_leaf_vector":"1"}},{"base_weights":[1.9998399E-4],"categories":[],"categories_nodes":[],"categories_segments":[],"categories_sizes":[],"default_left":[0],"id":99,"left_children":[-1],"loss_changes":[0E0],"parents":[2147483647],"right_children":[-1],"split_conditions":[4.903194E-5],"split_indices":[0],"split_type":[0],"sum_hessian":[1.79881E5],"tree_param":{"num_deleted":"0","num_feature":"50","num_nodes":"1","size_leaf_vector":"1"}},{"base_weights":[1.4631764E-4],"categories":[],"categories_nodes":[],"categories_segments":[],"categories_sizes":[],"default_left":[0],"id":100,"left_children":[-1],"loss_changes":[0E0],"parents":[2147483647],"right_children":[-1],"split_conditions":[3.587406E-5],"split_indices":[0],"split_type":[0],"sum_hessian":[1.83004E5],"tree_param":{"num_deleted":"0","num_feature":"50","num_nodes":"1","size_leaf_vector":"1"}},{"base_weights":[-9.6687596E-5],"categories":[],"categories_nodes":[],"categories_segments":[],"categories_sizes":[],"default_left":[0],"id":101,"left_children":[-1],"loss_changes":[0E0],"parents":[2147483647],"right_children":[-1],"split_conditions":[-2.37058E-5],"split_indices":[0],"split_type":[0],"sum_hessian":[1.81536E5],"tree_param":{"num_deleted":"0","num_feature":"50","num_nodes":"1","size_leaf_vector":"1"}},{"base_weights":[-7.719996E-5],"categories":[],"categories_nodes":[],"categories_segments":[],"categories_sizes":[],"default_left":[0],"id":102,"left_children":[-1],"loss_changes":[0E0],"parents":[2147483647],"right_children":[-1],"split_conditions":[-1.8927834E-5],"split_indices":[0],"split_type":[0],"sum_hessian":[1.80041E5],"tree_param":{"num_deleted":"0","num_feature":"50","num_nodes":"1","size_leaf_vector":"1"}},{"base_weights":[1.1790579E-4],"categories":[],"categories_nodes":[],"categories_segments":[],"categories_sizes":[],"default_left":[0],"id":103,"left_children":[-1],"loss_changes":[0E0],"parents":[2147483647],"right_children":[-1],"split_conditions":[2.8908062E-5],"split_indices":[0],"split_type":[0],"sum_hessian":[1.79829E5],"tree_param":{"num_deleted":"0","num_feature":"50","num_nodes":"1","size_leaf_vector":"1"}},{"base_weights":[3.6154852E-5],"categories":[],"categories_nodes":[],"categories_segments":[],"categories_sizes":[],"default_left":[0],"id":104,"left_children":[-1],"loss_changes":[0E0],"parents":[2147483647],"right_children":[-1],"split_conditions":[8.864422E-6],"split_indices":[0],"split_type":[0],"sum_hessian":[1.8075E5],"tree_param":{"num_deleted":"0","num_feature":"50","num_nodes":"1","size_leaf_vector":"1"}},{"base_weights":[-2.3250052E-5],"categories":[],"categories_nodes":[],"categories_segments":[],"categories_sizes":[],"default_left":[0],"id":105,"left_children":[-1],"loss_changes":[0E0],"parents":[2147483647],"right_children":[-1],"split_conditions":[-5.7004318E-6],"split_indices":[0],"split_type":[0],"sum_hessian":[1.81016E5],"tree_param":{"num_deleted":"0","num_feature":"50","num_nodes":"1","size_leaf_vector":"1"}},{"base_weights":[-1.6025507E-6],"categories":[],"categories_nodes":[],"categories_segments":[],"categories_sizes":[],"default_left":[0],"id":106,"left_children":[-1],"loss_changes":[0E0],"parents":[2147483647],"right_children":[-1],"split_conditions":[-3.929123E-7],"split_indices":[0],"split_type":[0],"sum_hessian":[1.8201E5],"tree_param":{"num_deleted":"0","num_feature":"50","num_nodes":"1","size_leaf_vector":"1"}},{"base_weights":[4.4935037E-5],"categories":[],"categories_nodes":[],"categories_segments":[],"categories_sizes":[],"default_left":[0],"id":107,"left_children":[-1],"loss_changes":[0E0],"parents":[2147483647],"right_children":[-1],"split_conditions":[1.1017142E-5],"split_indices":[0],"split_type":[0],"sum_hessian":[1.82049E5],"tree_param":{"num_deleted":"0","num_feature":"50","num_nodes":"1","size_leaf_vector":"1"}},{"base_weights":[8.17895E-5],"categories":[],"categories_nodes":[],"categories_segments":[],"categories_sizes":[],"default_left":[0],"id":108,"left_children":[-1],"loss_changes":[0E0],"parents":[2147483647],"right_children":[-1],"split_conditions":[2.0053094E-5],"split_indices":[0],"split_type":[0],"sum_hessian":[1.80569E5],"tree_param":{"num_deleted":"0","num_feature":"50","num_nodes":"1","size_leaf_vector":"1"}},{"base_weights":[6.017997E-5],"categories":[],"categories_nodes":[],"categories_segments":[],"categories_sizes":[],"default_left":[0],"id":109,"left_children":[-1],"loss_changes":[0E0],"parents":[2147483647],"right_children":[-1],"split_conditions":[1.4754884E-5],"split_indices":[0],"split_type":[0],"sum_hessian":[1.80852E5],"tree_param":{"num_deleted":"0","num_feature":"50","num_nodes":"1","size_leaf_vector":"1"}},{"base_weights":[-1.0530033E-4],"categories":[],"categories_nodes":[],"categories_segments":[],"categories_sizes":[],"default_left":[0],"id":110,"left_children":[-1],"loss_changes":[0E0],"parents":[2147483647],"right_children":[-1],"split_conditions":[-2.5817464E-5],"split_indices":[0],"split_type":[0],"sum_hessian":[1.80698E5],"tree_param":{"num_deleted":"0","num_feature":"50","num_nodes":"1","size_leaf_vector":"1"}},{"base_weights":[4.1802774E-5],"categories":[],"categories_nodes":[],"categories_segments":[],"categories_sizes":[],"default_left":[0],"id":111,"left_children":[-1],"loss_changes":[0E0],"parents":[2147483647],"right_children":[-1],"split_conditions":[1.0249176E-5],"split_indices":[0],"split_type":[0],"sum_hessian":[1.82165E5],"tree_param":{"num_deleted":"0","num_feature":"50","num_nodes":"1","size_leaf_vector":"1"}},{"base_weights":[-2.8126035E-4],"categories":[],"categories_nodes":[],"categories_segments":[],"categories_sizes":[],"default_left":[0],"id":112,"left_children":[-1],"loss_changes":[0E0],"parents":[2147483647],"right_children":[-1],"split_conditions":[-6.895922E-5],"split_indices":[0],"split_type":[0],"sum_hessian":[1.81365E5],"tree_param":{"num_deleted":"0","num_feature":"50","num_nodes":"1","size_leaf_vector":"1"}},{"base_weights":[7.775621E-5],"categories":[],"categories_nodes":[],"categories_segments":[],"categories_sizes":[],"default_left":[0],"id":113,"left_children":[-1],"loss_changes":[0E0],"parents":[2147483647],"right_children":[-1],"split_conditions":[1.9064215E-5],"split_indices":[0],"split_type":[0],"sum_hessian":[1.82624E5],"tree_param":{"num_deleted":"0","num_feature":"50","num_nodes":"1","size_leaf_vector":"1"}},{"base_weights":[4.1143565E-5],"categories":[],"categories_nodes":[],"categories_segments":[],"categories_sizes":[],"default_left":[0],"id":114,"left_children":[-1],"loss_changes":[0E0],"parents":[2147483647],"right_children":[-1],"split_conditions":[1.0087551E-5],"split_indices":[0],"split_type":[0],"sum_hessian":[1.8027E5],"tree_param":{"num_deleted":"0","num_feature":"50","num_nodes":"1","size_leaf_vector":"1"}},{"base_weights":[1.824581E-4],"categories":[],"categories_nodes":[],"categories_segments":[],"categories_sizes":[],"default_left":[0],"id":115,"left_children":[-1],"loss_changes":[0E0],"parents":[2147483647],"right_children":[-1],"split_conditions":[4.4734952E-5],"split_indices":[0],"split_type":[0],"sum_hessian":[1.82808E5],"tree_param":{"num_deleted":"0","num_feature":"50","num_nodes":"1","size_leaf_vector":"1"}},{"base_weights":[-9.2053495E-5],"categories":[],"categories_nodes":[],"categories_segments":[],"categories_sizes":[],"default_left":[0],"id":116,"left_children":[-1],"loss_changes":[0E0],"parents":[2147483647],"right_children":[-1],"split_conditions":[-2.2569613E-5],"split_indices":[0],"split_type":[0],"sum_hessian":[1.82622E5],"tree_param":{"num_deleted":"0","num_feature":"50","num_nodes":"1","size_leaf_vector":"1"}},{"base_weights":[1.1222814E-4],"categories":[],"categories_nodes":[],"categories_segments":[],"categories_sizes":[],"default_left":[0],"id":117,"left_children":[-1],"loss_changes":[0E0],"parents":[2147483647],"right_children":[-1],"split_conditions":[2.751602E-5],"split_indices":[0],"split_type":[0],"sum_hessian":[1.81912E5],"tree_param":{"num_deleted":"0","num_feature":"50","num_nodes":"1","size_leaf_vector":"1"}},{"base_weights":[7.572603E-5],"categories":[],"categories_nodes":[],"categories_segments":[],"categories_sizes":[],"default_left":[0],"id":118,"left_children":[-1],"loss_changes":[0E0],"parents":[2147483647],"right_children":[-1],"split_conditions":[1.8566456E-5],"split_indices":[0],"split_type":[0],"sum_hessian":[1.80823E5],"tree_param":{"num_deleted":"0","num_feature":"50","num_nodes":"1","size_leaf_vector":"1"}},{"base_weights":[-8.607582E-5],"categories":[],"categories_nodes":[],"categories_segments":[],"categories_sizes":[],"default_left":[0],"id":119,"left_children":[-1],"loss_changes":[0E0],"parents":[2147483647],"right_children":[-1],"split_conditions":[-2.1104011E-5],"split_indices":[0],"split_type":[0],"sum_hessian":[1.80539E5],"tree_param":{"num_deleted":"0","num_feature":"50","num_nodes":"1","size_leaf_vector":"1"}}]},"name":"gbtree"},"learner_model_param":{"base_score":"[9.892863E0]","boost_from_average":"1","num_class":"0","num_feature":"50","num_target":"1"},"objective":{"name":"reg:squarederror","reg_loss_param":{"scale_pos_weight":"1"}}},"version":[3,2,0]}